58 1024
01 -0.0011150939 0.0019323811 -0.011869452 -0.018576993 0.012725792 0.01348151 -0.0033039944 -0.0081082 0.027632492 -0.042943478 0.017597677 -0.042853445 -0.003855164 0.065370455 0.0047788853 0.018501377 0.0009142512 -0.028624399 -0.007950902 0.0209905 0.052184068 0.043067057 0.032400426 -0.0032760755 0.016315399 -0.044788986 0.039276432 -0.044874746 -0.03772317 0.01305793 -0.022748977 -0.09343266 -0.03883621 0.011502036 -0.06988345 0.031807676 -0.001288285 -0.035125572 -0.016891405 -0.025608683 0.029316587 0.060226884 0.020808158 -0.0025649928 0.00817435 -0.0045630867 0.01576784 -0.024193019 0.023386711 0.05698966 -0.055532623 0.033584997 -0.03540637 0.032027263 0.027519729 0.004428299 0.06612973 -0.021577341 -0.015023241 0.013973156 -0.013886518 -0.026377145 0.0013539147 0.0005545704 0.021757053 0.027268931 -0.0050692917 -0.03398071 0.0032593056 0.05708747 -0.07123744 0.029361239 0.022743538 0.030995438 -0.025953827 -0.010014604 -0.009301222 0.0086621875 0.008925623 -0.038508587 0.00750388 -0.019877704 0.03782293 0.029031307 -0.00749534 0.010272752 -0.00093070115 -0.046295874 -0.056278314 -0.03885144 0.031851523 -0.013358794 -0.025106957 -0.023552142 0.020258147 -0.045357462 -0.07370356 -0.048764393 -0.05648237 0.033556677 0.008779257 -0.014870083 0.025804486 -0.0021224373 0.067483254 0.04012912 -0.0059920643 -0.0086598275 -0.057664145 -0.0059979428 -0.036955222 0.030220957 -0.030619107 -0.006931613 0.026880538 -0.009212036 0.0156025225 -0.009175804 -0.013254389 -0.017721593 0.04388411 -0.034005735 0.0028993238 0.042527262 -0.0093924925 0.033683896 -0.044063367 -0.064025044 -0.0036363339 -0.07105977 -0.029673599 -0.032686166 -0.033994563 -0.006164501 -0.027216524 0.016070046 -0.046730973 -0.013057947 -0.0155577315 0.02821914 -0.009879725 0.013081829 -0.033360884 -0.0040468345 -0.046136476 0.014281446 -0.01368684 0.0368199 0.010370925 -0.018770775 0.0130871665 0.00017807483 -0.012640728 -0.028047912 -0.01356838 -0.030113354 0.015311528 -0.009307545 0.00041267226 -0.03607571 0.021133797 0.06529665 -0.009910653 0.054927573 -0.07321949 -0.0594405 0.019719312 0.013523497 -0.030081755 -0.06443573 0.0017220889 0.05164025 -0.001576603 -0.028621083 0.04299586 0.06507083 0.004557922 -0.014228271 0.015159812 -0.0023759496 0.021963328 0.03542776 0.055507157 0.0068863127 0.0035043 0.030876847 0.061798427 -0.045314953 -0.030478287 0.005496691 0.03085794 0.0033658862 -0.026936725 -0.058693063 -0.004101529 -0.0046750396 0.028426249 -0.026734866 -0.073391125 -0.047222015 0.04268644 -0.007838964 -0.005332493 0.019243129 0.031999048 -0.009582174 -0.0077125076 0.004279747 0.0018585249 0.014297136 -0.028190915 -0.0394779 0.04409492 0.007873147 -0.010539996 -0.009061595 -0.03945697 0.05234486 -0.0047339164 -0.0062180078 0.033833444 0.004818023 -0.04316517 0.032777343 0.04971983 0.0021010109 -0.024828326 0.0056194216 -0.008785201 -0.03973926 0.04031492 0.010296428 0.035110433 -0.006510313 -0.0075667687 0.016216926 -0.050752163 0.007114825 0.0073368507 -0.024600131 0.051079717 -0.0084123295 0.012295038 -0.0068983715 0.057858236 0.063585885 -0.0154486345 -0.020040173 -0.025944253 -0.026916552 -0.018831125 0.03956815 -0.02134857 0.035262343 0.014368843 -0.0032683678 0.003572564 0.0021682272 -0.043693554 -0.09998471 -0.005628585 -0.032853015 -0.006752216 0.0077311723 -0.048376296 -0.011822538 -0.07037714 0.029701643 -0.008230747 -0.010750942 0.024267146 -0.073931545 0.04152275 0.025537046 0.023451058 -0.007712554 -0.032068368 0.013588016 -0.011401092 0.0016125765 -0.032704268 0.004545564 -0.00069736416 0.0108362315 0.0065524722 -0.006109195 -0.026837554 0.0047890344 -0.018427942 -0.019404542 0.04731132 -0.004257358 -0.064843625 -0.005870427 0.033467975 -0.040496137 0.010793491 -0.0061790925 -0.049411852 -0.024763677 0.010217973 -0.025402527 -0.018501649 -0.030702142 0.005461606 0.046493888 -0.000752025 -0.0035685792 -0.006922186 0.004921369 -0.010176532 -0.038579468 0.017006146 -0.0008231364 0.041332897 -0.013412727 0.01788044 0.05087173 -0.041221887 0.027499445 0.0015617948 -0.027891513 -0.052769784 0.009089767 -0.015092828 0.00061099324 -0.05905975 -0.043903876 0.025712484 0.002167006 -0.037860096 0.06318524 0.05630887 -0.0055283373 0.0033787736 0.0015725176 0.026184943 -0.01094784 -0.017211704 0.01214115 0.03525493 -0.030128634 0.023511333 -0.008034522 -0.0051123677 -0.025690386 0.07009793 -0.0512237 -0.01113533 -0.04893512 -0.014830276 0.010075799 0.057205126 0.024833508 -0.011328463 -0.05160457 -0.021957673 0.061214957 0.0141755855 0.04166615 -0.017687725 -0.01966307 0.025988344 -0.0234291 -0.0075710486 -0.027581824 -0.032198258 -0.019967938 -0.045239344 -0.015970573 0.06003837 -0.03572774 0.008061134 0.015093689 -0.0017871737 -0.03396222 -0.02594555 -0.0015771013 0.00964727 -0.006882588 -0.062205702 -0.04678647 -0.03104078 -0.01216766 0.008449559 -0.04598945 -0.011668284 0.014883204 0.026240475 -0.0018295756 0.026724435 0.0072659217 0.015838496 0.019605126 -0.007213738 0.019164488 0.008266648 -0.040216297 0.04794715 0.028881235 0.058738433 0.011150015 0.0186882 -0.03274453 -0.0071290126 0.011240786 0.061698686 0.0165989 -0.013428363 -0.010425087 -0.004688349 -0.045525037 0.030566612 -0.026030915 0.083676904 0.020698873 0.024922278 0.045125667 0.0029065402 0.05239943 -0.039676983 0.008017505 0.028427131 -0.0200934 0.003984994 0.0250063 -0.033776715 -0.009246756 0.04318715 -0.04081694 0.05030878 0.008492786 0.016382625 0.01632002 0.013472425 0.060547493 -0.04184598 0.030940326 -0.02205611 0.015421934 -0.03158757 -0.0013056388 0.024960589 0.008857381 -0.015878452 0.024891008 -0.056249574 0.001932174 -0.00062562525 0.034810048 0.016547928 0.0027649861 0.039150704 0.039665997 -0.044907697 0.014546319 0.0061570997 -0.0064500566 0.022617001 0.0052671367 -0.0423253 0.013603929 0.012574574 0.05009042 -0.039502826 0.030725263 0.060976457 0.07144308 0.012390761 0.011255283 -0.003025231 0.005831046 0.08964625 0.0031808417 0.008054168 0.011400488 0.015150056 0.045434557 0.002077953 -0.020057943 0.016581718 0.0033013618 -0.0019472538 -0.0408669 -0.004349148 -0.009162596 -0.01641144 -0.0060317186 -0.029685521 0.0034564654 0.011993678 0.03444973 -0.0105594285 -0.029710595 -0.007803112 0.057586282 0.0065254127 0.037458286 0.03580369 -0.020925678 0.01668358 0.038761657 -0.016318895 -0.041376173 0.038127895 0.019639324 0.015379104 -0.0509246 -0.022189774 -0.011587284 -0.032589693 0.029901344 -0.0356914 -0.007492325 -0.0096277455 -0.01436702 -7.7865436e-05 0.05158988 -0.018677043 0.009149021 -0.008210397 0.003943257 0.02748243 0.016212149 0.027518129 -0.023447867 -0.018888704 0.020238772 0.051410772 -0.023599515 -0.045905948 -0.046279985 0.097965814 0.00430608 -0.002084882 0.019655667 -0.026041705 -0.042045053 0.021946188 -0.03953259 -0.0059201885 -0.03139677 -0.027759451 0.001716278 0.03269833 -0.020594856 0.03189628 0.0051724026 0.0035929028 0.0077364272 -0.018847631 -0.036344554 -0.017420692 -0.025574 0.02088115 -0.0042540645 -0.05080126 -0.031331666 -0.036835812 -0.0059073586 0.005343598 0.024525521 0.025895359 0.0129369125 -0.03198729 0.0035352588 0.051426776 -0.086148076 -0.01693641 -0.054264758 -0.0083085 -0.0075250138 -0.009781671 0.0150187425 0.06603897 -0.07603298 0.039333783 -0.024196457 0.040272165 0.012207571 0.0042993105 -0.05698323 -0.022687932 0.002167931 0.03247917 -0.029750323 -0.0045318203 -0.026766255 0.012439636 0.008679292 -0.029429074 0.012161499 0.006930932 0.026774967 -0.023912655 -0.016009353 0.04869438 0.04796798 -0.0054998207 0.01346943 0.021031734 0.017361114 -0.024772862 -0.01992835 -0.009689133 -0.0102237435 -0.04189212 -0.06612065 -0.04319383 0.025658408 -0.005266279 -0.013853668 -0.017271157 0.06330065 0.009149832 0.021164441 0.013074056 -0.029473033 -0.0073894896 -0.0302703 0.0065235877 0.017496644 0.026295513 0.007351734 -0.019519877 0.010770842 -0.0012628149 -0.015350065 -0.05326768 0.03290391 0.032519955 -0.06441445 0.01138803 0.051204994 -0.02210888 -0.020175632 0.08637077 -0.038926117 0.033848327 0.0050968346 -0.030381441 0.031374473 0.006387122 -0.03643202 -0.026104212 -0.0307372 -0.04943576 0.013871639 0.061984435 -0.017266132 0.013003042 0.019755166 0.03422436 0.03569142 0.030960098 -0.012844746 -0.061789803 -0.0142893735 0.024301058 0.0031746954 0.03567553 0.008339136 -0.033368148 -0.006615431 -0.007433574 0.01754184 -0.01764376 0.002517638 -0.012966101 -0.04391561 -0.0037609744 0.040940177 0.0441216 -0.0045707 -0.01746694 0.041463867 -0.015451566 0.014657703 -0.014800914 -0.03607961 0.020813357 0.043957096 0.012509032 -0.027145112 0.03428384 0.08153177 0.000101828366 0.01695649 0.0056436257 -0.04351528 -0.06428465 0.021924222 -0.0033565487 0.010905411 -0.04558542 -0.031232482 -0.0040020966 -4.938442e-07 -0.0019513443 -0.018707942 -0.018200962 0.0072259316 -0.027361466 0.00093142764 -0.0018893097 -0.06145272 -0.045638748 0.001894087 -0.012828913 -0.049194053 0.0018107373 -0.048909854 0.024126364 -0.036512997 -0.03812972 -0.016168475 0.016408516 -0.0070026005 0.012190069 -0.0051438254 0.022480974 0.033227243 0.07265218 -0.01869364 -0.0012430128 0.03782716 0.0014661717 -0.00012737405 0.02738091 0.05751837 -0.05650163 -0.026225684 0.0190052 0.0044993665 -0.012288861 0.019627921 0.0021691916 0.0018788398 0.03296784 -0.045887638 0.024949206 0.009806963 -0.019166423 -0.0051039937 0.0018455128 -0.006057099 0.0339894 0.0038620133 0.018466214 -0.009396496 0.045617893 -0.009368967 0.0072794626 0.03228672 -0.002390504 0.015952483 -0.026901288 0.039363682 0.038592167 -0.07386737 0.013881809 -0.028654294 0.00648928 0.032862384 0.014790108 -0.01401589 -0.047903888 0.007859499 0.0058302376 0.010813972 -0.01518436 0.05566387 -0.034468547 0.030116312 0.0004579451 0.027293999 -0.01723686 -0.018566808 -0.019632263 -0.007609247 0.020996539 -0.017653683 -0.0037842726 -0.013491659 0.045888525 -0.001826842 0.014150825 0.00829405 0.013047193 0.010605152 -0.029584773 0.004794669 -0.025657184 0.016414376 -0.04945519 0.005357352 -0.022140874 -0.020336093 0.0059312326 0.010612684 0.037566844 -0.004028125 0.038784683 0.014517148 0.052743774 0.045437172 0.0246989 -0.014104767 -0.037146963 0.009930041 0.03658931 0.0195116 0.0065083257 -0.038859457 -0.025102975 0.012841017 -0.049364347 -0.05215274 0.016410286 0.044400197 -0.03219342 -0.01271008 -0.018714845 0.0130455 0.008028353 0.015058163 0.023494162 0.0085555725 0.016603598 -0.029360266 -0.022561302 0.014337629 -0.045149323 0.019824905 0.030571233 0.016513595 -0.0075195194 0.028842835 0.005785391 0.0020505073 0.036319006 0.00025295877 -0.00055741856 -0.066141374 0.038494106 0.037563283 -0.0032839195 0.013466384 0.034676936 0.0074578053 0.035258994 -0.0040009837 0.04028295 -0.007907578 0.030805202 0.014329218 -0.019912988 -0.02599177 -0.056093443 -0.0020588965 -0.03614401 -0.05263997 0.03223599 -0.08228702 0.0083033545 -0.054213725 -0.016451886 0.049643937 0.013697631 0.020616738 0.033148464 0.059596933 0.034362722 0.009974743 0.032374367 0.010206419 -0.009744569 0.017754316 0.017460592 0.043889366 -0.008776564 -0.041108593 0.022010181 0.0066566956 -0.01118681 -0.002510398 0.034656018 -0.020866593 0.037395205 -0.058995027 0.009682443 -0.024985716 0.024591733 -0.032735135 -0.02885513 -0.0158737 0.004996456 0.024008645 -0.06285485 0.010412734 -0.068333335 0.006046224 0.0066906577 0.06259862 -0.0034260799 0.013668173 0.04922868 0.012611319 0.020119568 -0.016795535 -0.03309284 0.020023087 -0.026733771 0.006804387 0.016583903 0.040305413 0.039926447 0.00023770919 0.037700024 -1.992142e-05 -0.011738942 0.013683243 0.0007339508 0.020946508 -0.0050825626 0.082330875 -0.029498527 0.021567674 -0.058045253 -0.021114632 0.014918221 -0.0029168162 0.025969828 -0.013899044 -0.027957577 -0.013779067 0.051011816 0.0115107605 -0.048482392 0.0011913312 0.008612086 -0.024943281 0.007159954 0.011798181 -0.018140063 0.030144867 0.013979618 0.058673013 -0.043294936 0.008237333 0.02821773 -0.0056631295 0.024486782 0.07060444 -0.0067314827 -0.01911293 -0.036461156 -0.024639575 -0.0075657647 -0.021560123 -0.016032523 -0.045234904 0.004005904 0.09021122 -0.04054753 0.017574342 -0.053665016 -0.020681819 0.099733084 -0.026464436 -0.00021812343 0.09543213 -0.004413202 -0.003304116 -0.010855076 -0.007891366 0.038678147 -0.022575144 0.018728279 -0.01279592 0.05214057 0.08656486 0.07901756 -0.030829944 0.010448101 -0.0073584327 -0.03425205 -0.009482579 0.004560532 -0.012147665 0.013059657 -0.016305758 -0.08519532 -0.014749846 -0.031856596 0.013562137 0.033901036 -0.05352268 -0.023706123 -0.018447248 0.01020717 0.020016275 0.012213723 0.031167727 0.0062146313 0.012086798 -0.044175282 -0.03585525 -0.0041332142 0.03451514 -0.017498516 0.029782329 0.001844712 0.030650089 -0.016792625 0.003775078 -0.054676965 0.0052471776 0.002320628 -0.015495158 -0.0098823 -0.005735515 -0.0022647441 -0.0098776175
3_6_14_18 0.0053405724 0.0033552027 0.016410774 -0.0068927915 0.012054727 -0.023893895 -0.006317237 0.037780695 0.0028368935 0.0016913265 -0.047549773 0.016597223 -0.10282444 -0.029961757 0.021618659 0.052171223 -0.1269151 0.018089263 -0.048244398 -0.02713214 0.009448506 -0.013315175 0.0004021079 -0.032355 0.014061862 0.0075784405 -0.01101304 -0.00986176 -0.011817879 0.011225872 -0.021486714 -0.039592467 -0.008002667 0.0070338207 0.05214323 -0.008520031 0.009277662 0.0010041246 0.026748894 -0.028730683 -0.027420336 0.016317137 0.030322475 0.017508 0.05008277 -0.005590678 -0.023092538 -0.017407766 -0.038640793 0.040484976 -0.025179181 -0.012609632 -0.006819457 -0.029622382 -0.05279799 0.009768474 0.034928072 -0.018901367 0.005726209 0.032247547 -0.006741283 0.05649346 -0.0023545115 -0.03199516 0.0109136505 0.01959904 -0.012580519 0.0034547544 -0.014772549 0.018510928 0.057689466 -0.005474814 -0.008835147 0.044011667 -0.014419473 0.034413148 0.054660864 -0.04039654 0.0059628338 -0.022009727 0.03273104 0.004407505 -0.017095279 0.063406765 0.005737838 -0.01776962 -0.00501192 0.006544467 -0.04435661 -0.027894882 -0.045588467 0.024583472 -0.0178342 -0.053375833 -0.021298602 -0.024054492 0.005595721 -0.06408701 -0.004479942 0.036892943 0.043914363 0.040114384 -0.00042030818 0.010814854 0.052797005 -0.011256773 0.050710704 -0.016325062 0.0008311612 0.0016747678 -0.06658554 0.035120398 0.02708791 -0.00512896 -0.015921008 -0.012229586 0.009438529 0.034756675 -0.013376073 0.008695028 -0.02990141 0.0088786455 0.07353513 0.012029867 -0.015725814 0.019509513 0.034416616 0.040031955 -0.034408413 0.020435717 0.01869771 -0.062427834 -0.007781564 -0.0060832887 0.04959066 -0.010500711 -0.070725836 -0.011258745 0.039621044 -0.020667665 -0.023256091 0.030825315 -0.02526636 0.0008044587 0.034051735 -0.04883502 0.0016008212 0.014655732 0.04068207 -0.040090606 -0.013718429 -0.03668847 -0.01817991 -0.02949904 0.02575722 -0.028023519 0.022747487 -0.065115936 0.009348676 0.021151546 0.011992283 -0.0029746257 -0.008508332 -0.010733554 0.035505928 -0.0085721435 0.0037880868 -0.042289067 -0.007356867 0.032261226 -0.017169239 -0.07507296 0.011349389 -0.01186304 0.02888932 0.038800243 0.033204656 0.05973902 -0.0023314774 -0.039589204 0.04650263 -0.0080514625 0.021945715 0.036042728 -0.046779774 0.010603771 0.011123056 0.051161982 0.007860758 0.08646115 0.025007717 0.001130607 -0.007818662 -0.05918319 -0.01782391 -0.005121253 0.030624663 -0.058691684 0.0069786496 -0.05585416 -0.031998176 -0.05114034 -0.029203568 0.006609932 0.019566007 0.018096179 -0.017947178 -0.012306951 0.01842078 0.021382576 -0.0005789999 0.024926297 0.00939301 -0.021185484 -0.036485408 0.0045589795 0.022565333 -0.007247549 0.016267423 -0.017369406 0.048244774 0.05473406 -0.009208981 0.05208144 -0.0133554805 -0.013469032 0.018989712 0.06868061 0.0046294588 0.008422335 -0.042522803 0.006023308 -0.031189315 -0.013642483 -0.007635485 -0.043536425 -0.0035090125 0.034303088 0.030403778 -0.014353168 0.057409547 -0.018953253 0.03176096 -0.05358957 -0.0130134355 0.00780927 0.015697831 -0.0016772456 0.032372978 -0.037928812 -0.005904897 0.024733113 -0.00402512 -0.0135373445 0.03664734 -0.032709014 -0.014556151 0.037410088 -0.006513074 -0.029751852 0.034655623 -0.023536094 0.00041726828 0.028218202 0.0108282855 0.0045726197 -0.036697548 -0.01924943 0.05343995 -0.038640633 0.004631258 -0.0065317447 -0.006297238 -0.01195622 0.021044413 0.00472148 0.02494317 -0.04402564 0.036338314 -0.0048290715 -0.014636239 -0.08202028 -0.03526407 0.00029589224 0.0025328668 -0.004472801 0.071690865 0.05624575 -0.00064802944 0.020759668 0.06258689 0.039430395 -0.02028995 0.014238522 0.029179264 -0.06516183 0.0045082974 -0.009885723 -0.021795055 0.016381256 0.048386704 0.005388521 -0.028920023 0.01810621 0.019981654 -0.03422457 -0.0028701136 0.04148271 0.009722991 -0.010142921 -0.051349156 -0.0007708618 -0.034206092 0.030149546 -0.03141928 0.04834532 0.017980943 0.009812477 -0.005025607 0.004648213 0.00063495483 -0.014111366 0.045815654 -0.050528027 0.0024135625 -0.055698983 -0.002560634 0.018348169 -0.046855778 -0.043853994 -0.04179193 0.031989027 0.013037379 0.0012939405 -0.027337128 -0.07484532 -0.009160312 -0.037293397 -0.02691364 -0.01909119 -0.006971696 -0.014951034 -0.028807443 0.008838744 -0.021544619 -0.008062163 -0.01926943 -0.00659613 -0.025880303 -0.016869264 -0.010354445 -0.012347053 -0.04815336 0.010071983 0.030865721 -0.0030267965 0.023625428 -0.06095072 0.030177567 0.054690275 -0.042966846 0.0335096 0.061321996 -0.0066773086 -0.032890365 -0.017137483 -0.05751146 -0.028026432 0.07294983 -0.029233007 -0.00042766164 0.00085982314 0.037422225 -0.040565778 0.048731364 0.010416452 -0.0031914478 -0.0082146255 0.021748405 -0.077281095 0.036447555 0.04528707 -0.07500038 0.00828894 0.004494043 0.0064386767 -0.025020638 0.017880665 0.0108324615 0.01656997 0.015274077 0.027098028 0.006475128 -0.021410638 -0.010714204 0.005144668 0.054886777 0.043296754 -0.03279931 0.05757702 -8.956874e-05 -0.028235925 0.015433162 -0.010117382 0.0011469881 -0.0337921 0.0895522 0.01636666 -0.0013467411 0.0037243 0.012710887 0.023493752 0.019466996 0.080168225 0.0013905759 -0.01078476 0.0028995944 -0.00020399633 0.0065269736 0.047359746 -0.012097149 0.008841722 -0.024660528 0.03747107 -0.0051969113 -0.0022875944 -0.022761513 0.0028285948 0.0041718427 0.054562055 -0.02110607 -0.0187021 -0.022269953 -0.057845976 -0.031513374 -0.017031943 -0.030762635 0.027873363 0.04910263 0.011158284 -0.022453846 -0.05925556 -0.05621024 -0.041545875 0.0716122 -0.029211631 -0.0017895405 -0.0013953252 0.017319819 0.0018363105 -0.039569356 0.006430665 -0.008836043 -0.0042577 0.0041589495 0.031633187 -0.023572769 -0.040923435 0.031386714 -0.011485743 0.023277132 -0.0057628374 -0.013389569 -0.059884302 -0.0204667 -0.024054272 0.024612598 -0.012514673 0.058011916 -0.0003303921 -0.0150530655 -0.009246825 0.031575065 -0.025463505 0.038204942 0.04907804 0.022099154 -0.009999819 -0.01997282 0.007691637 0.039931998 -0.051689323 -0.027399844 0.055572722 0.007529162 -0.009671891 0.009703279 0.03721321 0.019388715 -0.012696821 -0.0037524162 0.0064321035 -0.0024162899 0.0015534222 -0.011260162 -0.012675647 -0.022114668 0.025649587 -0.09057915 0.025638862 -0.07480691 -0.048120778 -0.04914169 0.008506578 0.020252109 -0.026610598 0.01616532 0.015499268 -0.030531887 -0.0020566038 0.016824039 -0.018432401 0.021582399 0.007831627 0.022652153 0.026636256 0.026739389 -0.003001025 0.030992785 -0.022300318 -0.03504052 -0.011783205 0.0037979623 -0.0008094022 -0.035119064 0.018738009 0.0031656453 0.008597307 -0.0025927299 0.029856162 -0.032166686 0.008430954 -0.020991467 -0.025648845 -0.058760915 -0.054910216 0.06679038 0.008995535 -0.00020071842 -0.0035082765 0.058510404 -0.043293033 0.020617725 0.018054232 -0.035497006 0.04287557 -0.04140479 0.027436284 0.027354497 -0.028071512 -0.035412014 -0.027520394 -0.032561634 0.03200364 0.00845609 0.0060634287 0.004052056 0.0022764262 -0.014337768 -0.019693628 -0.020127421 0.0013779458 0.02503965 -0.04402955 0.0054931324 0.019649066 -0.031075994 0.037774358 0.012858496 -0.03974662 -0.03546296 -0.0020768614 0.01287384 0.040617503 0.007134117 0.006780608 0.014670303 0.012429017 0.03512975 0.03661415 -0.038211077 0.015932765 -0.11092773 0.012078798 -0.0057834946 -0.02977889 -0.014684967 -0.005659063 -0.018246718 -0.045765754 -0.001071425 0.022510966 0.020114973 0.014816305 -0.032868166 -0.017810341 -0.000118583455 -0.019661788 0.0037131526 0.026621189 0.005420255 -0.019150196 0.014029776 0.010794795 0.04050891 -0.03915584 0.024178658 0.0025943096 -0.019459317 -0.0074718716 0.0009057644 -0.017782263 -0.0030067354 -0.018347256 0.010436915 0.046849053 0.022674073 -0.010988461 0.02839301 0.018531376 0.012081511 0.0049390765 0.0008600495 0.014496213 -0.028472764 0.009372113 0.06148438 -0.034896012 0.0010952086 -0.00484698 0.025799956 0.03907354 -0.027444363 0.00040016766 0.013944361 0.053082127 -0.053543653 -0.052694786 0.010616646 -0.01297382 0.016771967 -0.06318303 -0.0059060575 0.0015637086 -0.0026401407 -0.039152883 0.019360429 0.023688348 -0.041084144 0.03296694 0.026785558 -0.027345695 -0.034165636 -0.04668409 0.0730321 0.00027781297 0.003554834 -0.036537834 0.005897648 0.002940426 -0.012456001 0.015248125 0.038559064 -0.0025479335 -0.027100854 0.015637113 0.01682023 0.0072606155 0.02005347 -0.040005237 -0.030195598 -0.020044124 0.061848115 0.08061046 0.022646967 0.041221645 -0.02169016 -0.043371752 0.058810543 -0.009212879 0.059220664 0.03707041 -0.039921083 0.039762203 -0.04793172 0.013690524 0.015262851 0.027635312 -0.036579557 -0.019199684 -0.024094759 0.009531492 -0.01994056 -0.022036921 -0.015433848 0.020827524 -0.0077725067 -0.038570583 0.03810542 -0.032060347 0.0075202794 0.024399731 0.018021295 -0.024360018 -0.026032055 -0.0013189885 0.0038496314 0.03189732 0.0121286595 0.012538265 0.0071154353 -0.025025161 -0.025115585 0.021011088 0.015665371 -0.027746959 0.047344685 -0.022449495 0.008574375 -0.049029283 -0.0049429173 0.046729386 -0.014193988 -0.010471339 -0.0041487957 0.014676645 -0.008246207 0.02116525 -0.032416184 -0.0064141643 0.048768543 -0.024279287 0.0034447901 -0.025151957 0.04823161 0.0044360375 0.006387326 0.023758119 0.0053327093 0.062159482 0.019086698 -0.008415016 -0.018306714 -0.008648672 -0.017272217 0.02977791 0.00072421844 -0.021893542 0.066264875 -0.04151143 -0.006254793 0.002354855 -0.035563685 0.023468548 0.030182743 -0.009256968 0.04717296 -0.00798006 0.04844984 0.053826347 -0.035895523 -0.02012084 0.008350516 0.034369018 0.020002523 0.045227427 -0.030453663 0.021175228 -0.055860814 0.0012975828 0.03109627 0.019257495 -0.016175598 -0.028065912 0.007987834 0.0033281601 0.015712043 0.024880255 0.025544466 -0.00073059683 -0.023663485 -0.016196279 -0.04331534 -0.013634272 0.048540276 0.0019357541 0.0216592 -0.041757762 0.06393236 0.013908331 -0.0513699 -0.04358069 0.0021613496 -0.024440525 -0.054592814 0.020962652 0.02987863 -0.05610994 0.0043965424 0.0454305 0.025856461 0.047483675 0.018547323 0.068910755 0.017467985 -0.010726504 -0.023234425 0.013678042 0.01631723 -0.048163272 -0.021131642 0.057576224 0.052541226 -0.04012414 -0.04474066 -0.025761722 -0.007944347 0.006938676 -0.03757931 0.016665578 0.10151234 0.04184715 0.0014552969 -0.012698414 0.012155382 0.048943713 0.009199234 0.013557248 0.029075019 0.0077421013 0.0122037195 0.008165239 0.0054398966 -0.042399965 0.062088657 -0.0065020863 -0.016279133 0.038632147 0.01090122 0.006987452 0.048204303 0.0030809378 0.005025713 -0.0014969159 -0.052288964 -0.04633779 -0.011316361 0.018904574 -0.020162625 0.012554978 0.038140185 0.015899004 0.029009862 -5.2635784e-05 0.055155903 -0.002767403 0.008324241 -0.047019865 -0.0046274597 0.0034965056 0.044483457 -0.047430478 0.006453276 -0.036808796 -0.0020741785 0.0011536283 0.0011441596 -0.008569851 -0.07186882 0.044243492 -0.0013351737 -0.024310188 -0.021666795 -0.017380174 0.022905592 -0.055781994 -0.003112058 0.035507478 -0.012266547 -3.484507e-05 0.03890746 -0.05629504 -0.0031065177 -0.03182311 0.017843315 -0.021244103 0.012534609 0.002191992 -0.00063081627 0.036578614 -0.04706482 0.021353407 -0.025674662 0.030784236 0.018602233 -0.013566863 0.014237114 0.012166903 0.038024656 -0.020252107 -0.01661632 -0.016555987 -0.039590128 0.00817193 0.01362311 -0.03903262 0.006145809 0.11542328 0.034852915 0.023764605 -0.020911595 0.062481105 -0.015290896 0.043479368 0.021674532 -0.020361256 0.0059103076 0.063465476 -0.016047664 0.031103637 -0.0142632965 0.026238283 0.0314626 -0.018179366 0.041757673 -0.013110038 0.024580391 0.024622068 -0.021813955 0.02781484 -0.006345626 0.040200826 -0.018174484 0.003505601 0.038153376 -0.031583603 0.0011467561 0.0067970115 -0.0267703 0.0055827564 0.024275102 -0.013429879 0.0055086147 -0.044491712 -0.025293851 0.07314652 0.012781777 -0.037813723 -0.032817665 0.0070201545 0.030726664 0.011166194 0.036615707 0.02178743 0.05144666 0.0031794433 -0.038015317 0.034784503 -0.0046137776 -0.0052555506 0.046428017 0.01289266 0.017142022 -0.014835637 0.02854542 0.03066379 -0.04850759 0.035988227 -0.049905904 -0.037800856 -0.022118615 -0.012491756 0.004542103 -0.0034770938 0.00027804088 -0.0052521024 0.08432151 -0.05091318 0.015718888 -0.00980695 -0.062336385 0.0034455599 0.013968418 0.00026633227 -0.012942704 0.0012133797 0.052304436 -0.022172133 -0.041085273 -0.016248709 0.04728213 0.023649255 0.010494378 0.0034858969 0.024706447 0.03750945 -0.021638 0.0346365 0.082526796 0.021331849 -0.029744681 0.02777112 0.048200797 0.016479598 -0.010430374 -0.038272396 0.0059828674 0.011007767 -0.018806707 -0.014012717 0.035598993 -0.03529862 0.037897877 0.0070890356 0.033234052 0.0051670144 0.044296116 0.029518805 -0.042868752 -0.005944373 0.049677286 -0.02904063 -0.044819687 0.014537499
4_5_28_38_46 -0.024394939 0.013295882 -0.029752687 0.023407558 0.015285789 -0.003190507 -0.037420657 0.022137985 0.038545635 0.0063560293 -0.027360706 -0.031828485 0.06682277 -0.025839625 0.02652953 0.023944527 -0.024463017 9.966467e-05 0.055936784 -0.027308756 -0.03780109 0.035653096 -0.0015778247 0.051455665 0.013777235 -0.0017112183 -0.0057564583 -0.011857376 -0.07049399 0.019536 0.0044730217 -0.02823552 -0.014662607 0.00823596 -0.02924371 0.028060267 0.033353295 0.01569327 -0.04545234 0.0012766036 0.020960843 -0.016097896 0.05070096 -0.010425994 -0.013704533 -0.05715603 0.015492365 0.031612914 -0.017016863 -0.022476187 0.008318621 -0.049268134 -0.025999399 -0.028220538 -0.013093066 -0.027608115 0.012509257 -0.012089625 0.025423123 -0.022837043 -0.030109532 0.024229331 0.0034816386 -0.043524936 0.01821913 -0.05244364 -0.0046982816 -0.042593185 -0.009688271 0.018327972 0.022456871 -0.013371081 -0.028246976 0.035783466 0.0022945553 -0.082064666 -0.0016391567 -0.008993845 -0.02959187 -0.0008307373 1.7817549e-05 -0.03656237 -0.0065755052 -0.034234904 -0.064913675 -0.018820027 0.03200368 0.0099237915 -0.00793178 0.029752744 0.03334596 -0.003060604 -0.010578911 -0.017272472 -0.013485288 -0.012406922 0.06064176 -0.008660014 0.0033525936 -0.036035914 0.059563708 -0.019780684 -0.004436064 -0.012207306 -0.015789147 0.01584004 0.010035092 -0.03241843 -0.030336605 0.04515749 0.009016671 0.018105887 -0.019038344 -0.035991516 0.026890228 -0.05329358 -0.008076323 0.00874368 0.002213958 -0.003256949 -0.019466149 0.013385358 0.017023392 0.013648078 -0.013903523 -0.031424496 -0.0120559465 -0.00039450589 0.04720003 0.0068491013 -0.006517763 -0.033573426 0.0023740637 0.043940283 -0.029054645 -0.0088821165 0.009420181 -0.0065379376 0.051506635 -0.03816104 -0.009460421 0.006719769 0.0260181 0.03214092 0.07784085 0.020045307 -0.0053474447 0.0061374763 0.02832674 -0.046805818 -0.0030231427 -0.013430188 0.02223994 -0.0060403594 -0.0040814695 -0.0033486409 -0.0291097 -0.06359294 -0.0138977915 0.011009975 0.005016342 -0.009557533 -0.024746409 -0.0064753857 0.015322428 -0.0027660406 0.004032846 0.016705314 -0.031490635 0.01852729 -0.00989873 0.04031999 -0.016293064 0.023166966 0.031645983 -0.052857615 -0.012942944 0.0025746506 0.03611781 0.010211604 0.021557674 -0.0026435729 0.01833498 -0.03441469 0.006655473 0.02397169 -0.025482113 0.018432548 0.013319344 -0.056542892 0.033127263 -0.06882541 -0.010617936 0.09218778 0.035848483 0.0009993521 -0.0037678813 0.025237445 0.028518839 0.0089709135 0.017833132 0.0047667623 0.00036698458 -0.066183686 0.008618152 -0.023956893 0.0019321014 -0.052565336 -0.010557831 -0.040751647 0.036819033 -0.072436355 0.010383567 0.053341307 -0.013424766 -0.029777229 -0.052001074 0.011324848 -0.023910414 -0.0040005227 -0.012853369 -0.023940818 -0.044068173 1.0503658e-05 -0.027162801 0.0068920385 0.0052918307 -0.039092798 0.007164531 0.0155455815 -0.012399564 -0.022686342 0.012270346 -0.01737836 0.018849012 -0.023851773 -0.037408307 0.030349398 0.0040422482 0.05255166 0.0517663 -0.023811702 -0.0039344067 -0.00032147134 -0.008403906 0.03394794 -0.03888688 -0.052906286 -0.040047627 -0.004390101 -0.02197361 0.020795375 -0.022159252 -0.03866979 0.018004231 -0.035864376 0.0064520817 0.04199071 -0.06801407 0.047769748 -0.048238825 0.0033484045 -0.03765075 0.015586721 0.0094485525 -0.010030433 -0.013185949 0.056404263 0.025872385 -0.024151508 0.01699078 -0.010297861 -0.04271267 -0.0020023738 0.019774562 0.024689915 -0.02079278 -0.037519973 -0.019927457 -0.007941044 -0.025226386 0.004457177 0.0038362006 0.0088746445 -0.006402052 -0.040538143 0.033691056 0.0186309 0.00022489594 -0.07859614 -0.0028406626 -0.026138442 0.06656742 -0.035823103 0.059678707 0.033973627 -0.06297101 0.009930191 -0.028109945 0.009266563 -0.036454845 -0.010741062 -0.0601378 0.04507036 -0.049668808 0.0012713734 0.016882213 -0.017639149 -0.037176445 0.023601575 0.007552051 -0.0043386943 -0.016867306 0.048953127 0.010378906 0.047367975 -0.034935728 -0.019348029 -0.014098871 0.02903855 -0.081899025 0.024028627 -0.0023685233 -0.0034205304 0.015616595 0.011252791 -0.04492217 0.02322123 0.040614594 0.009940947 0.0038953293 0.009743244 -0.038267124 0.024511974 -0.01789686 -0.0035600513 0.022731176 -0.02642471 0.008168323 0.020645777 -0.0020896548 0.05794618 -0.038827665 0.038600188 0.024376571 -0.006301517 0.012872909 0.003495758 -0.041442018 -0.002138034 -0.0061357077 -0.0057989284 0.02691514 -0.030164015 -0.0017761715 0.016561164 0.020420939 0.009021997 0.0050838655 0.0063271206 -0.04138119 0.0009813603 -0.026049992 -0.0071113193 -0.0010676116 -0.013300604 -0.025029827 -0.056664705 -0.00056204427 -0.028927935 0.01407929 0.014263867 -0.08142618 -0.0149999885 -0.022729633 -0.021112362 -0.029839613 0.011629449 -0.0053356476 -0.005439156 -0.03398746 0.04552695 -0.025181714 -0.005190273 0.0023086774 -0.0061147125 -0.027459238 0.032196857 0.027385674 -0.027658863 0.023776978 -0.059673842 -0.022131277 0.037771292 0.04966446 -0.0054514855 -0.0054742703 -0.029533913 0.014619432 0.040161137 0.022999397 -0.042793285 -0.019511182 0.02898308 0.07817314 -0.062138967 0.025110887 -0.026418852 0.039172415 -0.03978426 0.068067215 -0.031253953 0.012363191 0.045676146 0.038859345 -0.04860605 -0.012364385 0.008378559 -0.08705397 -0.003656826 0.026377797 0.029268067 0.034507506 0.027018854 0.05133706 0.03934445 -0.045101736 0.022031784 0.030589733 -0.01770197 0.03714082 0.008130315 0.0063925204 -0.016130906 0.01555231 -0.004749623 -0.013309976 0.041517038 -0.012855072 0.019401854 0.010724485 -0.017356342 0.004941783 0.032038834 2.6369971e-05 -0.00015714215 -0.010072658 0.030769847 0.025769515 0.0016758286 0.059357498 0.0081165945 -0.024462208 0.0496152 0.015061782 -0.010203681 -0.019365802 -0.010642666 -0.0037526442 -0.022434868 0.031831034 -0.06235582 -0.03051991 -0.009234589 -0.06614943 -0.03307317 0.008529624 -0.013632122 0.0036151467 -0.02110036 -0.009952295 0.0059510875 -0.023349829 0.040650617 0.001584496 -0.042189736 -0.016749436 -0.017357612 0.012832557 -0.033409532 0.008693958 0.009279011 -0.07909715 -0.011545669 -0.043885957 0.0077407504 -0.025720062 -0.033713546 0.0127153825 -0.062722385 0.012544226 -0.028797429 0.03741809 -0.008774084 0.028772213 0.031119527 -0.0136485435 0.026686372 0.06315687 0.032922886 0.031543937 0.013893892 0.0111022955 -0.0129315145 0.019175809 -0.008730622 0.02227371 -0.023822648 0.00041305492 -0.051053476 -0.048404306 0.00982867 0.047911152 -0.0031523367 -0.0024297137 0.03623868 -0.00823098 0.043441165 0.009902953 0.0107547175 0.048072368 0.019913318 -0.0059901625 0.037208203 0.07857811 0.021354096 0.00020166989 0.0023985717 0.045727607 0.060911108 -0.030178456 -0.0060759415 0.023620535 0.010905307 -0.03640652 -0.0032308197 0.04761735 0.000128029 -0.021145675 -0.02844029 0.009893529 -0.017149838 -0.03140841 -0.035724822 0.027536169 0.002445784 -0.04531812 -0.025187604 0.015404009 0.0100741265 0.010146447 -0.018572383 0.0078069526 -0.00539601 -0.049738023 -0.0321505 -0.0009463596 -0.0065743714 0.042323936 -0.018667027 0.061739307 0.0114684 -0.022621315 0.10050268 -0.030199658 0.033505607 0.010356081 -0.032001477 0.008153375 -0.053243957 9.045681e-05 0.047412492 -0.01074375 0.0068019954 -0.007373406 -0.06466239 -0.035213735 0.005187824 -0.0075418227 0.040679816 -0.014547239 0.0056582117 -0.04079535 0.015825976 0.036285598 0.018818682 -0.02717887 0.029334811 -0.040475108 -0.015270508 0.010498383 -0.04961417 -0.050033636 -0.017008837 0.019289443 0.013156318 -0.043871306 0.00035785866 -0.02297122 -0.03331876 0.031833533 0.08180162 0.007609622 -0.044847853 -0.002183054 0.017132662 0.037690096 0.015466039 -0.040815447 -0.046228606 -0.036688924 0.004587243 -0.029794082 -0.10649857 0.018852845 -0.008944914 0.021003656 0.0313357 0.029289281 -0.022330359 -0.013677446 0.018244395 -0.011073939 0.046331137 0.0015547836 -0.038963873 -0.027469207 0.010688171 -0.031341627 -0.048030663 0.016706014 -0.05563347 0.023250293 0.0016642616 -0.006312371 0.008574436 0.0036957965 -0.017545467 0.00055901916 -0.013182423 0.04520488 0.0053615407 0.016435783 -0.021750938 0.042212382 0.010708611 -0.022538876 0.03175293 0.013652181 0.020958774 0.009724943 0.049153198 -0.00986805 -0.0020083846 -0.008850429 0.012344911 -0.012534746 0.022298004 0.01793876 0.047115717 0.0927286 0.024442486 -0.06601785 0.0104730185 -0.022920754 -0.020105546 0.050584957 0.003217996 -0.016716419 0.033771157 -0.0057405857 -0.048783038 -0.027391056 0.013139473 -0.01426615 0.06820298 -0.018760473 0.034050472 -0.008628002 -0.022473976 0.01919815 -0.030238172 0.019767877 -0.0057575363 0.04505054 -0.03812545 0.001981599 0.018077705 -0.015859025 0.00047293399 -0.022937562 -0.012649472 0.04002725 0.017307768 -0.03456406 0.021762751 0.0021163973 -0.025486438 0.057894565 0.026496291 -0.0037912307 -0.028719699 -0.052881293 0.015302981 -0.0014400331 -0.0013694474 -0.002651631 -0.018860513 0.036972914 0.0007465948 0.0086330585 -0.010141849 0.016255988 -0.042311236 0.01968114 0.065285675 0.059668787 -0.03088703 0.026175927 0.023223974 -0.011604657 0.009526841 0.01102244 0.045720626 0.0014506372 -0.003044502 0.022386992 0.010764642 -0.04745886 -0.023421764 -0.019703867 -0.034784466 -0.00032182925 0.004663836 -0.005876236 0.03280533 0.008074366 0.021236949 -0.07436553 -0.007456825 -0.017407265 -0.0028937524 0.016598776 -0.012362326 0.01528352 0.010733769 -0.039488647 -0.015277903 0.008812759 -0.03843982 0.03419224 -0.038760204 -0.0043851943 -0.05532033 -0.043067615 0.076044306 0.015862595 -0.032068674 0.014591669 0.0038344855 0.030454902 -0.028846981 -0.044209797 -0.042150516 -0.0122608645 -0.056713164 -0.07877695 -0.019014658 0.054640222 -0.032179825 0.010997988 0.002827402 0.0031367359 -0.02672636 0.0017759171 -0.028365728 0.019824427 0.041723862 0.022870842 0.018657533 -0.0030159303 -0.03461637 0.048197962 0.048973035 -0.029276233 -0.03415065 0.030780103 -0.023005258 0.025567977 -0.027099542 -0.052125435 -0.026184296 0.019495936 0.042593516 -0.018542761 -0.030133836 0.046476327 0.0026820044 0.06913247 0.010189621 0.030570162 0.026622914 0.03373608 -0.0040309248 -0.007666179 0.026105832 0.030453056 0.02436555 0.049738474 0.0010681511 -0.016601147 0.009352121 0.016159238 -0.009694206 0.0086422255 0.024037 0.072256275 0.0034971626 -0.06935986 -0.019725598 0.047200225 -0.0075169937 -0.035610158 -0.004832064 0.002086603 0.07443513 0.008416123 0.05750067 -0.042448338 0.041308913 -0.011994719 0.028001932 0.04929024 0.000870467 -0.00888487 0.030054487 0.003951203 -0.018556759 0.029110495 -0.01879102 0.0078600375 -0.016240014 -0.039118405 0.07910119 -0.023572192 -0.06588398 0.027511258 0.0102862995 -0.022935338 -0.04094104 -0.02570733 0.06798601 -0.037227225 0.050836343 0.0399433 0.030535962 0.011343981 -0.053066324 0.00014274564 -0.049575 0.0132782115 0.0014664643 -0.06351252 -0.017964333 0.020450037 0.0145649435 0.048919417 0.011053716 0.06573411 0.02432554 -0.026991608 -0.04717456 -0.030516414 0.034797605 -0.024923436 -0.021741726 -0.00763811 -0.029115742 -0.029349048 -0.040426448 -0.0014629012 0.020612197 0.022068204 -0.02968803 -0.035205673 0.0038335782 -0.058037255 -0.006956192 -0.008841093 -0.010985751 -0.03863185 -0.01857713 -0.0399708 -0.0053877756 0.023262415 0.033811342 -0.0035168133 -0.0022721654 0.031757515 0.009481174 -0.020363763 -0.043096215 0.029076567 0.02273131 -0.059540596 0.042851966 -0.010952354 0.0027419082 0.0040107532 -0.10733037 0.014842549 0.025310446 0.033683117 0.012246549 -0.0098675005 -0.057497643 -0.078992724 -0.006568616 -0.013278216 -0.064711384 0.009816588 0.0028142782 0.021558328 -0.024391102 0.011557806 0.03593036 -0.03915657 0.036721893 -0.017431008 0.007291672 -0.043808725 -0.00010747406 0.0153602995 0.00043857677 0.07694818 -0.0059053143 -0.026064228 -0.034373447 0.026646568 -0.0053623314 -0.001775406 0.03072823 -0.041282713 0.036727913 0.015452112 -0.0048739207 0.002784307 0.016069017 0.01158503 0.0024067673 0.07115255 -0.04035845 -0.020834025 -0.011211606 0.0042823004 0.026149308 -0.001970779 0.0042586774 0.011827295 0.021206167 0.028867371 -0.062224925 -0.013051839 -0.012430069 -0.009714308 0.020279797 -0.05633043 0.042691745 0.032050986 -0.039266787 0.02645766 -0.012330743 -0.01880732 -0.054379016 0.022533288 -0.009904258 -0.029098626 -0.056594275 -0.036795225 -0.02177287 -0.03740964 -0.024041332 0.027626885 0.0069221733 0.01546006 0.031035766 -0.00231987 -0.051361248 0.038467173 0.016250808 -0.06615772 0.00027946063 -0.014407683 -0.053769723 -0.06481813 -0.011424403 -0.02360428 0.0060933423 -0.046322018 -0.021590147 0.032421447 -0.031323403 -0.05668603 -0.014263292 -0.029540846 0.047603473 -0.021719215 0.036184393 0.04876135 0.06458815 0.004413681 0.0067933076 0.006854183 -0.014125625 -0.022911074 -0.0065496755 -0.016289096 0.018670313 0.011833134 0.017744455 -0.026947886 0.014570752 -0.029190969 -0.012937866
8_44 0.0015940366 0.040905714 -0.035853114 0.01127796 0.03421199 -0.03031158 -0.015441084 0.018744407 0.044111717 -0.07086931 0.008053523 0.0061291363 0.029829154 0.058480084 -0.013144435 -0.017726647 0.008021535 0.025604706 0.030326594 0.0069635697 -0.002399626 6.755229e-05 -0.0148031525 0.039539523 -0.012369597 0.055076245 0.006452472 0.0008537421 0.016276903 0.021106362 0.017963376 0.014085312 0.01834054 -0.039837293 -0.0074131414 0.021641012 0.013602574 -0.031311926 -0.021763572 -0.031503722 -0.041578025 0.012168177 -0.0037297572 -0.016461978 0.0058552213 0.012141169 -0.034541022 -0.00037327583 0.042114176 0.008698063 0.030408073 0.043739747 0.028262781 -0.03133032 -0.046201397 0.027720228 -0.029335182 -0.067638054 0.032822262 0.025333649 -0.015029837 0.027164305 -0.03120705 -0.0067866137 0.008053895 -0.0030430183 0.009257369 -0.03807573 0.050270893 0.0053151543 -0.017497549 -0.0033367737 -0.003867743 0.022735765 0.021498844 -0.029429214 -0.07257736 0.01873662 -0.06292595 -0.034626126 -0.07896712 0.01001275 -0.0021437025 0.015724782 0.030812139 0.005574025 -0.017687436 0.031243166 0.04885619 0.029795567 0.007700179 0.07681036 0.0077315187 0.025815325 -0.042273656 -0.070959345 0.058057588 -0.007554445 -0.013943827 -0.03756797 0.050287597 0.011981673 -0.021249643 -0.035943422 -0.040212635 -0.0072978004 0.00048024041 0.0140612535 -0.04389225 -0.0022125035 0.019274848 0.023515213 0.026152663 -0.074641675 -0.006499135 0.047514968 -0.026620468 -0.02576193 0.009393426 -0.013393991 -0.02011398 0.05115655 -0.030180663 -0.00502858 -0.009531254 0.04232541 -0.05490764 0.022367349 -0.010750289 0.039957777 -0.0175068 0.0859764 -0.017306084 -0.045028422 -0.0016595089 -0.00642115 -0.0006031345 0.026350396 -0.012579139 0.031071525 0.013862463 -0.05999037 0.015881239 0.010721714 -0.026821055 -0.022324525 -0.047215868 0.01261971 0.007929963 0.010883209 0.0006389775 0.03125855 -0.059802648 0.022340925 0.01006853 -0.012356417 -0.008352881 0.0073240437 0.023584573 0.06520068 -0.014615298 0.027886497 0.020011682 0.025572648 0.0072411373 -0.0115386145 0.05588524 0.02481121 -0.045894288 0.052628968 0.012463838 -0.040590025 0.014880958 0.041173797 -0.041006032 -0.0246779 -0.004470981 0.0145624075 0.0006515035 0.027204 -0.022302419 0.04568697 -0.029553996 -0.06149437 0.055915233 -0.01815688 0.017497126 0.00073449983 -0.07463094 8.199817e-05 -0.046202585 -0.015669886 0.028504195 0.019135127 0.0077935043 0.085557096 0.013713004 -0.022212211 -0.005830895 0.011802614 0.006553886 -0.027859937 -0.020829096 -0.02983458 0.007587768 -0.014329633 0.00091376435 -0.019987468 -0.004404219 0.015269321 -0.01689381 -0.048797596 -0.008800426 0.020017724 -0.041295495 -0.053068284 -0.01487118 0.010186449 0.02451806 -0.03137373 -0.0550485 -0.007618028 0.02534449 -0.00958842 -0.014061066 -0.05628138 -0.0071960334 0.039650593 0.0029384005 -0.04011054 0.028512808 0.04138205 0.02832587 0.004009526 -0.0014487444 -0.037779562 0.014606098 0.002858143 0.03989269 -0.044324465 -0.01209376 -0.03517585 -0.03541463 -0.029260192 0.05509821 0.01468511 0.020746326 -0.02425215 -0.00060108874 -0.021931732 -0.013196283 -0.0033010386 0.049037907 0.0007245528 -0.041879036 -0.034185983 -0.012862668 0.013752607 0.041800786 0.026404813 -0.026286393 -0.014719009 -0.037151784 0.017105188 -0.04755156 0.02065516 0.015476334 0.010182684 0.0037396487 0.026094781 0.008378371 -0.0035592373 0.041633386 -0.020968582 0.019013401 -0.0144066 0.010849174 -0.008562598 0.026875496 -0.00031519818 -0.043653693 0.011231013 0.019408748 0.020561721 -0.019223988 0.009935333 0.034742434 0.013994166 -0.06306678 -0.011457351 -0.029420298 -0.050518688 0.029009154 -0.024341837 -0.027673723 -0.015481531 0.020860901 -0.0012063859 -0.011699411 -0.04649043 -0.025772039 0.014183076 0.05599318 -0.030488614 -0.001483292 -0.024654215 0.038226135 -0.009418509 0.018280227 0.034755766 0.0396723 -0.01829577 0.0024616641 -0.015372403 0.020219749 -0.018706221 -0.039768554 0.039317638 0.017566858 -0.009657785 0.0017567067 0.06273178 0.009130924 -0.0462777 0.022715269 -0.028268952 0.030458873 0.008281526 0.010225913 -0.0013478828 0.021386832 0.00158153 0.07215085 0.013459585 0.051425267 -0.026153143 0.008816016 0.005914763 -0.035106514 0.001360447 0.052078575 -0.013759068 0.004069191 -0.025738027 -0.013833574 -0.0011353912 0.0330608 0.02117857 -0.03303063 -0.049371503 -0.0031668283 -0.027161788 0.0067428774 0.015805244 0.012880579 -0.015836114 -0.053305037 0.009256039 0.0076148077 -0.0827855 0.057157107 -0.04219724 0.013532394 -0.0057334914 -0.0022333115 -0.0046036323 -0.048797995 0.038119197 -0.016962996 -0.016389377 0.0027437042 0.026807748 0.011544347 0.02540507 0.004793039 0.015761342 -0.034905944 0.0047760103 -0.034957975 0.0106115015 0.04524243 -0.036136046 0.01816175 0.0048811235 0.0076202555 0.0076607256 -0.02102863 0.04213246 0.010094575 -0.045043025 -0.06451108 0.025074752 0.03235822 -0.0154006975 0.01324281 -0.03028303 0.0030972369 0.04214008 0.016138423 0.036557626 0.029329069 0.094631106 0.0012382731 -0.020858062 0.03181631 -0.021015955 -0.06469222 -0.024792863 -0.047346883 0.03221341 -0.037010536 0.014210604 0.005917083 0.008731659 -0.00040689175 0.041586865 -0.019261863 0.01253114 0.024026977 8.443607e-05 -0.014611775 0.026372567 -0.020856578 -0.055614643 -0.019339845 -0.049073428 0.02064855 -0.049129125 0.07085487 -0.0071700485 -0.028205259 -0.043933395 -0.014507292 -0.019813502 0.0042360686 -0.033156343 -0.0104289595 0.07459519 -0.022301136 0.009386728 -0.03862335 0.00033067862 0.013405218 0.040600404 -0.031507924 0.0054706708 -0.09705198 0.029395195 0.054449286 0.016040035 0.014371925 -0.031927146 0.005478805 -0.03336623 0.007858632 0.0034810195 -0.034720603 0.0532466 0.008193474 -0.011518166 0.05717719 -0.022840135 0.0024608746 0.030112538 0.0022139135 -0.0038066877 0.055292178 0.043082066 -0.004053733 -0.019000567 0.0133130355 -0.013688601 -0.020673592 0.008300989 -0.04646302 -0.046763603 -0.025799802 0.0020978707 -0.005342641 0.04785366 -0.0073595005 0.03887203 -0.023247771 0.006092085 -0.07197428 -0.017101405 -0.032495834 0.016365757 -0.04019877 0.02462818 -0.0040131398 0.040939555 -0.0049847746 -0.024107343 0.021843528 -0.041507274 -0.009459523 -0.007885486 -0.024979718 -0.030837677 0.027021155 0.010913636 8.3656196e-05 0.013628415 0.042871986 -0.020836283 -0.03473352 -0.013594804 -0.037683938 0.042900734 0.02863303 0.052288156 0.0940283 -0.010077819 -0.0050583915 -0.033694398 -0.056896195 -0.054157753 -0.01334913 -0.031863507 -0.021127023 -0.04184748 0.0038142775 -0.042807233 0.041490193 -0.0047241296 0.0064446954 -0.014173418 0.0034483755 -0.046519656 -0.030536424 -0.0011429144 0.082531385 -0.011668498 0.0075465734 0.0037299236 -0.009472908 0.012712288 0.049852517 0.044296637 -0.00973897 -0.018220183 0.02944191 0.005583427 -0.06315004 -0.025689721 0.04727672 0.022349263 0.0022456194 0.03020206 -0.04725218 0.042602155 0.035348065 0.047115088 0.026035385 0.08437159 -0.06401587 -0.017533323 -0.0056125293 -0.019900164 -0.018546583 0.031031081 0.04000666 -0.03288648 0.028509486 0.016840486 -0.016060652 0.00203094 0.022540012 -0.04329226 -0.038544018 0.048460145 0.036405616 -0.008869679 -0.025157427 0.0003461744 -0.01868931 -0.017458862 -0.011812888 -0.044846382 -0.01292231 -0.026946006 0.010720262 0.013320342 -0.006776694 -0.040621813 0.027332343 -0.0031844082 -0.008970225 -0.031089386 -0.015750414 -0.00016056918 -0.04273554 -0.012753083 -0.009761521 -0.022134857 0.022410896 0.031558536 0.055753924 -0.009829055 -0.029587347 -0.013075643 -0.030479902 -0.0059787966 0.0063077006 -0.0233869 0.041091174 0.049043857 0.006831724 -0.021708146 -0.01239779 0.0006211869 -0.009506008 -0.038225427 -0.050312363 0.058217928 0.023908917 -0.027592005 0.005983602 0.0170538 -0.006135188 -0.044687748 0.020074865 -0.033044744 0.01649333 0.059352532 0.014628679 0.04489325 0.012450522 0.04120776 0.0069050565 -0.016087634 -0.036852326 -0.01762419 0.011655884 -0.010572205 -0.03746109 0.041200534 0.023218807 -0.0052339607 0.06998983 -0.07306901 0.0070470893 0.03555821 0.038278937 -0.030295294 0.031103661 -0.004096443 -0.0077142115 0.0173784 0.0276002 0.009311922 0.023681406 0.019613383 -0.02340591 -0.0006241106 0.092078336 0.014662433 -0.012597626 -0.003487935 -0.06437762 0.052758023 -0.009846215 -0.02142585 0.01329332 0.05117028 0.03591085 -0.022040917 -0.0068273675 -0.025367849 0.013409735 -0.019683955 0.013092469 0.06827852 -0.015249027 -0.025779033 -0.015533236 0.029516604 0.01782136 -0.076107815 0.048830148 -0.014226884 0.023200596 0.06037976 0.048405226 0.024436839 0.005407761 0.044390637 -0.030423779 0.0140530355 -0.0033471668 0.00462632 0.01786702 -0.027805094 0.04645594 0.021545963 0.008454782 0.0071803653 0.04001949 0.02363472 -0.0026369616 -0.0037609024 -0.016821701 -0.03636813 -0.021739319 0.01945348 0.020943776 0.012001273 -0.03082641 0.020274485 0.032478794 0.0054226588 -0.0016398724 0.059665415 0.022678424 0.008993354 0.026798954 0.035239846 -0.004494321 -0.009251186 0.022001704 0.023524487 0.017055998 -0.035907652 -0.011581471 -0.05221286 -0.006748764 -0.006328279 0.03424719 0.028644552 -0.0254631 0.004175023 -0.013216075 0.0029409905 0.042504486 0.007763543 0.0056683053 -0.019649409 -0.021848056 0.022776702 -0.01452233 -0.06892032 -0.023878563 0.047891553 -0.0025459286 -0.023334535 -0.09250902 -0.025912127 -0.0022599762 -0.00832177 0.012837322 -0.016514342 0.0006591322 -0.06606674 0.011627616 0.012679264 0.07033725 0.0076710335 -0.020464804 -0.010735655 0.017635746 -0.016921347 0.04298245 0.02734501 0.019055538 0.009588177 0.009145836 0.019069836 -0.008417589 -0.013768341 -0.012284672 -0.08446139 -0.0054779123 -0.040060364 0.016986914 -0.042622477 0.0039129457 -0.006707427 0.021599082 0.050783437 0.016172072 -0.050473213 -0.01398262 0.02824017 0.027944697 0.026836293 0.013871204 0.02976676 0.021158539 0.016170647 0.022765383 0.055642806 0.005031618 -0.015530745 0.0011513451 0.008383161 0.023280812 -0.009507356 -0.0031943817 0.022914257 -0.039777312 0.021708988 0.027661657 -0.014334611 0.028286755 0.04722279 0.05678285 0.01905472 0.014452769 -0.0078613795 -0.007294031 -0.018851947 -0.010182539 -0.010661519 0.003516051 0.02391631 0.018564703 0.009024308 0.04504811 -0.016986087 -0.017521044 -0.019222725 -0.011519094 0.011202744 0.03866198 -0.021436479 -0.0016493455 0.015471056 0.034301925 -0.0154991355 -0.045465153 0.0428758 0.019220142 -0.04159021 -0.049033727 0.015185696 -0.05759068 -0.008504349 -0.040202864 0.024894875 -0.048142977 -0.000645672 0.008032828 0.020187221 0.042814527 -0.022539075 0.07654155 0.056596987 -0.009530075 0.0049405675 0.0034112956 -0.051870476 -0.04335833 -0.015741251 0.019636216 -0.010857725 0.060478427 0.05718434 0.018391 0.01868721 0.046699367 0.044176295 -0.01237612 -0.022720793 0.06662175 -0.034204517 0.005998954 0.00060985715 -0.04314816 0.018909037 0.03989336 0.0043487055 -0.010454267 -0.00877768 0.0040608477 -0.006983534 0.020494876 0.01180608 -0.020065455 0.0013686111 -0.006241562 -0.012421568 0.0074908203 0.04124269 0.056929223 0.01638961 -0.009605489 -0.011287745 0.03037863 -0.022478092 0.03374891 0.01481227 0.04564975 -0.0058863824 0.022607855 0.010885852 -0.025593674 0.010737072 -0.059827633 -0.042727094 0.022421002 -0.028177924 0.016294226 -0.033077806 -1.0892272e-07 0.018302968 -0.02291448 -0.011219792 0.041301794 0.02233731 -0.035323113 0.048027404 -0.024856264 -0.069315895 -0.006434088 -0.0042029624 0.016184255 -0.0039681387 0.03373064 -0.029040555 0.040029995 -0.04798603 0.010487982 -0.0003554363 -0.06719732 0.01966012 0.0054344703 0.017318252 0.01282257 -0.021633297 0.00049585075 0.025776867 -0.02337973 0.035909187 0.0060000727 -0.055819497 0.026885873 0.0051873773 0.044113472 -0.021139797 0.007168155 -0.03091153 -0.028745292 -0.063785546 0.009341773 -0.0018512495 -0.07295113 0.010351039 -0.030224271 -0.038714036 0.010337521 -0.026430767 -0.05488568 -0.013111904 -0.00013271377 0.013414461 0.0064092763 0.014161781 0.083355635 -0.030773966 0.016013786 0.0019145489 -0.022117168 0.005816525 -0.04755443 0.0069146156 -0.019213982 0.012887104 -0.084254414 0.043005105 0.0117601305 0.051344424 0.042886246 -0.034519885 0.045353524 0.052776612 0.007248648 0.04513658 -0.005669501 0.03752459 -0.0010583791 0.0021036856 -0.016574094 -0.018331125 0.05070286 -0.013333029 -0.0038192507 -0.015144238 0.013693814 -0.049305964 0.03443623 0.0072024325 -0.001970469 0.06037489 0.049186084 -0.004002383 0.016537312 -0.026238572 0.045686714 -0.009311435 -0.0025851042 0.038275097 0.02404599 0.020352587 0.014521792 0.010732543 0.034944 0.035034962 0.018584663 -0.0015511549 0.013079311 0.0144094415 -0.0703215 0.0045453217 -0.096786544 -0.013870015 -0.029510718 -0.022238271 -0.006898072 0.049372878 0.003430863 0.016217241 0.005660272 -0.030949978
9_45_55_59 -0.048596304 -0.013279083 -0.0036659844 -0.0020684022 0.026140617 0.00872518 0.011681962 0.0088199675 -0.046450548 0.010243661 0.01798614 -0.027230337 -0.0056310315 -0.036315545 -0.0004986245 0.076029286 -0.0032369597 -0.005774476 -0.029549163 0.0044669905 -0.012463338 0.047565166 -0.05374293 0.026672207 -0.00913047 0.026622558 0.01735481 -0.004610588 0.003062949 0.012790185 -0.042194847 -0.014137915 -0.011125475 -0.031863786 0.027703783 0.025264945 -0.064397864 0.0038835383 0.021786738 0.030606069 -0.005382292 0.013221598 0.027450783 -0.04528207 0.001743296 0.004194875 0.016270135 0.019988444 -0.012304682 -0.027620222 0.0025555992 -0.016076667 0.04068626 0.039663598 -0.06723999 0.0068990965 -0.0067551504 -0.008631485 0.01594648 -0.035691027 0.025950288 0.0049246266 -0.013880229 0.014255149 -0.035908554 -0.0304581 0.03404894 0.00839473 -0.0019471161 -0.033262286 -0.021146677 0.007927415 -0.046217524 0.023566572 -0.075071946 -0.018345086 0.020905793 -0.03318945 -0.03961173 0.054100826 0.029130798 0.0021952095 -0.03158701 0.022540629 -0.011090145 0.025960425 -0.048616085 -0.019502057 0.0037379693 -0.013946967 0.02337463 -0.010954867 0.014174222 0.041375607 0.048167974 -0.022202736 0.03788888 0.008527798 -0.035320453 0.051018775 0.025451673 0.018371547 0.008560289 -0.0009546133 -0.03997782 -0.07879576 -0.013305204 -0.02258431 0.019500345 -0.031658422 -0.04768614 0.023346767 0.0011796589 0.04219372 0.039813172 0.024310488 -0.016404375 -0.0017291821 -0.039450943 -0.0007537649 -0.053617403 -0.017919816 -0.009558861 0.000117715455 0.021450063 -0.00093322725 -0.0380721 -0.0046288962 0.0045088422 0.021595508 -0.05282823 0.0077097756 0.030555012 0.018375302 -0.031383447 -0.051490203 0.051346876 0.011134615 0.03728753 0.06278277 0.012202752 0.030772407 -0.004941766 0.000108463995 0.02316879 -0.006598401 0.024263566 0.0031330027 0.02716914 0.046721686 -0.015826108 0.012958805 -0.007959466 0.02274029 0.036270764 0.07014348 -0.0095801735 0.010780169 0.01082391 0.02836819 -0.0025142992 0.054146696 -0.04627319 -0.061404217 -0.023639569 -0.023450855 -0.044249665 -0.008381195 -0.035344545 -0.00039011214 0.067263015 -0.0019254987 -0.0027861104 -0.019348359 -0.049420755 -0.0026494577 -0.018472219 -0.053676054 0.013272314 0.03884804 0.0038647312 0.013736014 0.027024176 0.021127824 -0.033986516 0.013762085 0.0021834543 -0.017248947 0.010212728 -0.02331884 -0.043582458 -0.06002257 -0.015041449 0.03585591 -0.028923769 -0.021560023 -0.032473035 -0.022938153 0.028292935 -0.005286558 -0.012434624 -0.016680816 -0.028526377 0.0052997856 -0.014927815 0.017402988 0.05478324 -0.010582027 -0.011609734 0.018028207 -0.026209602 0.018915886 0.039240945 -0.038303524 0.018252568 0.036666226 -0.005674706 0.014043673 0.0024482533 -0.028901407 -0.01842099 0.07767611 0.03442823 -0.019087665 0.012930871 -0.036402524 0.031975675 0.023712814 0.02396458 0.004241704 0.027471611 0.03358679 0.04766617 -0.005565752 -0.0015191907 0.024068931 0.047513902 -0.03316003 0.0076767313 -0.023770465 -0.026044147 0.03837647 0.014910085 -0.037547443 0.0067659784 0.00043125745 0.0068013975 -0.004176062 0.005336 0.066461205 0.033543393 -0.035876997 0.003479726 -0.0192042 -0.0010351349 -0.0024995338 0.076756485 -0.02562015 -0.019817038 0.0006779263 -0.00046777457 -0.08731845 -0.0054329652 -0.017197547 -0.036569152 0.026432153 -0.0312955 -0.05889017 -0.021391474 -0.030149892 -0.00029756658 -0.019902024 0.01279424 0.09369778 0.017119704 0.013546216 -0.006272579 0.010704702 0.024935262 0.053076338 0.010554223 0.0016469627 -0.022435669 -0.03416191 -0.024603492 0.08075132 0.013774388 -0.023118604 -0.03188175 -0.061833195 -0.053204168 -0.039909355 0.00433653 -0.057801872 0.03198239 0.05468857 0.020887788 0.061780777 -0.013564706 -0.022345243 0.012536926 0.014187977 -0.03423987 0.036026884 0.05342603 -0.021032196 -0.04904459 0.010023708 0.044631153 0.050233353 0.018960072 0.00015066692 0.09364183 0.043265335 -0.04920461 0.009566027 0.014109027 -0.0056501194 -0.009954909 -0.017870741 0.028340101 -0.008851177 -0.04859299 -0.04013605 0.025131624 -0.0005446195 -0.04120579 -0.058257688 0.010973533 -0.03768106 0.07783848 0.012874786 -0.041632153 0.050890632 0.06126878 0.03329104 -0.0070437696 -0.025075536 -0.008501067 0.041359507 -0.027991563 -0.047425315 0.009838422 -0.0032824015 -0.015286915 -0.06073464 -0.0278271 0.039634597 -0.038659077 -0.03791936 -0.017654998 -0.01788535 -0.043413877 -0.03817855 0.008396454 -0.06771462 0.017539756 -0.013688229 0.013841344 -0.014634762 -0.07518235 0.015090956 -0.027503835 -0.022873864 0.01990975 -0.0239916 -0.000702271 0.024870647 -0.017352339 0.0039144126 -0.06641535 0.011415139 -0.032045133 0.014059767 0.036819573 0.0076006223 0.010153291 0.0046531805 0.0033130539 -0.0031297621 0.0002777852 -0.076004766 0.015368543 -0.012801803 0.04373961 0.051649783 0.0077503696 -0.011823809 -0.031104699 0.04592721 -0.014405286 -0.024083491 0.016309135 -0.009890998 -0.023723278 0.008270283 -0.006784661 0.0052000815 0.012037739 -0.019475428 -0.01833785 0.0033930237 -0.034560207 0.058108874 0.020918507 -0.012357636 -0.05589245 -0.019673932 -0.0011352326 -0.029534033 -0.014282961 0.023621408 -0.02160395 0.051010314 -0.012684342 0.025109023 0.0052821394 -0.041486464 -0.054917663 -0.042590562 -0.015578901 -0.0004704204 0.025223102 0.078789055 0.018700339 -0.035384253 0.0033204448 0.0075694625 0.005737302 -0.024910763 -0.016612645 -0.05403859 0.0046065142 0.04070365 -0.056255825 -0.007485183 -0.008857993 -0.009989809 -0.060909644 0.0005693882 -0.00048519133 0.0072671208 -0.009309973 0.007899441 0.005643926 0.008400555 -0.039858494 0.012368329 0.011016875 -0.052161764 -0.010458869 -0.03353824 -0.035613716 -0.012216512 0.033920866 0.010734742 0.00025059766 -0.053844456 -0.035497453 0.028888792 -0.010040145 -0.017074585 0.014294587 -0.007128719 0.003188285 0.0140209235 -0.025845993 -0.018157946 0.0018542163 -0.02945964 -0.006898662 0.013597061 0.007872952 -0.035810858 0.016689356 0.013245665 0.035301227 -0.0262504 0.010439211 0.05567896 0.02545677 -0.019012744 -0.019441623 -0.009102194 -0.022240043 0.07737495 0.037428305 0.020652158 0.020246353 -0.017096393 0.030835407 -0.0529587 0.06069938 -0.009111354 0.024185902 -0.011547987 0.0011157033 -0.012428854 0.006666506 0.019009624 -0.018681884 -0.034425717 -0.02194946 -0.02465261 0.036786225 -0.013940873 0.016111162 -0.03743205 -0.01652772 0.030808946 0.009938788 0.0016408827 -0.04556264 -0.015877903 -0.024976715 0.011699693 0.06751959 0.016006583 -0.031313833 -0.033037066 -0.010132487 -0.004589147 -0.016847368 -0.041223202 0.02132431 -0.003533931 0.02436358 0.0138966525 0.0087416535 -0.024626302 -0.034461062 -0.004302232 0.028812615 0.0023594503 -0.040064387 0.03438373 0.025745558 -0.013885768 -0.046297908 -0.022548102 0.005735046 -0.057057977 -0.019783331 -0.033707496 0.06993073 0.040565893 -0.071786486 -0.005906982 -0.042268805 0.00248517 0.054627977 -0.009532273 -0.022793844 0.050172135 0.045650985 0.0026947074 -0.0062496522 0.008896777 -0.034759216 0.026097227 0.05653418 0.03987767 0.016351024 0.01852251 -0.025999377 -0.022660758 -0.04593407 -0.015678393 0.038171984 0.029178709 0.027676383 -0.014662305 -0.05483094 -0.01927795 0.04241813 -0.030222459 -0.038766723 0.014184192 -0.020309987 0.017713785 0.035472278 0.002985236 -0.062732406 0.041805428 -0.018017925 -0.008119958 0.023616554 -0.00026384025 0.0062073497 -0.014925341 0.018080179 0.028073931 0.038170584 0.026220448 -0.03170898 0.09848846 -0.059121836 0.031007685 0.016734505 0.0472503 0.020695295 -0.059965417 -0.0010646507 0.024494689 -0.018652907 -0.011996154 -0.020720553 -0.0075756502 -0.003918102 -0.0075609037 -0.0040466837 0.018801078 -0.012403588 0.01828523 0.0004502433 -0.018678725 -0.045134425 0.00023446495 -0.01078495 -0.013088781 0.035802394 -0.06486438 -0.0045183063 -0.0040147617 0.044868726 -0.0013714547 0.016353838 0.05514572 0.0016015568 -0.027290538 0.020140298 0.006951362 -0.03481369 -0.016824294 0.04174421 0.05605418 -0.02839362 -0.0019351412 0.02723982 0.017200327 0.011082692 0.043074913 -0.05645962 0.031484503 0.06383364 0.028240526 0.031131856 -0.03058996 0.0021278476 0.000929904 -0.04865828 0.0039194496 0.06878702 0.011970436 0.025898622 0.008657118 0.023280187 0.021214781 0.052258894 0.01184913 -0.009099614 -0.04972915 -0.025169032 -0.034973074 -0.068474986 0.019766929 -0.0023418292 0.014823233 0.056897156 -0.02591374 -0.00095797237 0.0071086157 0.022248078 -0.048266526 0.028124277 -0.03880693 0.03572041 -0.06200206 -0.028746182 -0.0007116725 0.027057106 0.015987396 0.043223437 0.029503938 -0.014496483 -0.01423209 -0.03149515 0.03300478 0.02244502 0.04084948 0.00045270566 0.012818727 -0.004750781 -0.05341403 -0.0077094706 0.017427754 0.012173911 0.038759813 -0.0312526 0.014592473 -0.011056044 0.01539627 0.012417659 -0.06470295 0.0025162634 0.060572606 0.010208759 -0.052433055 0.05014471 0.0144339 -0.043548297 -0.033883713 0.033744648 0.010191669 0.03469859 -0.030146418 -0.031327862 -0.043438405 0.0076867705 -0.10645483 0.048152227 -0.03086451 -0.023963314 -0.0058958028 -0.011310712 -0.008584313 0.009259823 -0.013359314 -0.02836515 0.004911973 -0.025173796 -0.0014602516 -0.009785147 0.0066951825 0.021104295 -0.05510734 0.023341758 -0.019783404 -0.0017681335 0.022417456 0.008997448 0.013262861 0.005930382 -0.0072670327 -0.025863029 0.01677818 0.00061361556 -0.016992006 0.0020282636 0.015479583 -0.019673748 -0.02405136 0.008585532 0.032356165 0.016244782 -0.033301793 0.036937572 0.044675782 0.03994273 -0.0033953893 0.053243272 -0.034829713 0.0065884986 -0.045080993 -0.010445509 0.027621124 -0.018513061 -0.028913636 -0.018600406 -0.018752957 0.039962105 0.024793819 -0.00059454294 0.07412606 0.0015753655 -0.0039104284 -0.010194901 -0.006418659 -0.013748158 -0.0065370365 -0.0113855535 0.030012297 -0.027044395 0.0062618833 0.002793581 -0.029663468 -0.024000734 -0.051721837 -0.03814395 0.0038916226 0.025657862 -0.018188767 -0.032518063 -0.040958557 0.017810626 -0.03598238 0.018856063 0.018674381 0.006688661 0.025553918 0.0482782 0.0018029364 -0.0020777192 -0.021684818 -0.016298708 0.02153025 -0.014580127 0.0071101296 0.05575302 -0.0020528627 0.007888573 -0.051111013 0.013281285 0.0033587583 -0.0051882095 0.022927051 -0.0230307 0.032659598 0.007280208 0.031430174 -0.0031642616 0.03888288 0.046620425 0.042063173 -0.05295244 -0.043549065 -0.018789057 -0.04652803 0.0061287596 0.027623476 0.0042833267 0.01833741 -0.058059014 0.018132748 0.022274053 -0.019410145 0.021048494 -0.032370538 0.0034928455 0.028064866 -0.01887431 -0.054648325 0.021914572 -0.036349893 0.010333197 0.03429917 0.05801778 0.010583779 0.007761153 0.004899602 0.026570488 0.027043281 0.024791507 0.022932885 -0.028243294 0.0027636338 -0.007948558 0.018044721 -0.05639051 9.763082e-05 0.015928807 -0.04096311 -0.052988052 0.011309964 0.0011021757 -0.017650468 -0.0074674785 -0.0009422541 -0.025629466 0.04947206 0.022408796 -0.010515173 0.041956846 -0.0053082854 0.029819125 -0.017802583 -0.034320634 -0.0033846037 -0.009772143 -0.0056455615 0.040600777 0.005835172 0.015634676 -0.031370293 0.01995093 0.007985083 0.013043196 -0.03344368 0.049762223 -0.037605263 -0.03953666 0.0026558593 -0.050754584 -0.017066333 0.027851101 0.021685699 0.007209488 0.016352504 0.0031142072 -0.03706638 0.04437395 0.022125563 0.012836183 -0.028019408 -0.02126881 0.007460109 0.009899495 -0.021541113 0.015118882 -0.018080054 -0.011108129 -0.027658425 -0.029975472 -0.044630565 -0.017646307 -0.040627033 0.012158163 0.027844336 0.0071433755 -0.032501366 0.0014785246 -0.03351396 -0.005797226 0.033169135 0.083973445 0.05210296 0.03340232 0.000667939 -0.023790687 -0.018204696 -0.042992566 -0.03340007 -0.050710514 -0.04168982 -0.004563787 0.0031835216 0.050632805 -0.0052386504 0.038174406 0.004744472 0.053312656 0.02263158 -0.032080434 0.021085015 0.023217672 0.026983924 0.034689628 -0.017980328 -0.020319909 0.0052972995 -0.019159514 0.039183296 0.012474585 -0.0015064216 0.01979678 -0.025837505 0.023674244 -0.010832259 0.017981991 -0.007819009 0.013417862 -0.01252306 -0.07920819 -0.011586972 -0.0969289 -0.050532985 0.018887369 -0.02341023 -0.004713421 -0.00627695 -0.014590703 -0.0342249 -0.040012177 -0.013486754 0.0063621853 0.013059094 0.012456084 -0.060682617 0.023253022 0.0059251534 0.019730318 0.049333047 -0.025863374 -0.04231967 0.033679865 0.015928024 -0.0395043 0.0022388764 0.004360097 0.008488015 -0.014549056 -0.040384863 0.027866848 -0.020870814 0.0031502366 0.073746175 -0.03542878 -0.038079012 -0.06301961 -0.045144998 0.020686327 -0.035805017 6.605256e-05 -0.00593418 -0.046677746 -0.014460603 -0.07944077 -0.06988752 -0.027654001 -0.0150512215 0.081973776 -0.0208173 -0.047108863 0.0057359496 0.007080278 0.060777776 -0.056937937 -0.017875364 -0.034100085 0.009179988 0.0034523879 -0.057529908 0.050530516 -0.026899522
10_27 0.004138705 0.014007801 -0.023698715 0.0458065 -0.029498272 -0.019841371 -0.023714071 -0.0052590035 0.057186615 0.071790956 0.013130005 -0.0051263645 0.041825663 -0.018061956 -0.002588136 0.045997072 0.04882992 0.0012527407 -0.0071907453 -0.02979628 0.022415029 -0.049529005 -0.029932544 -0.028283797 0.04733631 -0.010774056 -0.028347583 0.032927506 0.04040031 0.023458453 -0.008158431 -0.016286861 0.022198193 0.030472545 -0.07242936 0.029037606 -0.018831648 0.02949116 0.039612453 -0.017801141 -0.003977289 0.055894583 0.022471942 -0.05098626 -0.030035676 -0.0058669276 0.008292437 -0.04283056 0.028723918 0.02598107 -0.014964195 -0.045443293 0.08571609 0.037250265 0.008554049 -0.011631152 0.02822181 -0.021447811 -0.008148802 -0.018252395 0.0009308335 0.04095421 -0.0040605054 0.040844295 0.038192157 -0.0004614718 -0.02727112 -0.023181958 0.04654539 0.030835863 0.02389167 0.023789559 0.00025542223 0.026198009 0.009626958 0.0054724864 0.019186221 -0.023854898 -0.055187978 -0.037794046 0.0032050847 0.010820751 -0.03955882 -0.024810735 -0.024534157 -0.020118702 0.009776568 -0.024201656 0.022273239 -0.023325115 0.040814456 0.03870957 -0.029068166 -0.028658489 -0.00077410444 0.048493274 0.00073090225 -0.0038863805 0.028099095 0.002027617 -0.007401439 -0.049327005 0.00813754 0.03657041 0.051055845 0.043232583 -0.020078745 -0.0024597535 -0.023233406 -0.04552342 0.002675314 0.0025791726 0.013892398 -0.0026793429 -0.028055888 0.013243551 0.04220416 -0.006341477 0.030172285 0.02071387 -0.02192893 0.03251843 0.009053127 -0.025476456 -0.015747331 0.031459156 0.002346755 0.020259146 0.03218898 -0.051896 -0.0017660239 0.011810436 -0.016176546 0.021315036 -0.0043743392 -0.009367184 0.0379291 0.016772201 -0.034720078 0.012805274 0.024004936 0.017931184 -0.0248788 9.896897e-05 0.02269956 0.012089691 0.009003536 -0.0031184098 0.009630081 0.042742714 -0.005610234 0.03767393 0.045419913 0.02657638 -0.021985155 -0.07989095 0.052859887 0.06323635 0.011504371 -0.037465554 -0.021682411 -0.036286682 0.011146628 -0.029671121 -0.029837592 0.041632127 0.0009782957 -0.01714382 0.041809313 -0.0049733846 0.015063127 -0.022733213 0.0019978674 0.031555776 -0.032875378 -0.049482077 0.042466834 -0.014993176 0.036042232 0.052037586 -0.00062698085 -0.040617805 0.06499847 -0.014317346 -0.03666464 -0.049135078 -0.023622602 -0.035653323 -0.016482722 -0.014097271 0.032445654 0.026319802 -0.002854014 0.037144296 0.014743909 -0.0210307 -0.0015294914 -0.0058444766 0.034043085 0.021220284 0.0131277535 0.0101752 0.063051485 -0.050950993 0.04137307 0.0069829444 0.03298211 0.054048534 0.022233259 -0.011948048 -0.019411253 -0.0038880515 -0.028103469 0.013042199 -0.025972517 0.013429615 -0.03130072 -0.0610781 -0.010164488 -0.0040170876 -0.043723032 -0.0522926 0.03709555 -0.018449904 0.011585398 -0.03558137 -0.020502493 -0.010087746 0.020854043 -0.0020892508 0.021236742 0.024982521 -0.020620694 0.0008551098 -0.00097585045 0.003018502 -0.005470278 -0.015585146 0.054408323 0.08658185 0.05788641 -0.0461115 0.002305902 0.012678358 -0.027498698 -0.020144079 -0.05355972 0.053708386 0.041815482 -0.02829305 -0.00422589 -0.0004385547 -0.031071266 -0.017086798 -0.01993023 0.038567778 -0.022409683 -0.030760359 0.015213448 -0.061786726 0.00665993 -0.009669947 0.012342987 -0.012521925 0.019853579 -0.009006604 -0.016275274 -0.03586605 -0.01743569 -0.047947485 0.026746804 0.0099851005 0.038145393 0.023271712 0.037930854 0.051617663 0.016233478 0.01941617 0.011021323 0.036487594 0.066827245 0.00092378154 0.017421376 -0.029622361 -0.0339068 0.019006398 0.0114358375 -0.009897222 -0.03990941 0.025640776 0.032791354 0.0062460587 0.012631358 0.05529023 -0.0065920497 -0.02815749 0.009404416 -0.0026626347 0.032024205 0.027600344 -0.03688199 -0.0025434494 -0.01164641 -0.00019516861 -0.013605445 -0.015908374 -0.05450968 0.058113918 -0.057805847 0.008702122 -0.039331395 -0.07389662 -0.049826156 0.03208682 0.028015727 0.09743389 0.020347852 -0.0054392745 0.05335124 0.03132041 -0.006846086 0.021025693 0.039494626 -0.021565154 0.0013916302 0.016214417 -0.026359499 -0.0207696 0.039237905 0.028166108 0.027501414 0.034306385 0.0054243286 0.0034998816 -0.00687412 -0.009895337 -0.030796206 -0.00916591 0.015876763 -0.003339102 0.019819932 0.018370572 -0.0071249823 0.06460617 0.037853003 0.03600651 0.007414131 0.0016841858 0.016130205 -0.019301644 -0.015577742 0.02431329 0.08961246 0.030350268 -0.048842587 -0.036344983 -0.03549378 -0.030729193 -0.02928439 0.036907736 0.0029325911 -0.010522169 0.002821016 0.010655124 0.01166811 0.037581403 0.07175912 0.025667707 0.0017294607 0.0045995116 -0.0034918897 -0.005886057 -0.0249434 -0.053475406 0.03863534 0.023309357 0.0064738356 -0.026807489 0.018249463 -0.0019022516 0.011872957 0.0061725182 -0.013039897 0.006023294 -0.011491048 0.05002634 0.023210933 -0.038977962 -0.05140429 0.11087071 -0.0043683536 -0.001647522 -0.02586794 0.0010288997 0.030113446 0.035001535 -0.031302895 -0.03505583 -0.07227259 -0.016340116 0.00012701482 -0.046121653 0.041806873 -0.02891625 -0.054123 0.06444917 -0.014280408 -0.007064682 0.010317707 -0.008819929 0.02039813 -0.013108405 0.02241439 -0.0013999514 -0.062344708 -0.00545621 0.008108838 2.9133551e-05 0.011997677 -0.0036190324 -0.013529457 -0.04590753 -0.025428845 -0.0018494629 -0.03739321 0.00023481091 0.020988291 -0.015906008 -0.01445184 0.07697311 -0.0032466603 0.07054074 0.03208833 0.034788135 0.033433307 -0.005286701 -0.0067396606 0.029861493 0.0036820397 -0.021750793 0.0015133013 -0.041190792 -0.0011061003 0.09208342 -0.006881675 0.0302262 -0.01100838 0.025182093 0.032215603 -0.035982855 -0.046173904 -0.011595106 -0.066085584 0.0051269163 0.0029829266 0.032521512 0.04738503 0.023061771 -0.017919999 -0.024387034 -0.051273704 -0.01357458 0.007876807 0.006333111 -0.03428079 0.0029223014 -0.007813413 -0.021523537 -0.006699509 -0.009383283 0.008391103 -0.056033127 0.0023349263 -0.04179776 0.06500168 -0.008589996 -0.07373481 0.055489894 0.005149695 0.017017007 -0.06874306 0.044246696 0.004996399 0.047393262 0.03695323 -0.008448021 -0.00872354 -0.03392034 -0.0023176484 0.032685623 0.025524471 -0.012413745 -0.034764133 0.0032677855 -0.046279557 -0.023539977 -0.021413233 0.0066398545 0.0035358223 0.020868955 -0.033950645 0.027964652 -0.0054951156 -0.007335365 -0.04769518 0.021886826 -0.011017768 -0.057210602 0.006137331 -0.031498645 -0.015868451 -0.013683432 0.036809433 0.035771746 0.049515925 -0.0011886092 -0.008113506 -0.026728101 -0.008352811 -0.008907213 -0.04742725 -0.0018255999 0.018483045 0.001694629 -0.01507746 -0.01266242 -0.053140976 0.04319904 -0.033754516 0.030453281 0.0028818995 -0.04683341 -0.08409526 -0.010831181 -0.037123498 -1.6271115e-05 0.02264012 0.003306966 0.021150999 -0.0035197556 0.039617617 -0.028877385 -0.000847959 0.010063262 -0.0069062673 -0.008898999 -0.051544607 -0.007104461 -0.0039206548 0.06857727 -0.008227317 -0.012974726 -0.019024624 0.013621848 -0.041469537 -0.089825004 0.004191019 -0.017224241 -0.009681958 -0.023760311 -0.018373279 0.025528109 -0.04131444 -0.03350113 0.017251784 -0.026548838 0.017194422 -0.037499856 0.0573135 -0.016421014 -0.045447685 0.013415052 -0.004749887 -0.020604327 0.029171992 0.007155669 0.023794264 -0.026064957 0.010667491 0.029949993 -0.027403247 0.010018731 -0.008969493 0.05627256 0.07886465 -0.048143785 0.037525795 0.0035553325 -0.02240855 -0.03162112 -0.013535012 0.022337668 -0.010381347 0.066296875 0.0011953056 0.0111503685 -0.04916569 0.022078207 -0.023683466 0.009277935 -0.0023424702 0.018402524 0.03151776 0.0008420857 0.022171985 0.010761173 0.007366093 -0.0037473228 -0.00391781 0.032026403 0.002119014 -0.01809558 0.001917178 0.0022790486 -0.024930092 -0.034436867 0.009267977 -0.012549465 0.03258192 0.026214048 0.0065173316 0.044777088 -0.06690691 -0.035083115 0.04781679 0.026668498 -0.00881015 0.07114432 0.009506228 0.016021289 -0.02744469 -0.029331738 0.037951592 -0.042462658 0.016168792 0.016432988 0.013766248 0.015668333 -0.024783889 -0.07561269 -0.00075733615 -0.05168212 -0.03516637 -0.011322977 0.00046732932 0.0075039244 0.027161483 0.017121537 -0.029188437 0.0048299385 0.015900029 -0.033340916 0.009964366 0.06463615 -0.014915053 0.036795616 -0.023752546 -0.044175237 -0.022202821 -0.0048805554 0.03534272 0.02450047 -0.07418391 -0.024447015 0.0037530893 0.011271602 0.02183186 -0.053736467 -0.009390791 -0.031497926 0.011021478 0.004719225 0.0049159373 -0.0029110564 0.015665038 -0.049603056 -0.0034900364 0.0032778995 0.03249693 0.009157342 0.024904657 0.020009737 0.030173356 -0.020428322 -0.024887089 0.028346265 -0.010782151 -0.019647628 -0.03035333 0.030131953 0.013799019 0.010738221 -0.056666326 0.023902364 0.0018974319 -0.00048734833 -0.032496855 -0.023198543 0.031378392 -0.023147332 0.08929216 -0.021281715 0.03907463 -0.062418047 0.007812831 0.017807888 -0.04351891 -0.034774065 -0.02724222 0.0064435243 -0.0100867925 -0.059541296 0.00425135 0.024669457 -0.04658914 -0.0053874766 0.028117148 0.03196679 0.00061419397 -0.045403354 -0.03546064 0.011579852 0.013785766 -0.00971003 -0.022063192 0.0093553355 0.0070124413 -0.021518597 -0.038977962 -0.010381074 -0.043822832 -0.013786205 -0.029714452 -0.013198116 -0.025753822 0.036378115 0.014147427 0.023971401 0.013608091 -0.012699395 -0.059291758 -0.0037875304 0.048511855 -0.017658902 0.007953214 -0.007940812 0.06148648 -0.034937896 -0.018745715 0.00632141 -0.020783719 -0.0050155683 -0.08290647 0.03205472 -0.0025960268 -0.033785783 -0.015131032 0.010915302 0.0035818415 -0.030771028 0.03076903 -0.043583754 0.053487472 -0.014627906 -0.027993489 -0.017541131 -0.029497523 0.0041882517 -0.037724372 0.009539399 -0.025989106 -0.028050354 0.016258888 0.028723449 0.04206968 0.017128738 -0.048415583 0.012843219 -0.048158217 -0.012686183 -0.0026214516 -0.02371189 0.0031997885 -0.0027758044 -0.055342186 0.019615863 -0.012366626 0.027697198 0.054013252 -0.027625758 0.05821649 0.019047558 -0.014836137 0.0063943923 0.027982784 0.053588644 0.026745854 -0.029926864 0.01953591 -0.0036161763 -0.025600998 -0.015211561 0.039308697 -0.04802643 -0.03466093 0.00526247 0.03243316 0.06351319 0.010924294 -0.09445364 0.03831906 -0.014300214 0.025545869 0.007983129 0.015872136 0.01789999 -0.037109736 0.07209371 0.048698884 -0.029812962 -0.020254053 0.04244223 -0.01744882 -0.060427684 -0.033495843 -0.03743973 -0.013968712 -0.058072265 -0.015239854 0.020049497 0.005330354 0.0019649363 -0.03812691 -0.017637152 -0.03160372 0.025396815 -0.039382346 -0.009027813 -0.018329311 0.018910397 0.008741238 0.04906915 0.0044790744 0.0015163725 -0.008519228 -0.011926035 0.059710626 -0.028226016 0.0293825 0.03248414 -0.0011310774 -0.029094538 0.021257987 0.03232988 0.007240186 -0.013954178 0.019886734 0.032732595 -0.027399432 0.010211464 0.024417024 0.01710251 -0.0065212874 -0.00784941 0.00019346188 0.0028977834 -0.013617877 0.013261441 -0.012738689 0.030513508 0.033742152 -0.05563436 0.013669969 0.021363072 -0.008407851 0.08733245 0.05593373 0.008906975 -0.00016851973 0.025159393 0.0073026353 0.0030941605 0.0149502605 4.9270395e-05 -0.008591198 0.04051456 -0.053656016 -0.01051242 0.022406433 0.02207951 -0.044064224 0.008140464 -0.039227095 -0.005153506 0.029349316 0.044211634 -0.04069869 -0.057044864 -0.01797509 -0.01056106 -0.006426289 0.0072028376 -0.00079986756 0.014362931 0.047759417 0.04197795 0.02581645 -0.012440913 0.0019878794 0.036350418 0.04560695 -0.02896793 -0.04312481 0.029898077 -0.03292673 0.03685381 0.024065303 0.008577689 -0.06978967 0.037488695 0.039422173 0.03799815 -0.0009995985 -0.02627866 -0.08755828 -0.004467997 0.015555983 0.0040502907 -0.056009848 0.005839227 -0.03696458 -0.04793761 -0.0049318234 -0.05248353 0.008490929 0.013793047 -0.002043933 -0.039443012 -0.019074587 -0.046454296 -0.055348862 -0.0010903444 0.014283626 0.017138638 -0.00681021 0.031064408 -0.0063223904 0.021359004 0.038134754 0.024254067 -0.004915851 -0.0045982343 0.01744728 -0.023523703 0.04387211 0.012365689 0.027073547 0.04100454 0.027085451 0.076888256 -0.0033953423 -0.010807628 0.0076287077 0.045290902 -0.04269142 0.04074507 -0.02179288 0.051989406 0.014930312 -0.025672382 -0.030734569 -0.019029768 0.04194972 -0.04783057 -0.025643716 0.052198924 -0.030383386 0.014231365 0.012644793 -0.028767383 0.05631885 -0.024403393 -0.015616175 0.058540836 -0.014725174 -0.0054229624 0.013171082 -0.0014125245 0.042047106 0.00088716164 -0.0064490926 0.018141752 0.029348109 0.04412845 0.009967606 -0.010932457 0.0053360937 0.013767729 -0.015595958 -0.017461127 -0.010020003 -0.015422043 0.0030500332 0.007987272 0.01779174 -0.013584398 -0.0066865403 -0.05492492 0.0075803977 0.008087326 0.025497494 -0.043949794 -0.049297597 0.017472854 0.04490841 0.022504803 -0.008637453 -0.050135262 0.015101265 -0.00031644967 -0.01769494 0.0042261966 -0.013233768 0.013002801
11 0.010233446 0.04295245 -0.024948098 -0.042124275 0.032877866 -1.829382e-05 -0.026265007 0.010373547 -0.00543229 -0.018661246 0.01607267 -0.044827435 -0.0016801225 0.028761137 0.018436272 -0.015445771 0.0054312395 0.057521947 -0.02723254 -0.0071375375 0.041836243 -0.0023797508 -0.014658768 0.00755259 0.03494937 -0.016493078 -0.02142298 0.037049133 -0.005027145 0.011290111 -0.025120307 0.005863464 -0.029658793 -0.069159694 0.03797445 0.05297909 -0.009861944 0.011718296 -0.043329757 0.033575 -0.002369523 -0.03310604 -0.033395264 -0.018193176 -0.009722266 -0.040496927 0.070122056 0.014311976 -0.022443296 -0.020895671 -0.03632341 0.029261786 -0.00900502 0.02623143 0.009556772 0.016805913 0.042516183 -0.011687871 0.047371242 -0.021083623 -0.0058942735 -0.009999989 -0.008474335 0.0036358426 -0.046477437 0.020841671 0.068941906 0.0023051873 0.031130629 -0.05448992 0.015690938 0.006272694 0.002317117 0.00404835 -0.0037534558 0.0048144055 -0.0075139226 0.0036717192 -0.00473403 0.022921119 -0.0136892265 0.007956502 0.0024066742 0.033896524 0.037067384 -0.047582507 -0.039031938 -0.025541997 -0.020923894 -0.028700998 -0.012716705 -0.000822942 0.030944249 0.021312634 0.006159335 0.040357463 -0.06329315 0.02722684 0.027055537 0.02016584 -0.002059355 -0.05980904 -0.006327462 0.0011897244 -0.03335821 0.015976809 -0.0074997745 0.04690694 0.052469157 0.018720701 -0.019843897 0.007106124 0.0222397 0.041302092 -0.010658428 -0.012850159 0.02284302 -0.010042002 0.024280947 0.007589614 -0.0024129148 -0.02765253 -0.064061865 -0.03520326 -0.027624615 0.044469245 0.014453689 0.02884019 -0.014196395 -0.022177493 0.046039935 -0.009407584 0.07281007 0.0011920143 0.038601324 0.08396534 0.047653764 0.0035054048 -0.007931545 0.055847473 -0.0205161 -0.005242703 -0.0023882426 -0.008187973 -0.004924278 -0.039811898 0.011926117 -0.033324804 -0.04350518 0.0031436142 -0.022414118 -0.04018441 0.0328484 0.016089672 0.022713838 -0.022794448 0.0014385042 0.031466283 0.001330359 0.05087696 0.013638112 -0.041730233 -0.020782167 0.021909818 -0.034721866 0.0075207427 0.00017688055 0.031037835 0.011774155 -0.0376885 -0.036060963 -0.008319624 -0.041380506 0.018256059 0.0042504803 0.050983418 -0.028279023 0.010410919 -0.037514396 -0.054460663 0.015932184 -0.0011343147 0.057893153 0.036087934 0.01628221 0.009508098 0.04509777 -0.016010357 -0.02950548 -0.0019045064 0.05080152 -0.005632983 -0.009783143 0.028537486 -0.044200048 -0.024670549 0.010316747 -0.0033316084 -0.034554888 -0.022922527 0.0052920487 -0.013889497 -0.019144546 -0.013683179 0.042706236 0.0031727066 0.014172026 -0.06033593 -0.018308869 -0.06567443 -0.003738392 -0.018917454 0.02094269 0.042410545 0.037815887 0.054930594 0.009081875 0.025447423 -0.06735203 -0.010994667 0.036990795 0.0038145403 0.032752573 -0.004027086 -0.0019103312 -0.0022089174 0.057061765 -0.01831642 0.026755584 0.026900347 0.048952427 -0.005711177 0.0071175923 0.030501526 0.00084439805 0.06681604 -0.050838534 4.4180742e-05 0.0145944925 -0.04090927 -0.011872379 -0.05731466 0.020849159 -0.014658516 0.04949529 0.0016034276 -0.026930535 -0.013114238 -0.015623408 -0.0077470248 -0.028045066 0.008947869 -0.04817669 0.029391674 -0.014766936 0.0509011 0.04061824 0.041080356 0.011154136 -8.7702174e-05 0.033980653 0.0061288904 -0.0011463166 0.01993967 -0.036146685 0.012244652 0.010850452 -0.013336865 0.0064981435 0.05658223 0.022648552 -0.017897962 -0.060425583 0.033223644 0.01123873 -0.039774146 -0.022444168 0.03728522 -0.008982128 0.0025518262 -0.0047385683 0.060342297 0.010677496 0.0048080767 -0.054673128 -0.0103875585 0.019482432 0.03399914 0.0045407503 0.022243382 0.007515949 0.049302116 0.0060913498 -0.0022031935 -0.010624789 0.03000512 -0.066265404 0.013122574 -0.028400531 0.0056710653 0.026567219 0.037619986 0.016361235 0.001980918 -0.016975924 -0.0040299445 0.043466788 0.04820948 0.012285529 0.029274315 0.005065049 -0.03963051 0.010600207 0.035041593 -0.011733059 0.0335342 -0.01200065 0.049620774 0.023003925 0.0024146314 -0.024127193 -0.030194003 -0.009573056 0.027159957 -0.03125626 0.008682405 0.008568048 0.018223846 -0.0024497772 0.042730182 0.040154506 -0.016202398 0.050549835 -0.01903369 -0.05881791 -0.026811356 -0.0006112491 0.023886198 -0.04412101 0.023520924 -0.012288358 0.00097145635 -0.022075431 -0.07433323 -0.016121814 -0.013483934 0.0057684337 0.042345047 0.062988214 0.031061022 -0.082093656 -0.0030115778 -0.032846812 -0.014764339 0.020892823 0.0034746088 -0.03931582 -0.0041070743 -0.03564253 0.0011740731 0.002399373 -0.015809933 0.05963149 0.032482445 0.033109218 0.029231701 0.023328021 -0.011210169 0.019411072 -0.04203005 -0.057470445 -0.02741702 -0.015915437 0.015644735 0.0032011317 0.022244643 0.0015051512 -0.009502933 -0.018286085 0.012301561 0.020839067 -0.011955103 0.017025052 -0.015753202 -0.03864167 0.05394868 0.008337718 0.042488143 -0.111998774 -0.05512861 -0.013099698 0.02896655 0.01772216 0.037211467 -0.007992768 0.02886654 0.023088831 -0.0025548264 -0.05832826 -0.026833087 -0.04760072 -0.027983222 -0.040715534 0.032385543 0.07260802 0.038549148 -0.06534682 -0.017453628 0.031526007 0.0022723067 -0.022779923 -0.01865731 0.0017068476 0.015770376 -0.017321734 -0.0012898754 0.0049541444 -0.03832246 -0.022266772 -0.033368938 -0.040729683 0.07764862 0.043564763 0.020520654 0.023275575 -0.06323881 -0.008736891 0.003627242 0.039591733 -0.07273486 0.0073864525 0.011182246 0.015516158 -0.0034989673 -0.035324436 0.0049085915 0.025248813 0.017160533 0.007111995 0.015584631 0.021266654 0.055305574 0.005576727 0.08342782 0.008578866 -0.04908334 0.0566722 -0.015264973 -0.0033840472 0.00040346323 -0.016775101 0.060619593 0.019941065 0.0071682357 0.03349499 -0.04410684 -0.022748657 0.0017816811 -0.03648243 -0.004335705 0.0156005295 -0.036728367 0.017156255 0.002757259 0.0018161086 -0.0057396903 0.023714775 0.008415673 0.0024391562 0.07182046 -0.04234296 -0.01783008 0.048268624 0.06877166 0.015955199 0.014470264 0.020156676 -0.061280385 0.025179492 -0.010719488 -0.027985033 0.00031633882 -0.0022279676 0.015868861 -0.0059316666 0.030709289 0.020698413 -0.02412705 -0.051648177 -0.049223892 0.02490744 -0.0038204116 -0.020493703 -0.0029656265 -0.020746777 0.046337433 -0.008595227 -0.036976837 0.0052373284 -0.0007428566 -0.035354055 0.010469926 0.031267885 -0.059377152 -0.038088292 0.006256827 0.025996218 0.014712408 -0.04884322 -0.06655893 -0.025251282 0.013155114 0.033950396 0.038030837 -0.003285411 -0.043015238 0.044062953 0.0015853676 0.042055123 -0.016016716 -0.045281246 -0.03576167 0.04348346 0.018905194 -0.0067670397 -0.046793383 -0.046448812 -0.061020385 -0.021177657 0.0409833 0.009595813 -0.04612809 -0.03658059 0.025405224 0.003416742 0.018538387 -0.011839669 -0.03054553 0.020421457 -0.010264761 -0.0013227713 -0.06593236 0.02122073 0.011488998 0.029607667 0.013108192 -0.03079315 0.050259985 -0.020812344 -0.011740338 0.02250312 0.01661864 0.030360576 -0.016055267 0.022922046 -0.008034305 -0.036826868 0.028221248 0.046027314 -0.0058180112 0.025808735 -0.04351381 0.021038344 -0.0322444 0.03184514 -0.008816276 0.027102413 -0.0556954 0.015112343 -0.043985408 -0.049789555 -0.0054790694 0.05331224 -0.046071187 0.009857747 -0.050800785 0.03842453 0.06687698 -0.00092499476 -0.06500577 -0.028841369 0.020411253 0.02757292 0.008815921 0.052358598 -0.0550508 0.032424815 -0.010852554 -0.08098781 0.01675628 0.022206139 -0.021804633 0.035974 0.015336995 0.02976546 -0.015373227 -0.021958081 -0.018153504 -0.0110319 -0.025661312 0.016225666 0.020757146 0.014263335 -0.017166581 0.01793251 -0.010597582 -0.023807172 -0.04095656 -0.019615702 -0.017632691 0.0025806522 -0.0018335854 0.0036320812 -0.008821093 0.013355055 -0.017988555 -0.012116089 -0.040568326 -0.008333118 -0.021083828 0.022672059 -0.019711453 0.022627633 0.04557302 -0.07160404 -0.029232068 0.010121051 -0.02080452 0.05736786 0.027177872 0.02526997 -0.013052569 0.008347285 0.014667435 -0.045297284 0.03512724 0.0011822797 -0.022966152 -0.0016160276 -0.0047440357 0.02750529 0.025764942 0.034566756 -0.021287045 -0.0008927389 -0.022218969 0.034797948 0.078445725 -0.012054061 0.048587922 0.008136754 -0.0060982197 0.013210585 0.014060838 0.01304898 0.02310018 0.034559105 -0.02635653 -0.016687302 -0.03378527 0.007496488 -0.029771343 -0.049103297 0.0026229618 0.0023190985 0.0035811535 -0.011356546 0.0014962084 0.016632294 0.0071697813 0.019165074 -0.008097102 -0.005310012 0.042448092 -0.031767525 0.05067827 -0.041299134 0.03188323 0.027018925 -0.006997879 -0.009207148 -0.007527533 0.027361734 0.05132535 -0.036373198 -0.022280311 -0.039808843 -0.0017198806 -0.041653764 0.028485464 -0.030249495 -0.0053744423 0.023856966 0.039359257 -0.0352495 -0.00028429303 0.042909276 -0.020272503 -0.022531886 0.00063134363 0.008503266 -0.029973034 -0.06614789 -0.007317754 -0.032018367 0.031991594 -0.013055457 0.010272214 -0.014302126 0.052872136 -0.0028593019 0.010764889 0.07314089 -0.010071411 -0.04090683 0.020986896 0.0064579733 -0.06834827 0.00810844 0.056310557 -0.06922617 0.013152688 -0.037668053 -0.015827378 0.0092086345 0.0013861615 0.028362604 -0.009034989 0.03445745 -0.014805638 -0.019102227 0.03488087 0.020066028 0.0029817556 -0.033559058 0.011860193 -0.059470996 0.020158965 0.021784233 -0.016275572 -0.027343692 0.017979937 -0.045125064 0.022255724 0.009727714 -0.020388493 -0.028783444 0.058453742 0.027363664 0.027578786 -0.010986528 0.0066166194 -0.012728433 -0.019197287 -0.06355408 -0.006855543 0.0148851 -0.04306212 -0.0016906165 0.06724087 0.019669104 0.011381968 0.0015813275 -0.012895063 -0.072520465 0.02263009 -0.0023838824 0.0110702505 -0.027903778 0.056397527 -0.007593892 -0.006274179 -0.0015103465 0.046259947 -0.022611696 -0.042030487 -0.014971887 0.056117106 0.009577593 0.034434754 -0.02480491 0.0033447822 0.05586649 -0.01241245 -0.106241405 0.043307245 -0.0048228945 0.004709323 -0.009330888 0.020797087 -0.0015040325 0.004360249 -0.022037815 0.00014504782 -0.07791115 0.031279474 0.022068506 -0.052130654 0.06214494 -0.010816314 0.038812187 -0.005263332 0.025256628 0.011511181 0.009249801 -0.044521544 -0.037458155 -0.02113204 0.047103915 0.039248277 0.02770655 0.020164099 0.012583912 0.015686037 -0.07157241 -0.030513627 0.0031645524 -0.049450748 -0.022248995 0.05041178 -0.014701591 -0.026741117 -0.0025412065 0.0066026025 0.07705506 -0.017253807 -0.017446326 -0.0821746 0.0074264193 -0.010276305 0.019074922 -0.007826023 -0.029562501 0.003266166 0.01991912 0.016107628 -0.0077098636 -0.009437134 -0.020798864 0.036604423 -0.0036602227 -0.022821583 0.06922312 -0.018120617 -0.039020665 -0.015336667 0.021088813 0.0044491314 -0.033978075 0.049241133 -0.043708317 -0.002546574 -0.015138052 -0.044808522 -0.0044025863 0.020035187 -0.039530706 -0.04110728 -0.016616717 0.01868118 -0.00049421284 -0.0076563456 0.01229272 0.0015064081 0.026007801 -0.03349875 0.005352097 0.039608844 0.010858953 -0.0015116544 -0.018709298 -0.0020750142 -0.051522106 0.023037083 0.017812403 -0.024592755 0.051041756 -0.023587976 0.06376889 -0.019151228 0.06862011 -0.028822176 -0.039061524 0.0122257825 0.08132435 -0.041492444 -0.0023438714 -0.01194045 0.00793288 0.027043724 0.0006828311 0.04728849 -0.011851038 -0.026391968 0.007851983 -0.07305482 0.04988437 -0.025927735 0.047853097 -0.016702456 0.0031466233 -0.0035871007 0.04572246 -0.007154868 -0.007807449 -0.066913046 0.020205526 -0.03930854 0.006884005 -0.020178456 0.05164031 0.016645793 0.020744074 0.07389186 0.0117620565 0.0044833636 -0.009071676 0.008836808 -0.0006576879 0.0007456591 0.03774324 -0.0056362418 0.007921318 -0.059574928 0.020673702 -0.055131014 -0.027669203 0.0050210916 -0.021706529 0.0201554 -0.010326129 -0.014502208 0.038992263 -0.04820945 -0.013213909 0.056900226 0.030713314 -0.04892731 -0.029898683 0.013348816 0.018334588 -0.015427245 0.027058698 -0.014558094 -0.05906407 1.9448342e-05 0.05869846 0.0021738235 0.007205999 -0.013352442 0.015883666 -5.5324377e-05 0.06011566 -0.020144172 0.011383812 -0.0024986565 0.008931078 -0.01837195 0.025830373 -0.04492513 0.02334911 -0.02722356 -0.027881403 -0.04323384 0.0041399733 -0.057295196 0.0036020766 -0.026924485 -0.022851141 0.023159048 0.032141738 0.005933758 0.023487328 0.04932801 -0.0029038535 -0.03356684 -0.018755382 0.007049808 -0.046443958 0.054285116 0.022611346 0.044174448 -0.008245387 -0.024906537 0.0022426115 0.013292824 0.020508442 -0.012234759 0.0018395403 -0.06060384 0.014803259 -0.008324012 0.038353376 -0.0059421216 0.047068365 -0.028822517 -0.01178099 0.024343224 0.025690991 -0.03237211 -0.023297384 0.04552187 -0.00037270656 -1.2619248e-05 0.011399649 -0.02908798 -0.022556316 -0.018585207 -0.035602666 -0.0062608807 -0.01648203 0.0009132449 -0.018162305 0.010192183 0.007925833 0.024225613 0.023470612 0.0066561853 -0.021372072 0.0312989 0.008966257 -0.0154452175 0.024441496 0.020120844
