58 1024
9_45_55_59 0.012416713 -0.060803093 -0.012507287 -0.01592776 0.01360977 -0.031153936 0.09086456 -0.010039032 0.008210439 0.010876642 -0.0386281 0.05124586 0.0040443507 -0.017557424 -0.0027249763 -0.0069538583 0.004502792 0.07763573 0.04652823 -0.04643946 0.00892951 -0.007324891 0.019050216 -0.0056439964 0.047258157 -0.012298696 0.015104372 0.0077996557 -0.010795857 -0.009523622 0.0032711814 0.06766679 -0.03297789 0.016850047 0.04440431 0.06345975 -0.04908116 0.057503946 -0.023386033 0.04580185 -0.019417513 -0.0032175104 0.047647342 0.020954847 0.0024981552 -0.018028464 -0.036462225 -0.035058107 0.00214329 0.0068983054 -0.030739946 -0.000667675 -0.002931045 0.042310107 -0.021895004 0.032229334 0.0074896547 -0.01356831 -0.023187572 -0.027959138 0.0035116752 0.010533148 0.02827901 -0.03784349 0.002052491 0.01855157 -0.029402472 -0.0145121105 0.02130897 0.020937216 -0.0052755014 -0.016008336 -0.008797457 0.00071223336 0.017704539 0.017038714 0.022397097 0.045034453 -0.009149243 -0.029931974 0.012132943 -0.0061552045 0.054637544 0.018427696 -0.025338817 0.03201677 0.046401322 0.032915954 -0.037059415 0.008963512 -0.024643635 0.039598938 0.022818316 -0.037393946 -0.023832435 0.01921217 0.030517166 -0.031637754 0.020083355 -0.0064159706 -0.01265588 0.044892337 0.019882765 -0.033278286 -0.021281127 -0.031216284 -0.02014648 -0.03269844 -0.022198832 0.010209444 -0.0072429106 -0.0700858 0.005287981 -0.008941365 0.032768533 -0.031600352 -0.017790604 -0.009326407 -0.027245991 -0.031748634 0.00085821614 0.009827101 -0.027040776 0.0068340027 -0.028615529 0.038793143 0.03151589 -0.011552989 -0.0019512288 0.033223566 -0.003835709 -0.00019293826 0.01768846 -0.026336506 0.0014611796 0.002562225 -0.016090868 0.070154674 0.0018752206 0.055022907 -0.032113053 -0.057614308 -0.018131912 -0.016040722 0.018550064 -0.03288301 -0.013236101 -0.0010588706 0.014214243 -0.056998525 -0.040105756 -0.017958915 0.045857202 -0.015257006 -0.0034840943 -0.021149626 -0.015276549 0.091343485 0.034343716 0.019868972 0.022508522 0.0056064283 0.01451842 0.03935183 0.018135075 -0.009392042 -0.06323848 -0.032133475 -0.040203657 -0.024261756 0.008939421 0.013497085 0.03615283 0.049764734 0.006425387 -0.07535834 -0.039991688 -0.027972566 0.00055613095 -0.002289504 0.021698115 -0.071888104 -0.02896503 0.041106824 -0.0007348681 -0.014980445 -0.010799028 0.005464055 0.014777279 -0.09139214 0.043216027 -0.03012072 0.019268923 0.016877769 -0.01849239 -0.039580163 0.013643161 -0.0038395873 -0.034799468 -0.031783406 -0.0051749777 0.05790396 -0.010016329 -0.04766953 0.020479644 -0.073747136 0.02405147 0.04630042 -0.01710501 -0.03466733 0.0005190967 0.02136864 -0.07206078 -0.030049859 -0.019268498 -0.016560515 -0.007683511 0.0008677803 -0.048037652 -0.0154379085 0.01799267 0.01847542 0.025589492 0.0076042395 0.0011127342 -0.03982604 -0.014919624 -0.012502429 0.020262249 0.0059174355 0.006124891 0.055633157 -0.033924513 -0.03988389 0.03918332 0.022531802 0.04133463 0.04902202 -0.006362519 0.008248265 -0.0400399 0.066590995 0.018311348 0.013822805 -0.028174391 0.011667758 -0.022702748 -0.041603684 -0.01611779 -0.02998009 -0.0057671005 -0.00028105758 -0.004419876 -0.05543328 -0.012567321 0.016638713 -0.0020023985 -0.015893165 0.030942196 -0.030475726 -0.028488748 -0.033105783 -0.01770723 0.002927625 0.047527324 -0.04523651 -0.042953607 -0.04110576 0.057523716 0.02858995 0.035282444 -0.018025078 0.0070003206 -0.06691828 0.04653707 0.059435565 0.025334863 0.002511528 -0.008092356 -0.0272779 0.010402489 0.010326047 0.028573023 0.02740634 0.0033839939 -0.024145477 0.019940363 0.013608675 0.02470504 0.014101702 -0.016169127 -0.021803433 -0.008731976 -0.023239942 0.008720417 0.0007528414 0.026804 -0.039574835 0.02452025 0.01659805 -0.014369242 0.022372153 -0.040568918 0.022769475 -0.049429767 0.0030716783 -0.018441923 -0.013916722 0.021236347 -0.0029955818 -0.016981436 -0.001856842 0.005965352 -0.01597005 0.0009940445 -0.050904453 0.0710697 -0.038334217 -0.030918129 -0.015393872 0.0563033 0.032835253 0.006321864 0.009048649 -0.0021272618 0.022809016 -0.06769678 -0.0072265896 0.059124637 -0.011510174 0.010917035 0.017287523 -0.0066220746 0.049073737 -0.013826503 0.009211451 0.012394587 -0.048726626 -0.0047318735 -0.046454325 0.03587474 0.017140275 -0.02076309 -0.020025387 -0.016584946 -0.053491462 0.008355137 -0.034406725 0.008675564 0.010197414 0.02546051 -0.006916198 -0.0015526391 0.020696549 0.062651254 0.072249524 0.0025757859 0.03886743 0.05108969 -0.030746736 0.012235857 0.04000805 0.03187823 0.029340466 0.060778618 -0.044672854 0.03488739 0.035450548 -0.008355807 0.07024579 0.02763201 -0.019053865 -0.034666546 0.002766513 -0.023854561 -0.03917253 -0.0069803866 0.03541371 0.024820723 0.047772277 -0.009697105 -0.0023593032 -0.034981385 0.06223797 -0.029020399 0.0022034147 0.017749885 0.046039943 -0.018938648 0.06016782 0.010697661 0.0044927048 0.018158933 0.024448246 -0.032465946 -0.0008415829 -0.03511205 -0.0026641227 -0.040205073 -0.037098244 -0.08489943 -0.05294671 0.037145887 -0.009903684 -0.0058328127 0.009457338 0.036017124 0.058907345 -0.0018916148 0.024046976 0.05771288 0.066160336 0.018466251 0.05617365 0.014456172 0.027297249 0.015237312 -0.03376149 0.014788943 0.029978441 0.018725783 -0.02261725 0.014989474 -0.00845732 0.02115626 0.0045441906 -0.008038663 0.08117921 0.012122209 -0.019846125 0.019896211 -0.004274812 -0.032087237 -0.0042644353 0.05907824 0.032315005 -0.012385493 -0.020977357 -0.0041258633 -0.04794574 0.0104802605 -0.0125751635 -0.006352559 0.005363451 0.016009307 -0.015034897 -0.09363173 0.005903733 -0.042450834 0.03682926 -0.015315595 0.023735715 -0.019626046 0.018196912 -0.048840538 0.016030531 0.044805538 0.02454692 0.0047598216 0.009231561 0.018488672 -0.026506007 0.01961676 -0.005364076 0.033614457 0.00040534826 0.0009992317 -0.03073101 0.0004373805 -0.014945562 -0.018373251 -0.02173586 0.016923405 0.019031398 0.054362487 -0.028828599 -0.025693456 0.016981173 -0.00954653 0.036734793 -0.058084283 -0.019268889 0.0016558662 0.05362797 -0.019009404 -0.0008122845 -0.092953086 0.008259971 -0.0570323 0.0142134195 -0.032978576 -0.031935718 -0.03068244 -0.046881404 -0.041425735 -0.038880132 -0.005037275 -0.009596869 -0.021740282 -0.053498503 0.032724854 -0.00989885 0.063072585 -0.008991129 0.026666094 -0.010789807 -0.006636263 0.01030967 0.0073763044 0.013949063 0.0013900411 0.012771902 0.02000882 0.01069826 0.012261018 -0.01493951 0.062113 0.019302856 0.03840226 -0.008241564 -0.019034361 0.030877553 -0.026519263 -0.022884127 0.056240022 0.010244454 -0.023560433 0.053342186 0.002015379 -0.035484273 -0.01993774 -0.03629762 0.010156128 -0.002329027 0.0042816177 0.0027858624 0.008431216 -0.014478116 -0.060437735 -0.02025171 -0.0082691 -0.03126488 -0.05298619 0.043317616 -0.005151213 -0.04403071 0.0007324831 0.0020957866 0.021977957 -0.043031637 0.065575704 0.021166457 0.036692098 0.024174856 -0.035079032 0.02192973 -0.01500243 0.017752094 -0.05258277 -0.0059813582 0.030169556 -0.023719499 0.018384771 0.065466836 0.0265565 0.023996048 -0.041177887 0.0238086 -0.0040818737 0.009136856 -0.024947116 -0.013843022 -0.018677317 -0.0052082455 0.054279096 0.013399733 -0.0043937108 0.008313868 -0.045434564 0.034673914 -0.041540343 0.056523126 0.008355361 0.015813319 -0.06410487 0.0022343704 0.007307968 -0.048672497 -0.0020499434 -0.037881743 -0.005815022 0.039326478 0.012226852 0.06281529 0.003987022 0.04921052 0.019116294 -0.046387006 -0.033332646 -0.03024676 -0.016065797 -0.07367001 0.013292031 0.011755137 -0.0293787 -0.029322548 -0.0022418592 -0.019406948 -0.058713786 0.04395367 0.067333505 0.010382844 0.0040677013 0.023262948 0.03684622 0.024978817 0.004150129 0.0029107858 -0.022546008 0.032851186 0.0066446774 -0.022404913 0.018198716 -0.015122839 0.03861931 0.012746565 0.010513327 -0.0032591592 0.0487558 -0.03796143 -0.038288113 0.041344456 0.08182539 -0.0040720785 -0.055139326 -0.00034141884 0.028598113 0.013047279 0.07301846 -0.028676147 0.020284573 0.031328987 0.034916803 0.030707171 0.020673204 -0.012869909 0.05799245 -0.003299927 0.021908902 -0.015310093 -0.009002731 -0.032733053 -0.046594206 -0.030489692 0.042551406 0.032199375 -0.02807969 0.009347775 0.024198946 -0.019933922 -0.02296167 -0.00209099 -0.01395281 0.020739844 -0.031596508 -0.025843201 -0.026943585 0.038756568 0.010417771 -0.049410272 -0.040276803 0.012464828 -0.025778364 0.007823136 -0.0026713095 0.010574354 0.039378233 0.014403577 0.029341513 0.0016123198 0.057226952 -0.040067695 0.036738962 -0.021695666 -0.0021615566 0.07670972 0.016704103 -0.011033249 0.0106911855 0.003515477 0.0018095003 -0.024944931 -0.01924023 -0.021806145 -0.043403234 -0.015044187 -0.009049413 0.020393806 -0.028464604 -0.0441514 0.025273666 0.015048907 0.004459102 0.0063379677 -0.013265833 -0.010286721 -0.0046635023 -0.028234301 0.013437289 -0.011887154 0.016611988 0.0072114756 0.0055586635 0.00093089667 0.018347137 0.010398194 -0.009784296 0.010111903 0.02016738 0.02256244 -0.03504278 0.04790984 0.020220548 0.039247684 -0.010056803 0.024494324 0.013124105 0.025263421 -0.0003237875 0.042338967 -0.053736236 0.0061411145 -0.059457336 -0.051451396 0.03525142 0.00076486316 0.030048639 -0.06054043 0.026685722 -0.022519825 0.043095015 0.004292597 0.07803326 0.05749824 -0.04904746 0.07157909 -0.025328798 -0.013018953 -0.019751718 -0.010291847 0.0011587174 -0.0135402065 -0.013667059 -0.033572655 -0.048080653 -0.042376485 -0.016940601 0.04403421 -0.011803274 0.03424675 0.023375493 -0.0015918049 0.020215442 -0.01772878 0.0150735555 -0.053962037 -0.03461469 -0.016151344 0.009443399 0.014707354 0.023839666 0.04146018 0.019880235 0.05093004 -0.017319217 -0.028214078 -0.03887775 -0.0030186716 -0.013008603 -0.02003997 0.044620954 0.04312105 0.05043201 -0.006619012 -0.025785975 -0.027247578 -0.020091353 -0.011376726 -0.027224505 0.004977255 -0.0050644334 0.020781212 0.08045205 0.037758313 0.02156814 -0.024441725 0.016348064 -0.004090795 -0.008163581 0.02166024 -0.042152975 -0.025795165 -0.0054053646 -0.048706714 -0.025802344 -0.0382952 0.027070558 0.016445097 0.0038879463 0.015386891 0.012433363 -0.02374814 -0.005661982 0.07689475 -0.023759004 0.05415892 0.04520648 0.003920966 -0.01467979 -0.04403759 0.012368919 -0.01298593 0.033507843 0.016797213 0.0022611604 0.011834835 0.005719076 -0.0012128598 -0.04719288 -0.012218361 -0.012424256 -0.0315913 0.0070126676 -0.008717492 0.012918325 -0.02883076 -0.0040374976 -0.029732231 0.030110976 0.03595527 -0.006068411 -0.0066783642 0.016942283 -0.014253943 0.01288862 -0.008184312 0.09129516 -0.0036344023 -0.016285121 -0.02730291 -0.014934495 0.03927224 0.053704247 -0.01116563 0.01708954 0.03896004 0.03607413 -0.011722401 0.021304755 0.05475084 0.020893471 -0.065637045 0.04169508 -0.040610287 -0.025462283 0.034690388 0.024708396 0.020662354 -0.00035200707 -0.034393843 -0.020457117 0.02885519 0.03610984 -0.0151452115 0.037155814 -0.001588411 0.06396699 -0.00071065215 0.008291577 -0.024415623 -0.029086743 -0.014360766 -0.0028727166 0.008699521 0.012992777 0.017389495 0.040478244 -0.052360196 -0.02814741 -0.018698424 -0.007768942 0.0040931753 0.046794444 0.045207016 0.023092372 0.02338041 0.0043603755 -0.024303876 0.019397896 0.01774005 -0.016512323 0.03902339 -0.024678878 0.02529484 -0.07118494 0.009565145 -0.029516052 -0.029245697 0.0034629907 0.029899733 0.0051842215 0.022425154 0.03718714 -0.06468353 -0.050717935 -0.05624738 0.01984472 0.009896577 -0.046320006 0.016069237 0.0006273839 -0.0053652884 -0.041037325 0.035121184 0.007038936 0.02419287 -0.015979532 0.013198192 0.017463738 0.015365641 -0.057577174 0.004902161 0.0064981617 0.029623479 0.0019705745 -0.010510806 0.035520975 0.00053993316 0.013438634 0.03242805 -0.025028974 -0.04691367 -0.0011276288 -0.030434066 -0.0050047683 -0.009300275 -0.014075405 0.0029581708 0.02410665 -0.006464017 -0.0070374757 0.0022610624 0.037192076 -0.015111433 -0.030658703 -0.008308411 -0.017038709 -0.04306944 -0.035666894 -0.014349577 -0.0014941243 0.07813303 -0.006017464 0.025845109 -0.0003536634 0.04602032 0.024291126 -0.0024786666 -0.05330035 0.06431901 0.007776595 0.044524148 0.024747975 0.01632329 -0.01104458 0.017693305 -0.032037735 0.034157623 0.008549031 0.0067003067 -0.0007481667 -0.0016595947 -0.01268782 -0.019375544 0.010642175 -0.008612101 -0.0047144573 -0.037978873 -0.04837351 -0.074850865 -0.07863418 0.05580299 0.029087875 -0.008984778 -0.006099008 -0.016111957 0.08864071 0.021071257 0.002309307 0.016591908 0.0258306 -0.019615065 -0.034497764 0.007919575 -0.012140715 0.020562079 -0.0008999604 0.006563957 0.008940433 -0.042218957 0.017246353 0.04100849 -0.034808487 0.031517394 -0.0021267014 -0.037228554 0.02718591 -0.01766307 -0.032927223 -0.012953686 -0.051221088 -0.050519343 0.0573527 0.009613536
21_26_51_60 0.005822506 0.059151955 -0.028955854 -0.02852349 -0.028492343 0.02703908 0.01272261 0.03258086 0.039736573 -0.019347845 -0.014371114 0.022444816 -0.013276571 0.04779523 0.03370414 0.010428269 0.020664698 0.03012913 0.008454948 -0.047576692 0.03762233 -0.032065257 0.00018330223 -0.0040074787 0.021145593 0.019364318 -0.02497171 0.013244174 0.020835564 0.007338697 0.004521821 0.02733748 -0.003890307 0.036822848 0.06692438 0.010199298 -0.0007204126 -0.015279616 0.0092352545 0.040216014 0.017749643 -0.032558694 0.04949337 0.0113513265 0.029787766 0.033312894 0.016958548 0.07686254 0.036223 0.03608583 -0.021326924 0.0044638165 0.002506639 -0.025153441 0.04971196 -0.007843697 0.020755572 0.027356923 -0.022138704 0.00033859472 -0.00011767181 -0.05270584 0.009473208 0.014624092 -0.04199241 0.0035430572 -0.030280394 -0.006348053 -0.025035487 0.037937894 -0.054926954 -0.019000487 -0.034845237 0.022271894 -0.016348928 0.021660417 -0.021731446 -0.011800271 0.024070475 -0.012048712 0.021194028 0.0122625455 -0.0066640475 -0.019498333 0.034445312 -0.008324539 0.021721251 -0.03280927 0.033479325 -0.0019757913 0.02139045 -0.0013865861 -0.060314313 0.011775278 0.02807895 -0.0286804 -0.015853366 0.0027236002 -0.010352708 0.0102278115 0.02957014 -0.03714752 0.019776031 -0.008832308 -0.052313477 -0.010417738 0.060955312 0.016449144 0.013386415 -0.0025517764 0.02323982 -0.061223045 -0.054669403 0.014563594 0.037222993 0.047152612 -0.013564918 0.02734572 0.033228762 -0.00304222 -0.050552335 -0.03899918 -0.040956978 0.012439304 -0.0021091711 0.0034801178 -0.025827471 -0.034132082 0.023225559 0.01038114 -0.077878855 -0.02725382 0.076026976 -0.01007681 0.049028475 0.0052696085 -0.0046831905 -0.01239261 -0.03704379 0.036066614 0.0051900195 0.029459763 -0.047561888 0.040163975 -0.013633699 0.04051078 0.010065 -0.010552192 0.0025579894 0.0018523051 0.0028311175 0.04950555 -0.013232059 -0.0059082634 -0.055594213 -0.042122997 -0.0383405 -0.029833024 -0.02934959 0.009238894 -0.0048990464 -0.007699238 -0.067124866 0.03364643 0.014276944 0.0036784986 0.019931518 0.0039259233 -0.028968357 0.0060028215 -0.0045755897 -0.04790994 0.03302475 -0.044214435 0.0075930613 -0.036723927 0.036960658 -0.05169914 0.02010525 0.019326337 0.0007691676 -0.027586607 -0.010009143 0.086049646 0.00844695 0.0057334155 0.019589521 0.04749296 -0.025813224 0.023577478 0.05029711 -0.035657607 0.0020296709 -0.0014854632 0.05115445 0.07798543 -0.014488631 -8.115094e-05 -0.014017377 0.054270726 -0.061254375 0.00015278204 -0.03977336 -0.047259472 0.011150915 -0.004109521 0.08204971 -0.027989428 -0.070402704 0.019336509 0.03622247 0.0036759109 0.005185161 0.012361033 -0.064011775 -0.020814877 -0.035139084 -0.007859306 -0.038469337 -0.0915042 -0.0390533 -0.040203013 0.011615156 -0.019849274 -0.017173886 -0.005576523 0.052999776 -0.042443395 -0.059339758 0.0058017015 -0.03366754 0.021514911 0.060118474 0.007830645 0.032223113 0.0167502 0.0051498585 0.009200691 -0.010875023 -0.019317254 -0.02201452 0.020891167 0.022639593 0.008203435 0.02775441 0.08753092 0.013915679 -0.015703019 0.00971259 -0.024026608 0.00409575 0.013945315 0.0053340713 -0.004031749 -0.071184054 -0.018591503 0.03723573 -0.010531539 0.014144438 0.013596811 0.0053793504 0.0023871535 0.044024635 -0.033010654 0.055718042 0.0023475497 -0.042384684 -0.004817597 -0.03685994 -0.043024793 -0.026060874 0.01632721 -0.06103031 -0.0075570527 -0.00951532 -0.019178962 -0.033948183 -0.032299135 0.009331309 -0.0123190405 -0.007535959 -0.007730073 -0.011634041 0.019425917 -0.022415519 0.0068180556 0.028594103 0.015934343 -0.023742236 -0.04154464 0.013910879 -0.012888104 -0.01921759 0.014338516 0.04846386 -0.010325666 -0.017556908 -0.024864873 -0.043545216 0.041485865 -0.033661265 -0.012402437 0.02230864 0.03592483 -0.0056783045 0.0051807025 -0.010469698 0.06353361 -0.056395344 -0.037235748 -0.0035178475 -0.008666089 -0.005147932 -0.01905106 0.003832129 0.05617461 0.020871991 -0.033256195 0.022847235 -0.019899828 0.01869186 0.053229906 -0.051194884 0.020778507 -0.05003533 0.03400482 -0.018501403 -0.011215019 0.018088272 -0.0045459974 0.04525628 0.06774474 -0.012649525 -0.011274003 -0.0029653863 0.058573704 0.007157066 -0.009544132 -0.01693586 0.0021028027 0.005643782 -0.0648089 0.020997081 -0.0017541233 -0.025715835 -0.029951213 0.025811762 -0.002150535 -0.036250524 -0.03284742 0.004309382 0.032970227 -0.011360938 0.033788502 0.025716096 0.022485469 -0.0346497 -0.02019215 -0.030112881 0.0022773189 0.011071256 0.034100607 0.033481434 0.03149657 0.011338953 0.02428419 -0.024541764 -0.04118872 0.00012279951 -0.057651598 -0.043290827 0.041861285 0.028492799 0.032822404 0.0405094 -0.05296094 0.023597918 0.03632287 -0.002234029 0.02025644 0.038005624 0.009107215 -0.025451858 0.010415111 0.033486687 -0.029886749 0.010898569 -0.02427926 -0.015265893 -0.043662585 0.020043317 0.03195558 0.024208322 -0.036281206 -0.040265705 0.023351213 -0.04624531 -0.02635007 0.028467948 0.010072961 0.022229845 0.0056090406 0.0317181 0.051033597 0.033618376 0.012540654 -0.028654225 -0.027837161 0.023672888 -0.022765445 -0.012387789 0.025059862 -0.009622715 0.051138587 -0.017112521 0.05418333 -0.0068955882 0.054081477 0.007944619 -0.030775778 -0.029372493 0.021153588 0.03018322 -0.028426098 0.036964312 0.021223681 -0.010085604 0.004163504 0.05907188 0.013226095 0.02762898 -0.021481453 -0.013470691 -0.027923925 -0.0060110036 -0.040865928 0.015896043 -0.02972601 -0.054196343 0.0016164271 0.009750632 0.013504917 -0.005323931 -0.030689038 0.03256801 -0.023459926 0.0028015254 0.036085688 -0.0023544906 0.059880357 -0.016526647 -0.01837759 -0.06239718 0.08514284 -0.023207577 -0.0123426905 -0.004953719 0.056691475 0.09721226 -0.0040095123 -0.032143116 -0.0055967313 0.0075335638 0.004840303 -0.020493135 0.043319125 -0.039771155 0.0069848024 -0.045366906 -0.045501504 -0.040226247 -0.01696317 -0.009784408 -0.017420268 0.0077078636 -0.018903557 -0.029233243 -0.03531356 0.01152815 0.0034645558 -0.04180693 -0.0053165704 -0.059057314 -0.038589902 -0.020379473 0.049862083 0.031280756 -0.006866409 0.035375144 -0.0180873 0.020383468 0.037957147 0.02326986 -0.016045874 -0.031934995 -0.02194709 -0.027465219 0.04375409 -0.038017962 0.015132016 -0.008610523 0.01932809 0.0077489996 0.022185123 -0.026458599 -0.0066564805 0.0067770504 -0.00096175424 -0.067676775 0.015356906 0.0037411873 0.041977186 0.03008243 0.041258857 -0.0020823274 -0.0020215397 -0.02875859 0.0015488962 -0.00597158 0.012176159 -0.058479894 0.025926447 -0.011984502 -0.032158498 0.022200841 0.035155382 -0.0012087433 0.019063834 0.021265987 0.021040613 0.021866715 -0.0054113134 -0.04971266 -0.041879762 -0.016841445 -0.029748041 -0.006427221 0.040510103 -0.0564013 0.01608946 -0.002675072 0.015264614 0.0035200324 0.0021051755 -0.003598195 -0.003970735 -0.007511291 0.005200206 0.0040430957 -0.0030602126 0.011149085 -0.048319172 0.029317679 0.035486035 0.006383227 0.0036526276 0.02580096 0.015397323 -0.0075524505 0.013921938 -0.003599268 0.025674487 0.049429104 -0.0046009016 -0.03300767 -0.016712332 -0.004098917 0.00939565 0.001379796 0.029484926 0.03291664 -0.029194308 0.02090547 -0.014931202 0.09224543 -0.01572029 -0.015150543 -0.028186344 -0.03868841 0.05714624 0.011539844 0.01342522 0.024852566 -0.011421648 0.0055931676 0.021706104 -0.03882193 0.0008185204 0.021625418 0.048028428 0.023160927 -0.011888687 0.059550423 0.031153623 -0.032294367 0.006413767 0.0069480403 0.023678306 -0.0119656315 -0.019301362 0.014092897 0.01442579 0.06949777 -0.044837844 0.05356266 0.018073328 0.006357137 -0.007412524 0.06360628 0.023361363 0.021923343 -0.016557202 0.03954673 0.0008810942 0.073063016 -0.03677817 -0.026892604 0.019802354 0.039037924 -0.031262018 -0.0015682366 -0.017849116 0.0015136831 -0.01910483 0.039059952 -0.03993151 -0.0027623733 0.016328586 0.03656188 -0.08507526 0.020726385 -0.029981704 0.025038164 0.006361658 0.040575594 -0.0038851723 0.032699954 0.008386522 -0.031430952 0.016253054 0.025331086 0.07385032 -0.016804725 -0.009074093 0.026873209 -0.031342752 0.051607292 -0.058672316 0.004648559 0.09812881 -0.037157077 -0.0041906037 -0.010189835 -0.011803184 0.03930975 0.035303682 0.02422722 0.00061360054 0.017991906 0.049853824 0.016962314 -0.027458102 0.045361005 0.0034435994 -0.0031701673 0.026429133 -0.0129743675 0.01794372 -0.038224053 0.0002553356 0.025170652 0.00481828 -0.0067167208 -0.008428481 0.031589583 -0.009588851 0.042752903 0.017231986 0.04095365 0.039824832 0.0033748916 -0.026290359 -0.052645724 0.008536566 -0.0070850067 0.011562893 0.0068941815 -0.019125182 0.029238027 0.043775484 0.010567071 -0.010425034 -0.0067441016 0.053355195 0.03303483 0.010077304 -0.028348517 0.008960034 -0.020309212 -0.020972235 -0.015910277 -0.058141615 -0.012858768 -0.022009414 -0.06494151 -0.05885483 -0.014836522 0.022441942 -0.020767378 0.014744228 0.02436206 0.069523826 -0.01705356 -0.012701466 -2.2297312e-05 0.0041304477 0.0016225228 0.027972678 0.012894259 0.0039590504 0.041441917 0.061290015 0.042527776 -0.020805331 0.022298552 0.03841587 -0.0020559498 0.010541884 -0.0038099268 -0.025851365 0.020983784 -0.001008794 0.05880188 0.021586237 0.0073913164 -0.01148531 -0.023111727 -0.0010989015 -0.016267717 0.018143594 -0.0013090906 0.0198468 -0.030229189 -0.0033705232 0.028211022 -0.018212669 0.007044005 0.027980482 0.11549241 -0.024905425 0.023674404 -0.013186535 -0.038922794 0.022021702 -0.028532706 -0.05920003 -0.019364543 0.0021555452 0.012886956 0.046233576 0.004733586 -0.027202975 0.027160887 -0.05595191 -0.015320557 0.0075810454 0.016224591 -0.047829032 0.00075472775 0.026183411 -0.03813475 0.012092299 -0.01924199 0.029663328 0.008596758 0.053068403 0.06501402 0.03515822 -0.04167901 0.042638298 0.012629449 -0.016584981 -0.033230405 -0.01045583 -0.02695208 0.0076229246 -0.015101065 -0.064683795 -0.0037910433 0.01698548 -0.09124648 0.036814332 -0.009422778 0.040789537 -0.013173263 -0.0050089443 -0.013146521 -0.0061518233 0.10407561 0.028148023 -0.052100617 -0.02644353 0.01141356 0.0372435 0.007217508 -0.025956545 -0.005649894 -0.005465216 0.035936352 0.0022062238 -0.04970498 -0.015077479 0.030554859 0.01455466 0.006659644 -0.01757957 -0.035264373 -0.010989946 0.02417129 -0.029628634 0.027724847 -0.046442926 0.03833929 0.008637576 0.032325607 0.003451947 0.06534382 0.044603474 0.0026539671 -0.013322702 0.0073202197 -0.035318945 0.05541758 0.06736572 -0.0126178 -0.003459971 0.018824361 0.021299452 -0.002200553 -0.05664752 -0.0057222606 -0.022069229 -0.007671991 -0.003118573 0.0202815 0.019553287 -0.010319223 0.05145163 -0.007167053 0.022055367 -0.004786496 0.0036891687 0.041301355 0.023825962 -0.018408002 0.016893521 0.0013003739 0.018480733 0.007575591 0.0069570974 -0.010859451 0.013566674 0.012637781 0.020566449 0.0009632403 0.020919245 0.017664047 -0.015230472 -0.056027364 0.032078143 0.026933582 0.030025916 -0.03047023 0.047287658 -0.019922644 -0.057658114 0.04146589 0.03557298 0.007122503 -0.016112756 0.02126415 -0.05169771 0.028083425 -0.043977223 -0.00651297 -0.012107727 -0.016642053 -0.019175064 -0.0066786017 -0.07290093 0.05230217 0.011081179 0.010272043 0.03207714 0.027850095 0.0032073539 0.04121783 0.017111965 -0.05753733 -0.005024461 0.04294244 0.020004407 0.0043621096 0.033153374 -0.016419321 0.06635299 -0.030675745 -0.01232207 -0.00014659905 -0.0018443646 0.091262095 -0.0071016066 0.0027491138 0.046086233 0.04366816 0.013585461 0.015223231 -0.012400031 -0.007378293 0.022765886 0.014054193 -0.02157918 0.0324353 -0.017835794 0.037097517 -0.013020388 0.00137902 0.0071978658 0.0054992978 -0.05768084 -0.020473788 0.04508569 -0.001239331 0.0010204422 -0.01352142 0.01078871 -0.019868951 -0.009838564 0.043926015 0.025005423 -0.02538338 -0.036666196 -0.031522643 0.026324918 -0.0051269466 0.02108083 0.070183225 -0.008270485 -0.012016592 -0.027655222 -0.0048987702 -0.026762778 0.014218031 -0.034116916 0.087622724 0.0033215687 0.0008122777 -0.021448852 0.049436823 -0.04486992 0.023775741 0.0009673137 -0.03666182 -0.05010421 -0.05758938 0.022751734 -0.029856417 -0.0029979313 0.030440718 -0.019180309 0.07301785 0.012593711 -0.026190395 -0.036482453 -0.024087751 0.049185693 -0.04037449 0.012799704 -0.020532852 -0.048464943 -0.0121790115 0.004280848 -0.03295831 -0.0370542 -0.05678451 0.006632601 -0.029242486 -0.011397143 0.021917375 -0.05846997 0.0023160526 -0.0045888787 -0.015446005 -0.031502835 -0.018779878 0.029998584 -0.01653864 -0.034328107 -0.062482283 -0.012600283 0.002779749 0.008976365 0.008926658 -0.012553235 0.031409293 0.014558945 -0.034369938 -0.023523787 -0.013493272 -0.032889772 0.03172005 -0.012825567 0.025621928 0.04618648 -0.043275043 0.06249392 -0.008477074 -0.019193139 0.01885709 0.005555379 0.037340928 -0.007569328 -0.03139943 0.038583063
34 -0.06562713 -0.051728245 -0.03740817 0.031932585 0.0044182385 0.053713083 0.018098418 0.058092307 -0.026808707 0.0019154418 -0.03145602 -0.053533338 0.032701343 -0.018811995 0.032826692 -0.042166308 -0.012959178 0.0039062162 -0.047632884 0.088648155 0.0048236055 0.034013953 0.039689224 0.0112146875 -0.026800236 0.005521642 -0.09976023 0.0029321425 -0.006753197 0.0597291 0.029887104 0.036825307 -0.017521555 -0.0095366975 -0.005791359 -0.008011473 -0.016109968 0.036779143 0.022115206 0.06070345 0.00097287516 -0.013259074 0.013545147 -0.05775981 0.0007255097 -0.019131407 0.011538179 -0.012871643 0.022016836 0.023286628 -0.00782952 0.025694946 -0.0007607495 0.015949626 0.06778551 -0.01530365 0.0021455844 0.033227142 0.022604736 0.006618962 0.05211651 0.0017112623 -0.013102031 0.047616508 -0.025814533 -0.010874259 -0.0108758425 0.012176291 0.010931577 0.020539885 -0.046503004 0.026218057 -0.04824709 0.014995819 0.012444512 0.048820533 -0.010229079 -0.007232396 0.008727709 0.009215545 -0.011702044 -0.03308625 0.009127563 -0.021218963 0.0053391657 -0.008605651 -0.058776904 0.067907825 -0.008380157 0.060884558 0.026291715 -0.044505615 0.009386109 -0.041072436 -0.04140706 -0.07046135 0.032125033 0.015517439 0.0137887625 0.035521228 -0.017321333 -0.0065824348 0.005695013 0.07328939 -0.000614061 0.020427188 0.058221523 -0.010660931 0.019781923 0.007390596 -0.008360259 0.034220815 -0.008142227 -0.0034189953 -0.004002962 0.049343266 0.013394893 0.009118243 -0.034307227 -0.027696405 -0.024887087 0.01982052 -0.025402667 0.0533313 -0.04698421 -0.06402698 -0.011242215 0.008604518 0.005363103 -0.017124524 -0.0027114558 0.0143824555 -0.00986047 0.008102624 0.043816887 0.023454826 -0.014789979 2.3584606e-05 -0.010739814 0.0045424183 -0.00063236774 -0.02214763 0.014155139 0.0029031823 0.008978528 0.036662508 0.039704803 0.0070939725 0.022198997 0.0069792764 0.020147119 0.0077447034 -0.02632172 -0.02085176 -0.0035635494 0.0030482926 -0.05034472 -0.0148454765 0.052088972 0.032250036 -0.045211412 -0.02511691 0.025053507 -0.0006811622 0.040722147 -0.016407628 -0.004290807 -0.032061547 0.027161451 -0.017667217 -0.042085767 -0.0029192276 0.020291843 0.019995354 0.019037027 -0.028138777 0.054275315 0.036601998 0.039546873 0.014384079 -0.011851794 -0.0006088632 -0.004200387 -0.007228998 0.067242056 0.025734799 0.00068556675 -0.0055485787 -0.00316854 0.005952393 0.0034097445 0.021942442 -0.007940794 0.061122525 -0.039861735 0.022305423 -0.008325554 0.06608825 0.02573617 -0.013588712 -0.03385242 -0.056562234 -0.013946915 0.063522786 -0.030363565 0.0040206546 -0.008820906 -0.019927619 -0.021203918 0.042230904 -0.069744065 0.0061003244 0.012996405 0.017163 -0.042594966 0.016540026 -0.05216613 -0.032879163 -0.011826798 -0.033763323 -0.032277625 0.009102959 -0.06955827 -0.042737707 -0.037528507 0.01330416 0.0259885 -0.012402856 0.032381892 0.005287261 0.019198574 -0.0077573922 0.027746527 -0.01757648 -0.046623223 -0.008681519 -0.06328463 0.066347495 -0.005751399 0.066694096 0.043304153 -0.044401687 -0.022397932 0.019189991 0.041055534 0.028994981 -0.004935494 0.07830206 0.03060668 -0.02139429 -0.039168585 -0.057832915 -0.021491766 0.049480535 0.021241492 0.018175721 0.016005812 0.09017256 0.08565739 0.01344043 0.009222264 -0.020663274 -0.05472057 0.007892722 0.029842194 -0.015858555 -0.01897886 -0.0148324985 0.020156128 -0.009637427 -0.009595424 0.024932997 0.009133502 0.041776437 0.036901537 0.04258612 0.0038091817 0.02942242 0.050638393 -0.0044027884 0.03574535 -0.029855972 0.007259403 -0.022466179 -0.0050017023 0.021877287 -0.027924338 0.029696692 0.021783827 -0.021093838 -0.019915834 -0.0033376096 -0.013620609 0.024082296 -0.033122957 0.016194409 -0.067721695 -0.008929016 -0.046675898 0.05068712 0.0016017827 -0.04644838 -0.07340482 -0.041909315 0.030758562 0.030663073 0.005169273 -0.0006888546 -0.07061939 0.011582362 0.050657447 0.017321669 0.027896756 0.01970082 -0.033100832 0.015090538 -0.015130897 -0.038420256 -0.030434297 0.05016698 0.017605275 -0.007407698 -0.033975177 0.02218694 -0.041733153 0.0079982765 0.019192072 -0.015824048 0.017133068 0.006589422 -0.007015725 0.039936617 -0.0035322441 0.00151756 -0.03394623 -0.08754545 0.052610364 -0.01930836 0.018340552 0.025691098 0.0059676305 0.023066973 0.0022516036 -0.07384538 0.017424008 -0.003473024 0.011269939 -0.043097604 -0.052379984 -0.03889002 0.051291905 0.006681003 0.021446042 -0.0041610883 0.04482414 -0.026307665 -0.028255051 -0.036164016 0.086474694 -0.012144375 0.06532983 0.012470084 0.010089802 -0.019054813 0.0025548863 0.07124938 -0.022621017 -0.019002214 -0.030786676 -0.015930941 0.032075353 0.030674454 0.04406938 0.0034105866 -0.060551643 0.06421641 -0.027870161 -0.00838734 0.0007728506 -0.013630887 -0.030067699 0.023281658 0.057758514 -0.024803612 -0.034850564 0.03808196 0.0066774865 0.00042085978 -0.017971698 0.014636187 -0.02289099 0.005774922 0.06309228 0.024475075 -0.008910148 0.0019654464 -0.021522947 0.032465633 0.04033896 -0.01946671 -0.010998172 0.008005882 0.011259991 0.016921714 -0.041871075 0.0444017 -0.039347358 -0.0085854 -0.01940658 0.021587273 -0.013694861 0.0074325474 0.0029090696 -0.0025101758 0.0049425694 0.02948954 -0.0088882595 -0.0112880925 0.011264246 0.021585034 0.00022629085 -0.008331263 0.029477024 -0.021776114 -0.004539876 0.014352863 -0.00044766572 -0.032510962 -0.024857441 0.050405953 -0.0281498 0.011219242 -0.0026576547 0.037775073 -0.0067240032 0.012780384 0.029874502 -0.055802837 -0.018730316 0.0036653688 -0.011398755 0.06133004 0.0030564514 -0.0024498808 -0.03329555 -0.00042363428 0.034633826 -0.010680127 0.029634673 -0.029965699 -0.027699307 0.054577358 0.05143056 0.0560038 0.024510482 -0.023832908 -0.019293401 -4.0903906e-05 -0.00957078 -0.015035476 0.01089017 0.036778063 -0.051802654 0.022697272 -0.01998679 0.007819873 -0.020861516 0.018770875 0.0453408 -0.009125611 0.025570221 0.01668117 -0.0017550017 0.010112179 0.012126213 0.048453685 -0.043181606 0.023276629 0.008501932 -0.016028836 -0.060609568 -0.0101458 -0.015507201 0.033097215 0.057886336 0.024622496 -0.016768858 -0.017293716 -0.0178702 -0.012299618 0.010270581 0.017767863 0.038159687 -0.03861868 0.01268269 0.051715866 0.021478128 -0.016243245 -0.058319423 0.031025603 -0.032076653 0.033510238 0.03738306 0.015537532 0.009739681 -0.042106703 -0.043101616 -0.042526256 0.050540864 0.018944547 -0.00047515568 0.0068949694 -0.042136535 -0.012859026 0.079011716 0.014025415 -0.022898208 0.06676935 0.01975244 0.029475985 0.05118634 0.018275948 0.008209732 0.03978771 0.045763213 -0.09317877 0.0065366565 -0.01510535 -0.023455113 -0.016702624 0.00511659 -0.021078989 0.015173495 -0.010629976 -0.0054005873 0.01738143 -0.0054015396 0.0395385 0.02728124 -0.034511607 0.03850321 -0.0022534272 -0.007283315 -0.020835305 -0.03829873 0.019688312 0.047351845 0.01741814 -0.0036562586 -0.030665332 0.0143455565 0.06550751 0.043083422 0.014564026 -0.008200735 0.03937658 0.034215488 -0.020725625 -0.04137269 0.0067155054 0.052152414 -0.023126006 -0.023151776 0.020897595 0.0119257355 0.007311508 -0.040848117 -0.008758113 0.0005551073 0.05904983 0.014745298 -0.05514558 0.024004575 0.016220348 -0.0013659996 -0.033309806 0.06159143 -0.018863458 0.009133243 -0.0047672745 -0.03870549 -0.06929183 0.02120452 -0.022842012 -0.020042624 0.008993681 -0.0031661117 -0.021700805 0.0073208096 -0.036241658 0.010198569 0.01892367 0.004494839 -0.015583876 -0.011279579 -0.033277273 -0.01018446 0.013865865 -0.0022772357 0.06057072 0.022193786 -0.009398069 -0.017587444 0.017043605 0.021936059 0.023045244 0.025580168 -0.04322842 0.0019014202 -0.00010482597 -0.049449496 0.015460814 -0.011167985 0.017267637 0.012855263 0.012130249 -0.028330319 0.0028309368 0.015714679 -0.023505336 -0.02442056 0.042441286 0.022566432 0.048281427 0.028627135 0.009114697 0.031474754 -0.026929356 -0.012912151 0.0070524737 -0.017081281 0.0043076486 -0.07040105 -0.0353842 -0.014979579 0.02379403 -0.021422824 -0.027903095 0.05219843 0.011341926 -0.04228833 -0.029693319 0.0075306552 0.013659753 -0.041840058 -0.030604634 0.05395891 -0.03931456 0.02185991 0.027269475 0.03762173 -0.019805674 0.027447945 0.015517342 -0.057145506 -0.030262157 -0.008080266 0.00148911 0.018949255 -0.003966255 -0.010034162 -0.041654672 0.013557345 0.0018795821 0.0070880353 -0.005920917 -0.027104754 -0.039586343 -0.030526811 -0.008069339 -0.00064008404 0.016436296 0.0056058927 0.0005601599 -0.012289729 0.008106929 0.017160002 0.018468427 0.019535169 0.0087695895 0.038932 0.030700527 -0.03384496 -0.021054704 0.020341258 0.022097455 -0.00086141605 0.016678896 -0.022744216 -0.03263838 -0.017064389 -0.00070860167 -0.045610745 -0.04009682 -0.032502666 0.024195502 0.0016145458 -0.031222465 0.010191574 -0.0054270905 0.0114583885 -0.032523535 0.053139377 0.015708206 -0.034013078 0.0012614533 -0.002009617 -0.015234003 -0.018685315 0.03040475 0.008492029 0.054278236 0.021745315 -0.008670003 0.08418982 0.042677086 -0.036254723 0.017593127 -0.009378049 -0.03755262 -0.0297363 0.015340674 0.010569352 -0.00086575455 0.051631797 -0.0034819646 0.010728593 -0.007677896 0.0059343614 0.08697433 0.018014591 0.037305404 -0.044162873 -0.08129858 0.052973647 0.027832555 -0.024415575 -0.05636183 0.00045698156 -0.021227898 0.023229117 0.009277902 0.042033993 -0.009878153 0.013916124 -0.03389812 0.0056694304 0.015081653 -0.035782315 0.02046188 -0.01521333 -0.037109543 -0.03708814 -0.009459941 0.01603442 -0.0017595077 -0.011651184 -0.013189338 -0.0012378134 0.01062632 0.01912205 0.040270884 0.037047073 -0.006271929 -0.025503337 0.104077734 -0.028545165 -0.015760398 0.0012457358 -0.002494454 -0.018815076 -0.032355715 -0.06277169 -0.012724341 -0.029483775 -0.016264278 -0.028047059 0.046312388 0.03129898 0.06881552 0.024916265 -0.036788184 0.04390706 0.06028667 -0.052005127 0.017072782 -0.01233862 -0.01391856 -0.011491014 -0.09810005 -0.021373061 -0.0257126 -0.062978595 0.029367283 0.010004871 -0.0010481665 -0.02271137 -0.06303045 -0.08163518 -0.039569445 -0.0014045957 0.03173638 -0.0060283015 -0.0110829575 0.012062282 0.020420382 0.004683308 -0.063568 0.030564807 -0.0060716816 0.0024772396 -0.051398758 -0.014184203 -0.007902084 -0.036873717 0.011019911 0.021529358 0.022177514 -0.022435226 0.013556322 -0.04106819 -0.0070522074 0.015837286 0.0041161347 0.01187659 -0.001194909 0.028706992 -0.016870512 0.006354451 -0.029431965 0.007317024 -0.005144894 0.0018156135 0.0032749518 -0.0054481495 0.00046880223 0.0012066966 0.035881173 -0.026284419 0.032418255 0.039547965 -0.04294662 0.004704865 0.0010675828 -0.0038139578 -0.020869836 0.011134803 0.04503606 -0.0031861549 0.013187386 0.006094454 -0.017504295 -0.014705592 0.014686136 0.010359359 -0.00880481 -0.04394227 0.05432945 -0.051393278 -0.025324576 -0.01045789 0.05511319 -0.029071573 -0.027575953 0.017261686 -0.022459282 -0.032465063 -0.012146833 -0.02117212 -0.055208914 -0.05796254 0.03215888 0.030245176 -0.0008471687 0.009508333 -0.009515705 0.0565896 -0.028412249 0.058215015 0.0383485 0.011489849 -0.010624152 0.030800946 -0.011794547 0.018104648 0.005532593 0.00612118 0.016902307 -0.036975432 -0.018390434 0.006859154 -0.037962545 -0.013349136 0.04702729 0.013652812 -0.042101856 0.03302769 -0.012090981 -0.010315345 0.0016935117 0.034993872 -0.017124387 0.009169283 0.0011468444 0.0006041914 -0.01513567 -0.004098685 0.027720205 -0.016976777 0.025253758 -0.0459801 0.04207307 0.029758615 -0.010865672 0.013643967 -0.027465072 -0.037327122 0.033103604 -0.05509996 0.008848329 0.023686515 0.036487862 -0.01834032 -0.009852845 -0.0265149 0.029463073 -0.027253436 -0.011464046 -0.029222183 -0.009189966 0.023728982 -0.010140896 -0.01496384 -0.0036396047 -0.078874715 0.017624572 -0.045099273 0.012889507 0.01919631 -0.029394202 0.0060192887 0.034951918 -0.010866902 -0.042471204 0.004325979 0.03489689 -0.045968294 -0.0724597 -0.00070623757 0.030607665 0.054262403 -0.04069141 -0.0039826334 -0.049193572 -0.0014387554 0.031456508 0.009016934 -0.04722901 0.021212226 -0.010654126 0.01010678 0.018374512 -0.017385235 0.033360235 -0.00017589108 0.03342802 0.009649874 -0.0026675572 -0.0008502644 -0.009596488 -0.02926548 -0.027938496 -0.024254257 0.03397119 -0.006411358 0.022989146 -0.0024891193 0.04450359 0.008262081 0.019068073 -0.03435389 -0.041119196 -0.019740883 0.03601932 -0.01311482 0.036638934 0.014229218 0.04242379 -0.011582548 0.03119868 -0.015827099 0.00084865943 -0.0083765555 -0.006426686 0.007216765 0.006168822 0.02545299 0.0071964236 0.037396155 -0.0029294994 -0.011953226 -0.0027219441 -0.009183762 0.0057893964 -0.029675262 0.0012605409 -0.024856612 0.015052439 0.05377718 -0.07564949 0.077389434 -0.021451319 -0.039834686 -0.018426433 0.04893459 -0.02069904 0.056571517 -0.06658908 0.005516621 0.008938013 -0.024130005 0.070502244 -0.021140698 0.053123318
65 -0.04828838 -0.0069076736 -0.0140654715 0.047361374 -0.0150409145 0.04237134 -0.017501548 -0.052793406 0.06613907 0.054132123 0.05638466 -0.0004447966 0.012729706 -0.04059682 0.0273986 -0.031999093 -0.015997814 -0.00080625096 0.019144885 0.028497621 -0.008960097 0.03422613 0.009190094 0.03785054 0.011670558 -0.03594467 -0.02452147 -0.011515345 0.0011637905 -0.009125471 0.0117190555 -0.021725409 0.02740112 -0.04178155 0.029032841 0.005845035 -0.013111207 0.040823456 -0.029768223 -0.022898043 -0.031618375 -0.027839527 -0.008341048 0.029436566 0.02664264 -0.040214665 -0.0037064678 -0.015023482 -0.043992434 -0.04822018 0.019547625 -0.07219198 0.03748535 -0.0018835787 0.009830141 -0.05267315 0.018006979 0.026512763 -0.052670915 0.03034797 0.024546534 0.03815404 -0.002728538 0.00069956656 0.04776415 -0.03697959 -0.024953982 0.0110783735 0.0028286565 0.0061416547 0.010126072 0.0126427915 0.020950852 -0.014735793 -0.01565602 -0.017141728 -0.04599348 0.01341936 0.010735066 0.012501019 -0.07087451 -0.0044954657 -0.019879993 -0.00014792435 0.005546915 -0.030203791 -0.05937125 -0.002791515 -0.0036402885 0.034428407 -0.019748421 -0.0020061657 0.0012464037 0.03764745 0.0331851 0.069266126 -0.00905908 0.019704683 -0.0054299734 -0.013257263 0.027626881 0.011404445 -0.049937945 0.022039823 -0.008455055 -0.0024954237 0.05598908 -0.023378385 0.05136904 -0.028696906 0.014841944 -0.027892863 0.0029169268 0.032183316 0.01376494 0.036107834 -0.0020041622 0.008886793 0.007292999 -0.017962018 -0.043162704 -0.054159187 0.0019618382 0.013821726 0.016549101 -0.03503388 -0.0030843834 -0.037172776 0.014102906 0.025818663 -0.0057071545 -0.031354513 -0.008824451 0.06450092 0.013675011 -0.0026229427 0.009177036 0.0073784934 -0.020985818 -0.01159941 -0.052458566 -0.007954241 0.005318244 -0.04850031 -0.059982024 -0.032677498 0.015711185 0.016905176 -0.030038644 0.014870677 -0.03262487 -0.00024718238 -0.040240105 -0.025619475 -0.018526506 -0.030754322 0.0246962 -0.01941483 -0.01709942 -0.031849235 0.017876232 0.041199055 0.0103920195 0.0033095572 0.009720022 -0.025014475 -0.0066726618 -0.04240406 -0.003854066 0.0024486247 0.020278502 -0.04669584 -0.048272055 -0.025476493 0.03302255 0.004062545 0.005151077 -0.009247888 -0.012926245 -0.034309343 0.023344915 0.0722528 -0.059963267 0.02211829 0.012237181 -0.03866025 0.015246586 0.02233549 -0.028287074 -0.0005176354 0.010239287 -0.032114625 -0.02104959 -0.07442903 -0.002492848 -0.0034535974 -0.032114454 0.03899376 -0.008811552 0.03189795 0.013720513 0.0020056923 -0.00060634554 0.03371371 -0.041107047 0.054913208 0.03045219 0.019861646 -0.077188835 0.044913437 0.04731807 -0.031657714 0.0011769423 0.053339016 -0.0046831216 0.007816497 -0.008712573 0.027717937 0.004508798 -0.030128296 0.027262896 0.006108717 -0.029625975 -0.022426778 -0.02617428 0.03695457 0.05862939 0.006042937 -0.046461422 0.019712644 -0.016174858 0.015482817 -0.03769501 -0.03605177 0.021539817 -0.013343181 0.06545549 0.002312308 0.019502677 0.007239911 0.019373376 -0.060105305 0.053901803 0.012469049 0.017342418 -0.04181711 0.018819006 0.032187007 0.04351909 0.0524196 0.05874703 -0.011644407 -0.063473344 0.001320158 -0.081791066 -0.021700723 0.015324169 0.029726192 0.030078113 0.0024366113 -0.027232949 0.04699491 0.072805226 -0.013567279 0.00041768493 0.049817923 -0.06058561 -0.029604215 0.044557802 0.05582207 -0.043836534 -0.017906567 0.035486475 0.01220595 -0.014169817 0.08142999 0.049555756 0.02673874 0.012003831 -0.02960616 0.020461671 -0.0037445487 -0.020536024 -0.00571746 0.017876683 -0.019736474 -0.008092386 -0.02698661 0.014932508 0.049711123 0.018198194 -0.059904736 0.046461906 0.045304 -0.0047829864 -0.02967072 -0.008688626 0.03993503 -0.030981552 -0.0482191 -0.04596736 -0.022283252 -0.01845806 -0.0025171568 -0.006308 0.024724238 -0.029590428 0.050863698 0.03562407 -0.008467485 -0.031179534 0.014898665 -0.048295487 0.0073536 0.012930004 -0.021006346 0.021192187 0.019927755 -0.061439663 0.0473085 -0.0043474985 0.039676312 -0.04546827 0.08341832 -0.057334192 0.018428715 0.031548325 -0.00029336812 0.0016393649 0.023320943 0.07252563 0.012393498 0.002632278 -0.036172904 0.00973341 -0.011492671 0.011738004 -0.021317296 -0.016301645 0.017191146 -0.02474043 0.04492632 0.04276245 -0.037506696 0.018877575 0.0060648434 0.04179051 -0.00277959 -0.04898211 0.035620924 0.05222694 0.02615829 0.030292287 -0.0023299996 -0.111224785 -0.037341148 -0.013748519 0.003883804 0.017160086 -0.019975645 -0.0042997007 0.010837287 0.01915102 0.012662476 0.030973332 -0.004716877 -0.0026604563 0.01517678 0.023220187 0.00528328 0.031030677 0.011254584 -0.031467523 -0.022470374 -0.05448651 -0.022454433 -0.005571168 0.050464507 0.003471781 -0.02928277 -0.022242073 0.074423485 0.0013725638 -0.03700978 -0.00065923977 -0.027848486 -0.004172252 0.038743556 -0.015890151 -0.023627995 0.005069447 0.01329186 -0.012580821 -0.0043599047 -0.0021449625 -0.054513272 -0.012998977 -0.0034656515 -0.02039697 -0.030141108 -0.00070878287 -0.039625306 -0.093532406 -0.05990115 0.029944494 0.0037258326 -0.024579486 -0.004972214 0.0027168007 -0.016424246 -0.002241499 0.007950958 -0.055504188 0.034187816 0.05238499 0.013887296 0.022538982 0.02315279 -0.015032852 -0.023502247 0.009463451 0.029866897 -0.0052641598 0.025478879 -0.011369948 -0.006229272 0.01711958 -0.019370265 -0.029487416 0.061663438 0.004886881 0.027687479 0.039420836 0.0052229394 0.022839602 -0.003848479 -0.059569962 0.0010414238 -0.028357819 -0.0068001733 0.015055496 -0.07432432 -0.011152238 -0.0041856747 -0.018428892 -0.0045820554 -0.012685281 0.011596431 -0.0023992492 -0.04688621 0.018683882 0.05125449 0.009342979 -0.024674596 -0.01356799 -0.034643713 -0.021575106 0.0009421954 -0.060033206 0.04450933 0.0075138276 -0.040449586 -0.013390911 -0.026927024 0.008028552 0.059511825 0.021210821 -0.07442481 0.032835286 0.011059591 0.05687496 0.033520054 0.017282065 -0.015211326 -0.023260994 -0.08013018 0.041337848 0.008386052 -0.0043997853 0.057527967 0.0155943725 -0.05186113 -0.04276919 -0.01049435 0.0034378355 0.05378012 0.048777968 -0.00024913074 -0.031730585 -0.027605802 -0.032599274 0.012487855 0.035925165 0.020444244 0.0148788495 0.07291845 0.035055608 0.004510669 -0.0049450784 0.06257867 0.039380293 -0.022247601 0.04400981 -0.013790675 -0.00021024405 -0.0013943264 -0.021106627 0.02565461 0.033829663 -0.005357043 0.021771139 -0.04445862 0.019987356 0.029562004 -0.025555644 0.01035746 0.048962533 0.04279755 -0.006692092 -0.031024083 0.011336876 0.009346547 0.012472845 0.03282543 0.0041768556 0.02620295 0.030861264 -0.007556311 0.051028173 0.004576941 -0.0006998623 0.010562283 0.019393818 -0.015130578 -0.020645492 0.04096078 -0.011413494 0.0016759549 -0.017427744 -0.02019791 -0.035201687 -0.009201281 -0.03606734 -0.026493464 0.011730748 0.031628862 -0.03004423 -0.03091075 0.024644796 -0.009986429 0.021238647 0.03894583 0.007127658 -0.035086516 -0.0028683 -0.016617648 -0.032984026 0.019276606 0.057902083 0.024829483 -0.008791327 0.07209483 0.07486467 0.021298787 0.015714401 0.016401114 -0.003115572 -0.04350886 0.0011560523 0.0324046 -0.006485335 0.0022733165 0.0031416554 0.00391113 -0.00042612414 -0.08172669 0.000105028965 0.076396756 0.017555019 -0.0055723134 0.018312274 0.03123409 0.007459492 0.036877546 0.008639869 0.06717261 -0.0050469358 -0.027363999 0.0101421485 -0.018402375 0.08072831 -0.02699683 -0.03649495 0.025249152 -0.007835249 -0.024353735 0.01962348 0.002571374 -0.0013999998 0.023896877 0.048130274 -0.005368474 -0.057523377 -0.02450955 0.003776667 -0.02010177 -0.026208311 -0.026161883 0.014694407 0.028489491 -0.03230055 0.034620326 0.008434867 0.03742975 -0.008098348 -0.03442081 -0.051526055 -0.023289423 0.074310474 -0.034071233 0.00026725695 0.0068849674 0.0013130625 -0.023548571 0.040705733 0.026498856 -0.004011522 -0.033413596 0.0078074085 -0.028516687 -0.06162875 -0.03571132 0.02174204 -0.012438679 -0.013845369 0.029071556 0.052614804 -0.054861296 0.0020230205 0.027543595 0.071594246 -0.01556727 0.016339129 -0.011946278 0.029288119 0.054686148 -0.009950624 0.03427828 0.03505986 0.005024208 -0.047863156 0.020566128 0.004562856 0.015815131 -0.032306958 0.040983208 -0.028759211 0.0055752103 0.048919007 -0.018083246 -0.013645427 0.02463269 -0.010225502 -0.032550547 -0.017952226 -0.012749175 -0.0073197014 0.0123635745 -0.04966899 0.029816758 0.040232647 0.02214339 0.021291077 -0.0074997363 0.007629988 -0.0045504277 -0.034591842 -0.007465156 -0.017220177 -0.006730898 -0.018278958 0.010474702 0.0066838744 0.02573881 -0.015457615 -0.0113119185 0.04578908 -0.0029302377 0.04540068 -0.03427467 0.0063485866 -0.043578573 0.030449461 0.06812561 0.023889411 -0.00044830993 0.05068548 0.045663122 -0.026356637 -0.024593895 0.00033641516 -0.0048652194 0.023728479 0.0054462776 0.028250648 -0.009974322 -0.0033072217 0.023447791 0.013981311 0.06288251 0.06338819 -0.012245636 -0.066761605 -0.01586217 0.02312269 -0.008272859 0.022976242 0.024248127 -0.03191157 0.013625704 -0.04241287 0.026182087 -0.004524478 0.037020594 0.007192346 0.02922164 0.0069096372 0.023852965 0.053716414 0.026241265 0.016988648 0.0040778955 -0.0557958 -0.026404286 0.04615228 0.0123207765 0.0016232461 -0.031913657 -0.043744806 -0.0028029184 0.023207704 -0.0062621944 -0.029337494 -0.05274169 0.041557115 -0.01432456 -0.010503978 -0.0015814297 -0.0057505663 -0.016484601 -0.02115361 -0.014613596 0.0130993435 0.011198376 -0.01923468 -0.0048358473 0.051842533 -0.03533528 0.0070498744 -0.027516218 0.0052846824 -0.019835424 -0.04621647 -0.025812909 0.006731925 0.006527554 0.028631708 -0.027349183 -0.000936261 0.062854744 -0.006719097 -0.017732853 0.052709874 0.05513604 0.03577283 -0.066688366 0.024888067 -0.0022047774 0.051475607 0.012209211 0.039559204 0.00074201555 0.0449183 -0.012507143 0.011316293 -0.011054327 -0.026203359 0.0016720261 -0.019420307 -0.021000616 -0.016919486 -0.009279961 0.039807193 -0.008010501 -0.0061556846 -0.04910523 -0.032482974 0.038228765 0.0033045218 -0.0029088056 0.016233208 -0.019007294 0.05903476 -0.012546565 -0.01855159 -0.06892953 0.044073682 0.014433331 0.014919892 0.043976706 0.008740354 -0.0019483867 -0.04535349 0.021157641 -0.004899841 -0.00045887035 0.022093315 -0.035456654 0.0007589403 -0.004232937 0.027857615 0.030742012 0.014397386 -0.022940401 0.05616997 0.023873022 -0.0018716218 -0.011065351 0.033292655 -0.03736147 0.00497901 -0.03564337 -0.022097385 -0.037947264 -0.007738922 -0.014199732 0.02704044 -0.01426954 0.011537588 0.0042817066 0.0353128 -0.0068486696 0.044121783 -0.009010886 -0.021893054 0.0230111 0.004513728 0.022060912 -0.016949741 0.057803474 0.019035133 -0.03182948 -0.023276994 0.0043181027 0.007203802 -0.022925146 -0.0088931145 -0.03455684 0.036774173 0.0086775925 0.005519762 0.010325594 -0.04594369 -0.010035435 -0.041002687 0.012872802 0.012662776 -0.017903622 -0.040365767 0.009854027 -0.027023653 0.044362545 -0.0349328 0.005599543 0.015231411 0.0071120528 -0.05114934 -0.007816664 0.024402512 0.012004262 -0.034344494 0.04286014 -0.010109796 -0.005709466 -0.015996708 -0.04634077 -0.005022421 0.004918591 -0.033610012 0.04775431 -0.022395054 -0.015099864 0.041068297 0.001517514 -0.04008896 0.0011163516 -0.02421531 -0.039784834 0.06032722 0.008060512 0.04513136 0.019536966 0.06922267 -0.0012401138 -0.005273873 -0.022340689 -0.018350275 -0.030555937 0.05667442 0.05804524 -0.03068844 0.01253567 -0.07446112 0.024900034 -0.058375835 0.007872563 0.050649688 -0.03958541 0.019066371 -0.022807356 0.013619192 0.0041636713 0.051110134 -0.0011989311 0.004267292 0.020741662 -0.0074299257 0.05276739 0.043293916 0.0033242558 -0.029883528 -0.0007766624 -0.01784303 -0.0027778707 0.042078193 0.0036679045 0.02060922 -0.025662191 -0.030660896 0.017841103 -0.008028615 0.032353204 0.015533905 0.046853766 -0.027292507 0.023661938 -0.023950305 -0.017694477 -0.028394952 -0.003034251 -0.017000766 -0.0036763211 -0.03377508 0.00055566925 0.020964326 0.013491208 -0.029108407 0.030105542 -0.004146401 0.004653337 0.053228427 0.040767483 0.051123008 -0.043259252 -0.043660797 -0.019284585 0.0061428742 0.040023733 0.02532501 -0.0007996682 0.03926729 -0.042663213 -0.002939512 0.0002238758 0.046725277 -0.044108666 -0.048545342 0.062282033 -0.03385834 0.0054835286 -0.010815305 -0.012119082 0.035147965 -0.005611359 -0.015028827 0.007860665 0.0052835285 0.05800271 0.06353881 -0.046303626 0.02650249 0.011414741 0.052986182 -0.015072312 -0.02740238 -0.008672711 0.0012205375 0.0034384644 0.065339476 0.028100466 0.013820005 0.035461575 0.011863425 0.0060980646 -0.032145612 -0.03583679 -0.020962965 0.073683225 0.0071305647 -0.030452697 -0.028975962 0.008044153 -0.0065268055 -0.049031492 0.024607098 0.020395102 -0.008187382 0.0070579457 0.008128488 0.005284739 -0.076093994 -0.028340101 0.03935922 -0.05307686
70_79_83 -0.043595932 -0.023571096 0.079348825 -0.047182277 0.0011927042 -0.0006343474 -0.06337515 0.0053838803 -0.019443488 -0.052370105 -0.03225265 0.030004768 -0.01491915 -0.003844342 -0.023597866 -0.0036677904 -0.040801074 -0.0046094554 -0.020701291 -0.055877034 -0.037018634 -0.04004245 -0.02222263 -0.0022907811 -0.038346328 -0.040546592 -0.053605158 0.010881062 0.027128078 0.02340868 -0.043237362 -0.012295682 0.0092727775 -0.057594594 0.030949134 -0.0036369993 0.040397353 -0.00087358436 0.041262187 0.02080656 0.012949868 -0.008905392 -0.005359703 0.008574316 -0.011903117 0.02021847 0.028550496 -0.060371872 0.0663307 0.039432563 0.014525107 0.008321419 -0.00683877 -0.024417764 0.056988228 -0.037336774 0.009479185 0.054554906 0.037316896 0.00672429 0.015190166 -0.0070236623 -0.008094372 -0.018707313 0.031802543 0.025853328 0.004283786 -0.051917836 0.011942258 -0.02987675 -0.027128577 0.004553587 0.012782624 0.0036939108 0.0029285369 0.002122433 0.06385338 -0.05591518 -0.019238876 -0.0014279496 0.02657515 0.0055307997 -0.00012929417 0.07892656 0.021750895 0.05248015 0.012110939 -0.05297636 0.022763962 -0.00919446 -0.08248207 -0.008048082 -0.022658888 0.05132073 0.00035281054 -0.024750393 -0.07561644 -0.00046933873 -0.05228708 0.0034836645 -0.032127816 0.033288963 -0.059016466 -0.014529446 -0.021416457 0.024632527 -0.011207392 0.04087002 -0.038789712 0.04229065 -0.021680122 -0.037030853 -0.0037551164 0.004524684 0.029227253 -0.0024485297 -0.048724096 -0.027043413 -0.030783124 -0.0049890447 -0.01692817 0.0026025646 -0.003763368 -0.012957534 -0.03027933 -0.047202215 -0.00872596 -0.0029662962 -0.06350196 -0.067643724 -0.011556498 -0.030383542 -0.04190406 0.007208251 0.010596498 -0.024453156 0.021766316 -0.025330441 0.0067912308 -0.0053054933 -0.008862274 -0.005963177 -0.035028905 -0.0008831256 0.006482525 -0.055272836 -0.02559247 -0.011381144 0.02453149 0.018053673 0.006906604 -0.03639897 0.026497547 0.03735559 -0.043798923 -0.021517545 -0.01106513 0.013536717 0.0385916 -0.022501854 -0.0031770975 -0.056834277 0.021411832 0.006566085 -0.0140906265 0.04200849 0.040597584 -0.0082895355 -0.034575883 -0.0513812 -0.008867184 0.014963321 -0.0009314808 0.012728636 0.0013097274 -0.07223352 -0.0026828544 0.00052708224 -0.0035031615 0.006801699 0.0234033 0.05134641 -0.008418398 -0.045144446 0.011671623 -0.059454616 -0.06569056 -0.022892931 -0.0259882 0.050725278 0.004650392 0.004536032 -0.003578061 -0.03287529 -0.028810808 0.029347092 -0.03395009 -0.039439272 -0.0075749774 0.014022839 0.03382718 -0.027769295 -0.00237478 0.07548142 0.036741447 0.020142337 0.00046354262 0.018384578 0.0008426567 0.01030505 0.058648 0.037631318 -0.012958564 0.0019976492 -0.011586262 0.0072920374 -0.0051070102 -0.019217275 0.058123264 0.0058744503 -0.0021738836 -0.023518771 -0.031882234 -0.009741921 0.00093980285 0.021978082 -0.030859333 -0.040117048 -0.028977191 0.004400396 0.024096485 -0.050957415 -0.0133108515 0.022831148 -0.014728002 -0.026793826 -0.0019202492 0.00042746012 0.02036349 0.039646048 0.03601208 -0.008220002 -0.013032094 -0.010796534 -0.00339837 -0.060689185 -0.046932288 0.04351812 0.00030716293 -0.014931156 0.020345127 0.04227652 0.03416626 -0.011938045 0.027410997 0.04022387 -0.019261656 -0.01902736 -0.012730847 -0.033564594 -0.0027278413 0.019203892 -0.04055741 -0.02602685 0.0050406656 0.0001128994 0.022759754 -0.050417606 0.023337431 0.031024633 -0.030244306 -0.036777213 0.00043359533 -0.011516689 -0.04210405 0.048741527 0.06725336 -0.03101758 -0.0017120036 -6.703414e-05 0.0060201045 0.007834933 -0.002272959 0.03015305 0.057538196 0.0040071136 0.021450136 -0.0026447843 -0.020279454 -0.059847727 -0.07611663 0.006474162 -0.009658332 0.0043135537 0.017713942 -0.018086297 0.03295336 -0.03190424 -0.034022026 0.020239532 -0.021288082 0.0040832167 0.014114555 0.014140043 0.049501255 -0.06783145 -0.008210872 0.010500609 0.027103126 0.026081292 -0.009509672 -0.038782865 -0.06930038 0.013111585 0.0028965676 -0.037347775 -0.020725776 0.017443052 0.07175353 -0.018552206 -0.01333454 0.0034032806 0.045022 0.0460581 -0.0025199773 -0.0008400095 -0.06118045 -0.030097567 -0.04854579 -0.04653797 0.0145759545 0.04772842 -0.004733374 -0.020767739 0.027663011 -0.03700454 0.06361695 0.021050738 0.0041809543 -0.013014753 0.03447222 -0.026648648 -0.040572844 0.010331581 -0.024057504 -0.009479231 -0.004419154 0.03639097 0.0049125794 -0.03241593 0.013033713 -0.053869925 -0.02321873 0.003169226 0.053803615 0.035196785 0.04351898 -0.030249666 0.022900725 0.034924146 -0.029115587 -0.035404846 -0.016449528 -0.02077222 -0.041530743 -0.051209256 0.05518027 -0.07535747 0.004562763 0.020014228 0.012307672 -0.039862487 0.01048295 0.023640074 -0.008351941 -0.019496419 -0.033289 0.029051708 0.028458502 0.04373693 -0.014777878 -0.03904454 0.019014452 0.0062900875 0.06420327 -0.009518968 0.01168963 -0.00341226 0.002553854 0.010104206 0.031668227 0.018205604 -0.040119287 -0.006436214 -0.019357726 -0.029357752 -0.0008641245 -0.042697504 -0.0113839125 0.007177489 -0.012659005 -0.0098083755 -0.0007726721 -0.03182232 -0.0014606402 -0.002212833 -0.029838372 0.033748873 -0.0028510368 -0.01631176 -0.024808701 0.016934697 -0.0016399043 -0.024569113 0.00047416298 -0.057529487 0.039483648 -0.007630673 0.03381884 -0.016258422 0.013290065 -0.04169866 -0.012731233 -0.037395723 -0.055169426 0.04835608 -0.022672242 0.046156447 -0.012946303 0.015641034 -0.0154404575 -0.008154484 0.013991011 0.0338809 0.005287368 -0.011352774 -0.016995428 -0.058320954 -0.0045307805 -0.026953781 -0.009562196 -0.03300055 -0.0018132011 -0.0008367177 0.048554953 0.0015210971 -0.027574768 -0.05850227 -0.0027898825 -0.002537568 -0.008949399 -0.012455134 -0.0051877317 0.030268464 -0.06266292 -0.014094065 -0.016863534 -0.05334835 0.037110146 -0.0034117957 -0.0080659725 0.005175968 0.00054151914 -0.043537434 -0.020577915 0.012105383 -0.035309073 -0.0026684315 0.020171013 0.0051360875 -0.037890624 0.035761233 -0.010415057 -0.07581339 0.030048968 -0.050683778 0.044564947 0.040712085 0.06620575 0.042493142 0.0017266858 -0.029044641 -0.010960446 -0.0235159 0.02393807 0.0078146355 -0.053632848 0.042415764 0.056170158 0.004766289 0.023036305 -0.05186157 0.013847077 -0.06573276 0.045769177 -0.018818028 -0.028859671 0.026458032 0.026199356 0.02302832 0.019129097 -0.0063507706 -0.018785033 0.037230186 0.025664974 -0.0047898944 -0.0064767348 -0.026137155 0.009425862 0.03214471 0.052859996 0.031469047 -0.053250927 0.07100337 0.05529389 0.0018941638 -0.011159921 0.015974184 -0.013698248 0.024516921 -0.031401914 -0.0676399 -0.034220897 0.049171112 -0.0013304305 0.038436323 -0.013501414 0.008119164 0.051989287 0.02331058 0.02968101 -0.0065153036 0.015527894 -0.010627683 -0.03285339 -0.042300705 0.007862429 0.005104277 -0.045791928 -0.071728654 -0.008836827 0.009346749 -0.034898873 -0.049977295 -0.011362738 -0.0044859303 -0.039335568 0.012473357 -0.030624192 -0.05663856 -0.0044143433 0.039006777 0.0706483 -0.0038418188 -0.05156755 0.010949745 -0.07127867 0.03370137 0.00936244 0.019581782 -0.07767804 0.0065355436 0.017419327 -0.038293906 -0.026155544 0.017849436 0.016861543 0.010004647 0.035454445 -0.053670328 0.010164139 0.014210787 -0.055104055 0.028024856 -0.03047585 0.014828979 0.04973686 0.0349422 -0.025977494 0.046118524 0.027727807 0.017182266 0.015942113 -0.044622965 -0.005302042 -0.004379885 -0.08357161 -0.060575888 0.022849226 0.007653508 -0.01791694 0.066600494 0.0004077731 0.004779359 -0.017403366 -0.020125873 -0.024809873 0.03298103 -0.016458984 0.004433664 -0.023967417 0.007970803 -0.04009425 0.029675517 -0.0014190752 -0.029639414 0.027873157 0.0008075686 -0.012589627 0.042330742 0.0031779255 -0.036583435 0.026506033 0.018201133 -0.06503276 -0.020418676 0.042220797 0.048450314 -0.021426503 0.043451875 0.012594867 -0.031618394 -0.046217047 0.012906357 0.015432155 -0.0111987665 -0.053015567 -0.020086352 0.0012031194 -0.0065319045 0.03938668 -0.02215873 0.0027863123 -0.03319921 0.021161009 0.010490088 0.008318213 0.02345093 0.021969154 0.033122733 0.029681595 0.03400511 -0.010710892 0.0025002507 0.0071590194 0.019349169 -0.021863814 -0.00079774135 0.08953312 -0.026805885 -0.011759097 -0.059813373 -0.053255424 0.008628778 -0.027622757 0.01004134 -0.05024533 0.019381756 0.05956844 0.0038653607 -0.0040649856 0.011949158 0.037580416 0.0097900275 -0.005621683 0.0067467624 0.03646756 -0.0010943442 -0.035599995 0.020692283 -0.007653996 0.009923858 0.07365649 0.012845028 -0.022437755 0.023289207 -0.08157414 0.0044579203 0.0030212316 0.072967656 -0.011818413 -0.043412276 -0.00011046365 0.0026163047 0.0031533756 0.016650574 -0.027537266 0.042666487 -0.049631603 -0.07079448 0.004407338 -0.00036216638 0.0035918818 -0.02296379 0.014287478 -0.010252871 -0.024989484 -0.0074218325 0.026175885 -0.02578056 -0.0061070425 0.0003899123 -0.005971082 -0.032371707 -0.0065098577 0.006886308 -0.0027199406 -0.043288644 -0.03725856 -0.014318931 0.04503447 -0.014852191 0.008668835 0.018375797 0.012950364 0.05162804 -0.02796576 -0.0037235317 0.04385982 -0.000858959 -0.06550586 0.014946712 0.01174695 -0.010309444 0.025608748 0.0404248 -0.013063145 -0.005429105 0.020827763 0.016261457 -0.022757238 -0.013553193 -0.041060142 -0.009777704 -0.031968247 -0.026199713 -0.027432404 0.06173568 -0.0155872265 0.01738947 0.019284373 0.027293306 -0.03621136 -0.066215456 -0.011092989 -0.04028163 0.06553296 0.03806268 0.045455944 0.015387628 0.054385472 -0.050201066 -0.016113568 0.016083548 0.024232395 0.021719504 0.012861837 -0.009771821 -0.0056121657 -0.005830858 0.014632127 -0.007072449 0.072714426 0.015410856 0.008990517 0.024838729 -0.015126432 0.0029952317 -0.018046059 -0.045681488 0.05198562 -0.008687305 0.021753974 0.06510614 -0.04962887 -0.003197941 -0.023165355 -0.02415892 0.025701858 0.016782163 -0.00076999195 -0.026113933 0.010182133 -0.029901981 0.07989274 0.038611207 0.0026590223 0.021488445 -0.03796774 -0.025421614 -0.002022258 0.03568807 -0.013599612 -0.038156323 0.0022544253 0.042239882 0.0052345064 -0.054329213 -0.017480336 -0.016241888 -0.070783585 -0.013862181 0.028564002 0.011059713 0.003324465 0.015408764 -0.0075624045 -0.03519106 -0.014549131 0.040944904 0.028838648 0.014792496 -0.07612393 0.01565941 0.010485075 0.039618284 0.047871795 0.037482757 -0.031596433 0.014396355 -0.001836111 -0.013917651 -0.017466558 -0.00885864 0.005435169 -0.04454351 -0.037781704 -0.037868645 -0.016412416 0.005381119 0.022568023 0.010041358 0.043723248 -0.0054258117 0.010286072 0.018309142 -0.060619205 -0.028339328 0.06422516 0.026564129 0.04879913 0.03258894 0.081119336 0.027079336 0.006255778 0.0140009485 0.02830723 -0.046622004 0.018156167 0.03843765 -0.026531272 0.00094653707 0.0011808198 0.008859952 -0.009679798 -0.030162977 0.02903293 -0.006120222 0.039646607 -0.024260795 -0.013801773 0.01742673 0.0004030939 -0.041758806 0.01900044 -0.020669585 0.021390136 0.011622098 -0.02527746 -0.028059954 0.021617658 -0.011425661 0.008645081 0.041729316 -0.009241856 -0.016107487 0.005055609 -0.00089191436 0.008858439 0.0075193015 0.011169902 -0.056116104 0.0013863441 0.023180814 0.0006975518 0.044784494 0.026012529 -0.032447033 0.050743047 0.015140566 0.04333595 0.025627738 -0.045785286 0.00014812236 -0.05262998 0.047226258 0.025679085 0.0033542032 -0.0019238833 0.014939248 0.013333163 0.012367285 0.006307368 0.061772577 -0.025070814 0.014752495 -0.032258086 0.02398886 0.00029154596 -0.0059330733 -0.05180985 -0.01970782 0.008113705 0.020016674 -0.015254115 0.06094915 0.008482212 0.011232547 0.050808184 -0.05538744 0.064725555 -0.016416792 0.009792855 -0.009825977 -0.011378327 -0.018893607 0.026779603 -0.044060443 0.015246453 0.00032719082 0.077374674 0.003967841 0.037010223 -0.013337541 -0.0233402 0.0035762265 0.04464869 -0.005766474 -0.0017857722 -0.0031793462 0.011313247 0.0045819986 0.066045724 -0.018808646 0.0334984 0.017229566 0.0025956745 0.016490875 -0.04360605 0.019732654 -0.016049206 0.054467037 0.030142162 -0.030371862 0.012869015 -0.025008 0.0084517 -0.021938931 -0.009663005 -0.011459734 0.013587076 0.004927227 0.018041914 0.031011295 -0.06868675 0.021303412 0.022458198 0.023905028 0.04917071 -0.009700369 0.0011766782 0.017730866 -0.010298724 -0.009373371 -0.02802284 0.0011103414 0.048677407 -0.014232418 -0.008169109 -0.043599576 -0.06467116 -0.037546407 -0.02638812 -0.017159117 0.040053632 0.00013932405 -0.013830875 -0.02242903 0.015076891 0.007792583 -0.013675629 -0.011262426 -0.08141718 0.0039817933 0.02603876 0.028351633 -0.0053128754 0.008394791 -0.024159143 -0.03434705 0.023490937 0.009862273 0.0013851386 -0.022829503 -0.037979983 -0.0003719492 0.027107403 -0.0036944554 0.008663103 0.002540679 0.01921655 -0.06916245 0.00011078128 -0.030056493 -0.039194725 -0.00048234622 0.0057114516 0.0070690694 -0.0061807684 -0.018951468 -0.001215744 0.012950504 0.017239144 -0.0559428
67 0.025664972 -0.026732618 0.03458568 0.003652505 0.023702813 0.0014331756 -0.04045422 7.986591e-05 0.04137307 0.013030896 0.01632048 -0.02057232 0.047556356 0.012525786 -0.0077714776 0.025590854 -0.032310545 0.022009367 -0.016612666 0.00894335 -0.080476746 -0.02846562 0.016707603 -0.020112306 -0.008847039 -0.0377935 0.04873815 0.07700322 -0.012806304 0.011942117 -0.024629498 0.00094692945 -0.04110172 -0.05337452 0.014791243 -0.017213874 0.017968839 0.08119862 -0.055129178 0.04757352 0.018572632 -0.0015497162 -0.011175312 -0.01634148 -0.039661426 -0.043175485 -0.026807575 -0.01941576 -0.035983037 -0.025577966 0.047851305 0.044261288 -0.019559188 -0.010176114 0.0022997363 -0.024232155 0.035701975 -0.03489413 0.08443526 0.0069146515 0.05425769 0.011439487 -0.00946365 0.0078701945 0.036344834 -0.0005050285 -0.0129581345 -0.049174044 0.0013122048 0.04987559 0.014792764 -0.015944557 -0.0103605 -0.015277719 0.009234464 -0.021831892 -0.007567924 -0.01996926 -0.031428512 0.0090285875 -0.027889648 0.04769236 -0.039445426 0.017010324 0.054358896 0.06401891 0.027332062 0.0007101882 0.020102495 0.05986466 -0.012619776 -0.025099369 0.03724699 0.02706401 0.029331453 -0.036120318 -0.025869317 -0.017241739 0.011391142 0.036152203 0.030881468 -0.08555023 0.03219056 -0.06200479 -0.014105253 -0.0049495515 -0.0054229842 -0.021226227 0.025820447 -0.023773244 -0.033434767 -0.0015684132 0.0008087231 0.015663296 -0.014907384 0.008273371 -0.018618094 -0.018841226 0.00454887 -0.040273786 -0.021914616 0.060678385 -0.023494774 0.035627514 0.013470905 0.0076367743 0.0285585 -0.01635578 0.034090433 -0.037011676 -0.019168952 -0.029841857 -0.029032527 -0.026164494 -0.015505603 -0.035690125 -0.024476971 -0.017390983 0.03598051 0.06573975 0.055769578 0.010554502 0.018083189 0.027804019 0.004312791 -0.022789117 -0.012502958 0.012496132 0.038918037 -0.003687879 0.025759665 0.038420606 0.013994534 -0.03740314 -0.020412315 0.011552344 0.010130891 0.02860083 -0.000930902 0.054076247 -0.0110213915 -0.007563561 -0.015386068 0.030807255 -0.034752276 0.030327229 0.03120871 -0.04491388 0.022270316 -0.013557168 -0.022904743 -0.005971145 0.020508118 -0.024460193 -0.035367094 -0.009758577 -0.057601035 0.038448423 0.011752726 -0.02588734 -0.0074908882 -0.029694853 -0.002434353 -0.0072103892 -0.09379127 -0.03466482 -0.014780636 -0.037835605 -0.042193834 -0.036078304 0.007744135 0.015912103 0.0140875885 -0.02420584 -0.009026653 0.036071144 0.023391921 0.008784718 0.036865506 0.032306023 0.0050767874 0.011194987 -0.00978136 -0.016513508 -0.0041480316 -0.03197838 -0.037256863 -0.045952175 -0.022243679 0.032474965 -0.01777695 -0.027846687 -0.032703836 -0.026209947 0.027071089 -0.0764891 -0.0036706163 -0.01007869 -0.0031102705 0.022452762 -0.043488838 -0.025871001 -0.0100180255 0.04272535 0.0487815 0.0060533737 0.022270229 -0.05514604 -0.006986101 0.029794315 0.033775307 0.007885948 -0.008811576 0.010365927 -0.038499273 -0.030932503 -0.021994874 0.0028404973 0.005309631 0.053441677 -0.007647288 0.01697057 0.022701828 -0.0015900492 -0.077992804 0.07532639 -0.035143178 0.028933164 0.04056309 0.00827048 0.082183965 0.01848178 0.028234074 0.016313583 -0.019981284 0.012481876 -0.0012792805 -0.016562963 -0.015318137 -0.018547468 0.025274595 0.00088724843 -0.049708437 0.0125309555 0.013395991 0.03107478 -0.0064632813 -0.06570344 -0.011301889 0.015496433 -0.0317773 -0.039847434 -0.017371327 0.029999766 -0.047863897 -0.008966405 0.037572186 -0.026582655 0.010700396 0.0047306963 0.016355941 -0.07806202 0.020015912 -0.01630626 -0.01514042 -0.0054090256 -0.022199037 0.013849728 -0.0067302436 0.0044202283 0.027479203 -0.024210135 -0.008535182 0.023256477 0.05659946 -0.04202171 0.048448667 0.0425557 -0.04426877 0.012269784 0.013385758 0.021827422 0.0074929753 0.02752432 -0.0020918213 0.035898793 -0.0006637182 -0.0064623705 -0.010440117 0.037238557 0.0039485875 0.026884727 0.022571096 -0.012318364 -0.0628635 0.03272883 0.028169911 0.027223608 0.022898823 -0.007239765 0.012389457 0.018251635 0.007824601 -0.051938556 0.034400422 -0.0061887857 0.06557454 -0.031182323 -0.013313563 -0.015555867 -0.026424743 -0.035242423 0.043794636 -0.040730778 -0.022475809 0.005151652 -0.019303128 0.0024462752 0.01857376 0.035044275 -0.061438575 -0.0019969514 0.009738983 0.03663395 0.031630855 0.029236356 0.0279902 -0.037984446 -0.01299293 0.022471653 -0.049243025 -0.003484013 0.029185466 -0.009088207 0.007967522 -0.015880197 0.03207317 -0.014261274 0.031254638 -0.0036612349 0.0040712534 -0.0048620426 0.008243288 -0.05483311 0.029859789 0.0024802848 -0.008182522 -0.010787833 0.002979145 -0.0067686653 -0.0032494545 0.026233675 -0.08135766 0.040823728 -0.012395287 -0.03489487 0.037993174 -0.047276255 -0.002105083 0.01719007 0.00462451 0.05671619 -0.05018969 -0.005244356 -0.0028700577 -0.027403727 -0.020817146 -0.0093 -0.0055110543 -0.004669792 -0.09356085 -0.021711579 0.024178896 0.0533436 0.028869813 0.023176104 -0.0149911055 -0.02276983 0.023622721 -0.006112992 0.0063176714 0.034476265 0.050530683 0.013290545 -0.0799374 -0.025093414 0.0062567214 -0.01971932 0.01673836 -0.03013433 -0.001658262 0.0014066822 -0.045851283 -0.030872483 0.009021236 -0.020381086 0.011041193 0.013918389 -0.033087388 -0.036346883 -0.024726752 -0.011739402 -0.007873164 0.022579426 0.026649963 0.015561049 0.032181665 -0.016460272 0.021444267 -0.031781994 0.010651912 -0.035366636 -0.0030729878 0.061253086 0.008471368 0.032868225 0.008185325 -0.013099447 0.0033242574 0.013288118 0.021288905 0.046290543 0.09269625 -0.013488825 -0.030448668 0.025978094 -0.013938437 0.0142180035 0.058774553 0.009185666 0.026569637 -0.010673774 0.0037756457 -0.015341905 0.029684687 0.016133552 -0.009471514 -0.024184586 0.010902242 -0.016994681 0.040226143 0.023929933 -0.040093254 -0.04565666 0.0019030881 0.031304028 0.023788638 -0.021766087 0.005660599 -0.0012854672 -0.019340865 0.031583708 0.0076190266 0.040863268 -0.014510521 -0.0032953583 0.016367236 0.020066047 -0.03774863 0.033520225 -0.009369964 0.0016885422 0.004393996 -0.030018395 0.032847352 0.027042478 -0.041443698 0.011857179 -0.026125008 0.049978513 0.06058222 -0.071654774 0.047564354 0.062416892 -6.479913e-05 0.035808556 0.024221744 -0.03324907 -0.064288646 -0.012900652 0.059209827 -0.024154516 0.003144276 -0.008691029 -0.018213179 0.029705048 0.038871493 0.02632332 0.021428946 -0.025256919 -0.001354001 0.009815885 0.025738569 0.00691949 -0.005949941 -0.0045928606 -0.012032952 0.0086746225 0.005331751 0.04303567 0.003211416 0.04388292 -0.0001324437 0.053372752 -0.013603536 0.020276291 0.043293077 -0.022444425 -0.0052706883 0.025502548 -0.038601704 0.0535533 -0.041761626 -0.02532392 0.024921546 -0.07013896 0.0034041395 0.0032995862 0.042320713 0.0113961585 -0.012963181 0.013042002 0.0034752225 0.015365466 0.01922715 5.256043e-05 0.011264896 -0.057777084 0.006092366 -0.022390423 0.05633456 0.032957125 -0.0018273307 0.056659028 0.006829043 -0.065650545 0.0053637708 0.022281867 0.0031412507 -0.021966217 0.06666027 0.021397585 0.050926354 0.005493224 -0.008114773 0.0067561558 -0.018166699 0.019929493 0.05507096 0.014461359 0.047098584 0.055952247 -0.023228807 -0.038608607 0.019120226 0.026767937 -0.018895423 -0.03921149 -0.052634582 -0.03402678 0.029959429 0.0010181454 -0.045241054 -0.07779224 0.018978978 -0.030723687 0.028597709 0.0026908836 -0.010345911 -0.0077843308 -0.027757423 -0.025176197 -0.007967094 0.04043996 -0.031608008 0.054319926 0.0034620638 -0.012059624 -0.0041593504 -0.004964721 -0.08937144 -0.018131284 0.020903645 -0.025024401 -0.032112002 -0.0071278135 0.02100254 -0.032002535 -0.021709919 -0.06002094 0.04847089 -0.007980419 -0.046225574 -0.009091168 -0.03934702 -0.037654314 -0.0706258 0.0356548 -0.02471166 -0.031417634 -0.024889695 0.01865583 0.0048699067 -0.029610699 0.0067695184 -0.04106073 0.058048647 0.03046932 -0.024148181 0.0045749326 0.075430416 -0.029048754 -0.065760314 -0.057216708 -0.03858932 -0.010750611 -0.03434126 -0.033715878 0.0040442627 -0.0294672 -0.0024461935 -0.026743505 0.024302416 -0.044137124 0.034413055 0.012464081 -0.081703655 0.044946693 -0.06886632 0.006496519 -0.014320636 -0.02243613 0.010116109 0.051794853 0.033443056 -0.005535743 -0.027884685 0.03469912 0.008561215 0.013226257 0.021940334 -0.028544454 0.040946737 0.032640714 0.003012065 -0.00835377 0.014149043 0.086024 -0.019250602 0.050649814 -0.073096626 -0.0107190795 0.034355346 -0.021865355 -0.031736434 0.036258593 0.010868644 0.04511388 0.00371302 0.01276614 -0.01775297 0.04877131 -0.013559291 0.032809883 0.03548306 0.04003768 0.060173947 0.022542685 0.027713662 -0.0393463 0.00741501 -0.051066376 -0.027183656 -0.011579152 0.009366816 0.0012525816 0.008762094 0.011708982 -0.010358559 0.013478641 -0.027537262 -0.05284355 0.036834847 -0.05739722 -0.01398043 0.030042889 -0.030761873 0.03674646 0.01402039 0.0007124215 0.069997735 -0.019213185 0.06767303 -0.020616569 0.02220416 -0.004129829 -0.028662503 0.016216336 -0.00874158 0.028208798 0.023023717 -0.02925764 -0.022424627 -0.025912084 0.0028408899 0.019266162 0.005470229 -0.014540683 -0.027024435 0.025657795 -0.06611318 0.00011678567 0.006089505 0.0162938 -0.023124866 -0.009177209 -0.04291454 -0.035868887 0.001611087 0.049318444 0.004397514 0.012358744 -0.019775784 0.04885099 0.04185153 0.016559169 0.06934873 0.03019496 0.018392816 -0.017149191 -0.022399819 0.015487284 -0.008474559 0.03071455 0.03243207 -0.0005216704 -0.007662528 -0.013209301 -0.005907756 -0.03800017 0.037411172 -0.019477533 0.0055676093 0.049787827 0.009090647 -0.015512458 -0.0074510225 -0.009213888 0.027527394 -0.06570923 0.06128749 0.044263862 -0.002933582 0.008514584 0.0070816283 0.0058627576 0.013369125 -0.072024204 0.021368342 -0.02184057 0.0022073723 -0.03669735 -0.0005477977 0.0015675498 -0.02817642 -0.06595265 0.011802785 -0.070952035 -0.02075997 0.03729299 0.0020476796 0.05647407 -0.061109323 0.035145555 0.05840223 -0.040011097 0.0105615705 0.016472852 0.018417047 -0.03003958 -0.010467485 0.056848668 0.0038444938 -0.03217368 -0.012172461 0.044684745 -0.013362801 -0.026922401 0.025501786 -0.014100404 -0.0077581042 0.03720984 0.011102439 -0.027817069 -0.006381924 -0.0479461 0.029670047 -0.028945202 -0.0057627982 -0.004820721 -0.0051182644 -0.020587776 0.0056176595 0.062733546 -0.023143165 -0.016972916 0.021678623 0.021789523 0.040247902 0.02978367 -0.028912812 0.002456426 0.01797903 -0.014304719 -0.01974929 -0.003514088 0.010557198 -0.046317976 0.046004947 -0.018431144 0.009211815 -0.038022496 0.04483911 -0.045215223 -0.061837412 -0.009522157 0.010876572 0.015719656 -0.028181778 -0.021986188 0.035004012 0.011593946 -0.026812928 0.01173534 0.0060922164 0.007773974 0.026135784 0.016615221 0.012008525 0.0018678978 0.028549721 -0.016861994 -0.013123292 0.0042884755 -0.0140734445 -0.007264449 0.018104192 0.0134156495 0.008843708 -0.011570954 0.0024068602 -0.0003230181 -0.008720761 -0.028375585 -0.06672544 0.016851759 0.047959894 -0.017653208 0.0241238 -0.006187534 -0.013753364 0.052650694 -0.03838497 -0.015628116 0.048483856 -0.05517062 -0.0087955315 0.0067779664 0.010013591 -0.027784774 -0.0021932563 -0.013548966 -0.018395483 0.020242827 -0.03406519 0.03354041 0.015299125 -0.060593255 0.032146614 -0.03596858 -0.045349497 0.02004855 -0.019159768 -0.03755467 -0.05789774 -0.04598629 0.05284268 0.014188295 -0.029956924 0.01328245 -0.026606383 0.0378654 -0.01307131 -0.029513134 0.009797436 -0.047923084 -0.051657412 0.0071349 -0.02095562 -0.042259317 0.003317065 -0.0064909714 -0.013591285 -0.056045588 -0.004018134 -0.0022543678 -0.006112145 0.03541191 0.03813281 -0.036390316 0.004681138 0.0029766038 -0.01740634 0.05595099 -0.011006951 -0.013182434 0.011235641 0.030438414 -0.007479168 0.014843728 -0.026804764 0.06637994 0.030261802 -0.00026355925 -0.079971515 -0.027667176 0.059476554 0.018694874 0.007106637 -0.028397517 -0.0037870563 0.038346045 -0.008864316 0.021033552 0.022119684 0.018016683 -0.039542884 0.036399875 0.03527827 0.030853607 -0.0121587245 -0.0028004039 -0.013971423 0.007408222 -0.011514405 0.032567307 0.0084283585 -0.040548146 0.054094616 0.012297707 0.011234287 -0.009576323 0.020848373 -0.0054312884 -0.005375179 0.026521629 0.0153043615 -0.030073928 -0.03436747 0.0019095213 0.00465962 -0.009893545 -0.008736946 0.00024840556 -0.05907002 -0.00031332625 0.02358057 0.004429463 -0.026314896 0.007925234 0.050848573 0.0021278895 -0.009856367 -0.054725733 -0.05252418 -0.0076677473 -0.034130674 0.0011341125 -0.013994239 0.0062763304 -0.009081609 -0.044137165 -0.01451489 0.026404733 -0.04114437 0.0126685435 0.0069996566 0.0006083647 -0.01199472 -0.03003915 0.0027864017 0.018194448 -0.0020205136 -0.010542287 -0.06619719 0.027811673 0.01027279 0.05494438 -0.0490149 -0.014976991 0.045724507 0.006368622 -0.010975313 -0.06462851
8_44 -0.039943412 -0.06137571 0.006343286 0.018817615 -0.0071246135 -0.0011293616 0.014292876 -0.05570444 -0.003514734 0.021069512 0.020888316 0.036039904 -0.032904994 -0.021502312 0.015854664 -0.032358788 0.021296153 -0.002315754 -0.0019976033 -0.045873217 -0.02487224 -0.025959214 -0.08123081 -0.0070907185 -0.02242119 0.006967593 0.057763863 0.010123455 -0.02733274 0.012371265 0.005982066 -0.022920942 0.018363127 0.023667676 0.029911647 -0.016911259 -0.041841507 0.04664512 -0.0026349553 -0.008529396 0.04447733 -0.013469882 0.03291471 -0.015306858 -0.016366819 -0.051006835 -0.024033336 0.014511705 0.016953122 0.016945422 -0.013298887 0.10483285 0.013770055 0.002221232 -0.017247478 0.035810433 -0.009937943 0.005898438 0.06291168 -0.017456312 -0.10062556 -0.025298866 0.013355499 0.042290464 0.01591066 0.02515522 -0.01208786 0.00050978037 -0.005295488 0.006260207 -0.046480462 0.07642482 0.0043587866 -0.003696603 -0.028666303 0.057254612 0.024863288 0.0026974254 -0.019126035 -0.0155961 -0.005372773 0.022872979 0.011428618 0.034969345 0.021877581 -0.0054411846 0.015777536 -0.010856756 -0.007803167 -0.009152254 0.019713668 0.04947077 0.02535608 0.008509894 0.004118304 0.0665335 0.008377491 0.014010643 0.07174179 -0.0065930746 -0.029033821 -0.002951738 -0.012164475 0.011596722 -0.0006908325 -0.021119015 0.039139397 0.03540418 -0.013723826 -0.022817196 -0.070349015 0.023640828 0.026205452 0.013219497 0.016664473 0.0006055498 0.023222202 0.037117936 0.06325737 0.0231408 0.031914666 0.014580871 -0.033768162 -0.0042569074 -0.023783589 -0.04022401 -0.030969515 -0.0002828893 -0.0051605846 0.005814871 -0.036679566 0.015144616 -0.03145451 -0.024098856 -0.003110813 0.012383222 -0.046335783 0.02110742 0.01676248 0.03489379 -0.013431661 -0.04864871 0.02156583 0.0013723014 0.036826536 -0.064457834 -0.008467363 -0.020477789 -0.049099203 -0.02516664 0.015233978 0.021360632 0.04027279 0.0015444941 0.0033502015 -0.011433396 -0.013452076 0.02954436 0.002253834 0.04069436 0.006505814 0.0037387717 -0.021171778 -0.015019649 0.02973224 -0.04467447 -0.0006567955 0.05130411 -0.003726301 0.0054387692 0.0031282248 -0.02251641 -0.05226126 -0.018650148 -0.028203042 0.029201478 -0.017365336 -0.03170477 -0.018460713 -0.050091654 0.004638125 -0.044246037 -0.03056871 0.008517822 0.05842544 -0.038863104 0.0011333991 -0.04859002 0.044806223 0.020579468 0.07047528 -0.0041195946 0.04895074 0.04349103 -0.027194703 -0.06860622 0.009939199 -0.0026676364 -0.0074061374 0.028280424 -0.07826429 -0.021411682 -0.009435653 -0.01680409 0.008621237 0.010141707 -0.059473645 -0.02679932 -0.012428334 -0.0031801027 -0.03790608 0.010865057 -0.021076676 -0.031228399 0.06395462 -0.06567718 -0.06030623 0.026004057 0.012265754 0.012895754 0.0003486542 0.013682872 -0.051215902 0.02978227 -0.002085742 0.005213599 -0.009940699 0.0049516805 0.09447503 0.061001148 -0.025894891 -0.0030947905 -0.06622453 0.03356865 0.008936459 -0.019943394 0.050087344 -0.012224491 0.032575745 0.052361414 -0.0027048178 0.0035807483 -0.035307225 -0.032231323 -0.03152933 -0.06376125 -0.02224204 -0.011474001 0.018809482 0.02094538 0.006470094 0.045846626 0.009479254 0.039150953 -0.014146794 -0.0027205008 -0.0021938384 0.0324305 -0.03399275 0.01213865 -0.047840748 -0.0110983765 0.025012637 -0.029542634 -0.038464174 0.031129176 0.0060742088 0.062022157 -0.014583606 -0.026114576 -0.037094373 -0.03604252 -0.030932637 -0.08557348 0.06750943 0.00937954 0.03262638 -0.012965595 0.03042159 -0.015662543 -0.007390554 0.032241967 0.016513806 0.028383343 -0.048482984 0.026836405 0.0032720196 0.016152833 -0.044837665 -0.015095795 0.0065238983 -0.063014776 0.018592175 0.0020278331 -0.0047528557 0.016429558 0.01927408 -0.07839095 -0.04233859 -0.045526374 0.019496033 -0.091937676 0.013518439 0.032365512 -0.02607101 -0.00031968934 -0.0019567187 0.020086132 -0.009309201 -0.048163343 0.039871752 -0.0016273669 0.03382954 0.011476429 -0.010633917 -0.04004899 -0.024838353 -0.014619704 -0.030670665 0.022309745 -0.019007849 0.0032567165 0.0076568793 0.005258792 -0.022146003 0.04168172 0.010662897 0.0064810184 -0.038698725 -0.00865444 0.0122446995 0.044022575 0.006390877 0.02211496 0.055246495 0.034662504 0.013180687 -0.03194536 0.09350444 -0.028231911 -0.0034942753 -0.02649003 0.00011467809 -0.050949376 -0.017180981 -0.0199294 0.0014858035 0.023449248 0.016186811 -0.010397381 -0.019467613 0.03546263 -0.054586276 0.014353388 -0.028081112 -0.037805486 -0.027244546 -0.004036113 -0.00061107933 0.005693229 -0.01393508 0.050601896 0.024948917 -0.037445806 0.0035210028 -0.033147134 0.02837626 -0.06418204 -0.045124922 0.02313162 -0.00828046 0.03599709 0.021396272 0.023108793 -0.024068426 0.0030424013 -0.022984328 -0.008293892 -0.022381555 -0.022103371 0.06280845 -0.0039323294 0.0022516218 -0.010138492 0.014352163 0.007471033 0.008740375 0.033625282 -0.020276144 0.0021727695 -0.021268565 -0.008042902 -0.04760569 0.00049425365 0.014505112 0.05307147 -0.020382 -0.053020496 0.043547504 0.011075659 0.023261966 -0.025988653 0.0070076887 -0.032803457 -0.00046625748 0.032599036 0.026560707 -0.08457059 0.035090182 -0.005158906 0.036393717 0.019984467 0.021532323 0.034504145 -0.020288408 0.011834369 -0.014210831 0.017929124 -0.023965942 -0.0052030887 0.047014862 0.08332071 -0.027571842 0.013992684 -0.0065352195 -0.0019470721 -0.06579847 -0.02296079 0.0029194131 -0.028020216 -0.0478224 -0.014987649 0.03438221 0.009859014 0.033977497 -0.019877305 0.03288001 -0.03852396 -0.06686338 0.0046633696 0.007082372 0.094953924 -0.01261911 0.014358155 -0.00316822 -0.006648653 0.006089475 0.03475315 -0.0016302887 -0.029127672 0.025924634 0.036808934 0.0011245009 -0.016471723 0.035388608 0.023575148 0.013987823 0.005169552 -0.027045907 0.008068451 -0.07507929 -0.062829144 -0.01227107 -0.004022726 -0.026870102 0.010224351 -0.05641446 -0.017653754 0.044806156 -0.022026518 0.0056867218 0.018530149 0.006318739 -0.008508417 -0.07374357 -0.024928512 -0.032136124 0.005926421 0.008601072 -0.00985815 -0.031232938 0.026636124 -0.01854653 -0.010645625 -0.05496051 0.02503833 -0.045082644 0.008431784 -0.0026344494 -0.0012293316 -0.021732174 -0.031060215 -0.003293717 -0.05061287 -0.056769256 0.021256454 0.018293733 0.03228176 -0.03355322 -0.034475036 0.024020907 0.0070025283 0.009055242 -0.01030971 -0.042398382 -0.007884215 0.036935836 0.0012361214 -0.0142615335 -0.0048558153 0.026631514 -0.036982678 -0.039283972 0.020384738 0.00995261 0.033461742 0.010664138 0.018640636 0.017171392 -0.004112213 0.0072487853 -0.05127611 0.0011539867 -0.0029837987 -0.004604316 -0.025605964 -0.020818949 0.0073853647 0.014346009 0.02168669 0.025351603 -0.01930996 -0.025552336 -0.019010516 -0.018935543 -0.036223564 -0.023808377 0.021619633 0.020417573 -0.010650997 0.050252322 0.06478248 -0.008789759 0.06346583 0.0068182 -0.05403348 -0.034908246 0.018369067 -0.058333457 0.037133403 -0.008425405 0.050951514 -0.026436891 -0.008055549 -0.013256639 0.003642013 -0.0129153 -0.021369128 -0.042337447 -0.056967903 0.011601521 0.037861194 0.013066711 -0.028684529 -0.02007462 -0.048722494 0.00017082591 -0.00048080896 -0.013561598 -0.022051938 0.033087537 -0.024227662 0.054515023 -0.042075 -0.032619268 -4.136936e-05 0.020441357 -0.01940698 -0.0013999303 0.0007566075 -0.0029922638 0.07215761 -0.0148667535 0.06361601 0.04180273 0.049838703 0.03212199 0.006733918 -0.022552887 -0.02449457 0.06645308 0.027224058 -0.054936245 -0.0010852877 -0.04646841 -0.015996506 -0.039086808 0.00216717 0.010216511 -0.021218255 -0.04831897 -0.006091992 -0.013438938 0.009086169 0.045700036 -0.009002759 -9.4594776e-05 0.026004918 0.015308137 -0.055420507 0.010542796 -0.013743668 0.016130973 0.007929912 0.025787784 -0.0070697363 0.036555283 -0.028228771 0.013430603 -0.011207581 -0.017055305 0.0007614935 -0.0401236 -0.02813249 -0.0043202867 0.04746575 -0.017873036 0.043819856 -0.06826772 0.0092089595 0.0056518763 0.01186029 -0.027876971 0.025375627 0.011511528 0.022456326 -0.025457311 -0.008510627 0.031072754 -0.011715246 -0.0067912936 -0.009834901 0.0020633612 -0.046440985 -0.0033770509 0.01928819 -0.057042167 0.019564128 -0.0057834047 0.019565921 0.02945662 0.017535461 -0.03542635 0.045351308 0.022555444 0.03404791 0.0032785763 0.062915996 0.008643431 0.037314758 0.004562374 -0.03568569 -0.011836759 3.9973398e-05 0.01008113 -0.017647803 0.071556225 0.023226231 -0.008340279 -0.011220437 -0.00057953736 -0.02176441 -0.0074253087 0.027088584 -0.012150921 -0.018932344 0.008631024 -0.020139445 -0.043145146 -0.012167421 0.0009921347 0.057370525 -0.0011772392 0.014896785 -0.0047116675 0.035375755 0.01226127 0.007583129 0.014502999 -0.008174304 -0.05346344 0.012767466 0.047867574 -0.020197786 -0.08370584 -0.0068245362 0.0025385246 -0.004034966 0.002703027 0.029762655 0.05391212 0.0074759834 -0.037293352 -0.004468545 -0.022595378 0.026301714 0.0721434 -0.032901775 -0.022196705 0.018783642 0.029581783 -0.017440071 -0.011403117 -0.070695736 -0.010963828 -0.053532258 0.036755025 -0.08481794 -0.002214784 -0.010742108 0.0007252867 -0.031023836 0.024644667 0.022835027 0.017639397 -0.01009129 0.0064309714 -0.0058781337 -0.024205668 -0.07132225 0.021354252 -0.016630521 -0.040979292 -0.023912499 -0.018602349 0.036280345 0.019116137 0.0007262959 0.015660739 0.031927936 -0.0653918 -0.012595033 0.018329827 0.018173799 -0.005559907 -0.0021631455 0.009262423 -0.047914453 -0.0030686767 -0.01799113 -0.0072468137 0.0358036 0.012796296 0.018969696 -0.0035838454 0.028721945 0.010327693 -0.021819264 0.019216936 0.0132155325 -0.010016875 0.028137393 0.031442482 0.010790447 -0.009727709 -0.024495587 0.022658966 -0.01300769 0.008474622 -0.004751596 -0.05428493 -0.013240681 -0.033151846 -0.01059205 0.030447168 0.010153787 0.007324689 0.01115077 0.024286462 -0.010346752 0.0073741777 -0.007218972 -0.022653166 0.048585583 0.0056730593 0.0069338595 0.019336537 0.0028798273 0.0122924475 -0.06336692 -0.02012135 0.0148030035 -0.059929196 0.017849414 0.025724854 -0.0034301318 0.018574456 0.025117893 -0.0051891054 0.0075764344 -0.0077580013 0.011872557 0.016320158 0.04176691 0.01686417 0.016880956 -0.0026140744 0.021157492 -0.037245743 -0.06791845 0.074790515 -0.006787527 0.012550816 -0.063937865 -0.046302162 -0.018810539 -0.017536383 0.018198675 0.004151152 0.029486446 0.047727104 0.020151624 -0.012857823 0.01039382 -0.0034156393 -0.07860638 0.01006957 -0.0167571 -0.06527641 -0.017664263 -0.05640475 -0.039841354 0.008359655 0.00015938083 -0.054038465 -0.041175142 -0.022491382 0.0068910923 0.020714076 0.014526687 0.025769569 0.014478723 0.030106513 -0.040458936 -0.029502368 0.04909726 -0.025471168 0.053617686 -0.057656523 -0.043148685 -0.010560538 0.026808707 0.019016337 -0.03201878 -0.007134025 -0.0016982702 0.061847556 -0.030885667 -0.025311606 -0.015734144 0.027630942 0.0155775305 -0.030951714 0.0018551847 0.025239196 -0.021828625 0.011938067 0.00039711402 -0.04892952 -0.0067276186 0.0067366026 -0.03574553 -0.030186052 -0.03495711 -0.002526222 0.040938057 -0.029757705 -0.036268156 -0.07585156 -0.046312865 0.045538977 -0.043417722 -0.06258806 -0.009150297 -0.0063745 0.033993613 -0.07823783 -0.036121506 0.0038846564 0.014697209 -0.038299005 -0.023490485 0.05002148 -0.02045943 -0.016394148 -0.0025510476 -0.003955699 0.016844388 -0.047797956 0.045468625 -0.008335555 0.0179539 0.025675882 0.0010050882 0.028463693 0.007758794 -0.09162858 -0.0027210582 0.02206863 0.0101735825 0.036325116 -0.063648716 -0.011264297 -0.032851294 -0.035761096 0.03876357 0.0099046985 -0.02741209 0.051996723 0.001531531 -0.008484163 -0.008397905 -0.017918378 0.033037752 0.011487818 0.01561503 -0.0063329344 0.014588102 -0.016491279 -0.027511174 0.01090434 -0.00241573 -0.007520847 -0.0029468746 0.026786527 0.07202794 4.8861617e-05 0.018557837 -0.036483735 0.005775017 0.030597502 0.015451655 -0.024590692 0.0871031 0.07115938 -0.011341467 0.011259211 0.009479161 -0.041562356 -0.01616226 -0.00016956218 -0.052128717 -0.06889136 0.009150934 0.0044071972 -0.037084933 -0.035733733 -0.015870167 0.01789029 0.010872998 -0.03232392 -0.001799296 -0.02759281 0.04407697 -0.034507867 0.02427738 -0.018780656 0.012759524 -0.039224595 0.036624704 -0.007970599 0.0074435337 -0.027557364 -0.056312025 0.034410916 0.0204129 -0.022046756 -0.018953612 0.008141425 0.039142117 0.0062460178 0.009935986 0.016958581 0.024908422 0.0036937606 0.032987315 -0.0209813 0.013157361 0.06430095 -0.013979311 -0.020257453 -0.037871383 0.042791247 -0.021072356 0.069104515 0.032797575 -0.03366751 0.017406097 -0.003938247 0.01721727 -0.014265926 -0.014482546 0.02286629 0.0062023485 -0.0102592325 0.02559066 0.035599682 -0.004227517 -0.032526046 -0.031738803 0.003976002 -0.006257021 -0.021008372 -0.029094677 -0.037401717 -0.029083326 -0.016504113 -0.031068392 -0.0067587383 0.0562576 -0.012543223 -0.018229807 0.0022600733 0.02829167
